2709 50
1033 0.112915 0.165458 -0.139316 0.02573 0.0222267 0.236328 -0.364129 0.478999 -0.0711418 -0.00259047 -0.033421 0.188117 0.179147 -0.0334235 -0.133989 -0.0508854 0.204676 -0.261165 -0.0376385 -0.0326782 -0.0032904 -0.025628 -0.0692164 -0.0939153 -0.0686247 -0.00762276 -0.451224 -0.641821 0.0832423 0.313562 0.11569 -0.236789 0.0864583 0.215451 0.484658 0.199022 0.0489619 0.00736674 0.02954 0.434429 0.207197 -0.196862 -0.000538827 0.0224801 0.271585 -0.391683 0.0376335 -0.096417 -0.409872 0.0683212
35 0.021131 0.139754 0.1732 0.117414 0.0136919 -0.0670188 -0.219812 0.260482 -0.105731 0.0272293 -0.00376213 -0.120338 -0.00613626 0.02319 0.0607077 0.022691 0.000988632 -0.00720969 -0.0736224 0.117708 0.0234276 0.0322797 -0.0171795 0.0566426 -0.0159164 -0.0505277 -0.206696 -0.288714 0.00549747 0.122647 0.0463043 -0.142497 0.220819 0.500796 0.188451 0.0839404 -0.0110849 -0.0408327 -0.00910256 0.135714 0.368793 -0.284872 -0.280652 -0.426317 0.240046 -0.344429 0.0077547 -0.0639398 -0.30077 0.0472698
103482 0.121751 -0.0356368 0.30448 0.0367095 -0.093773 0.185738 0.44279 -0.556382 -0.0329295 -0.0467254 0.0908441 -0.509469 -0.0478588 -0.00378667 0.1514 0.220821 -0.170104 0.242241 -0.0400312 0.0593484 0.106454 0.0233647 0.0817406 -0.113475 -0.0633776 0.300919 0.0813594 0.00708291 -0.21596 -0.531397 -0.073736 -0.148713 0.696118 1.61485 0.585677 0.262541 -0.219532 -0.239796 0.0354006 0.529152 2.10907 -1.59554 0.169771 0.218983 0.175875 -0.118298 -0.645407 1.38001 -1.33749 0.17082
103515 0.0503414 -0.0260064 -0.143578 -0.0328233 -0.012415 0.0795291 -0.382763 0.437113 -0.00528083 -0.0517603 -0.0458715 0.351485 0.052663 -0.0122253 -0.0519298 -0.00128623 0.144408 -0.168359 -0.0140228 -0.0248203 0.00663089 0.00175975 -0.0509006 -0.0346567 -0.00735053 0.00866108 -0.295793 -0.428219 0.0303043 0.294088 0.185511 -0.352808 0.0581754 0.187281 0.253316 0.111519 0.00502897 -0.0549736 0.022093 0.213704 0.0785339 -0.0901947 0.26237 0.402123 0.00562695 -0.0284939 -0.0118853 0.0376979 -0.00294534 -0.0227103
1050679 -0.271425 0.115283 -0.100686 -0.229533 -0.162677 0.467704 -0.440535 0.451723 -0.0248279 -0.502232 -0.162948 1.03066 0.0375443 0.06765 0.515075 0.0351459 0.140718 -0.154355 -0.0975377 0.0889505 0.0512815 -0.11292 -0.445925 -0.528036 -0.191888 0.1006 -0.335223 -0.537601 0.000195706 -0.282675 0.306669 -0.568543 0.112747 0.403012 0.592742 0.187243 0.132276 -0.0640704 0.104663 0.57278 0.159446 -0.27691 0.140781 0.267996 0.142682 -0.257391 0.0272901 -0.0338461 -0.38862 -0.0177718
1103960 0.0612978 -0.0587601 -0.181855 -0.15486 0.0185005 0.269712 -0.342606 0.417777 -0.0834271 -0.123773 -0.177142 0.726179 -0.0342205 -0.0352008 0.0918685 0.000869105 0.47609 -0.507635 -0.0747642 -0.107639 0.0882232 0.0363992 -0.313562 -0.237366 0.0159302 0.0449341 -0.207877 -0.319604 0.0136121 0.325431 0.322227 -0.61723 0.00679082 0.00475033 0.270452 0.105687 0.00238304 -0.178944 0.104979 0.649143 0.0622937 -0.144876 0.114975 0.224243 0.176447 -0.296354 0.115307 -0.280153 -0.294043 0.0236269
1103985 -0.0355283 -0.0273908 -0.361553 -0.318996 0.00580147 -0.203124 0.167948 -0.292429 -0.169361 -0.10594 -0.0106932 0.148534 0.0198028 -0.11593 0.0707732 -0.0144345 0.491491 -0.549549 0.0369623 -0.25742 0.0812283 0.0542397 -0.255793 -0.213479 0.0242236 -0.0247448 -0.389492 -0.555239 0.0494543 0.264974 0.205851 -0.294445 0.017706 0.0927355 -0.245935 -0.0855347 -0.105928 -0.308939 0.0953423 1.02871 0.304805 -0.353914 0.03625 0.0938596 0.218329 -0.392965 0.0208694 -0.0844586 -0.699338 0.077608
1109199 -0.0260286 -0.211526 -0.120377 0.00393527 0.0139616 0.0265365 -0.0588097 0.0394339 -0.05498 -0.0318705 -0.0868611 0.257931 0.216113 -0.0949581 -0.11367 -0.0744225 0.40794 -0.443917 -0.10123 0.0467493 0.0648211 0.0385274 -0.0939229 -0.00150407 -0.0104062 0.031592 -0.262894 -0.400267 -0.00190523 0.044928 0.0843832 -0.0936428 0.0533598 0.177392 -0.022541 -0.005708 -0.0985937 -0.247676 0.00760442 0.426928 0.367829 -0.298433 -0.303415 -0.401243 0.250139 -0.360787 -0.0809672 0.136096 -0.410583 0.0514891
1112911 0.0674875 -0.140486 -0.124307 -0.0210747 0.0112702 -0.00302563 -0.241193 0.262527 0.0164106 0.0456024 -0.0576876 0.0449968 0.00197562 -0.026235 -0.0286092 0.0064713 0.0734038 -0.0788797 -0.00630065 0.0232111 0.00141612 0.0209172 0.00645026 0.0549261 0.0708595 -0.034602 -0.221606 -0.319896 0.0362669 0.128469 0.0966644 -0.199684 0.199059 0.532333 -0.0362098 -0.0202342 -0.0501114 -0.0563295 -0.022662 0.0699934 0.803478 -0.566968 -0.348307 -0.526993 0.256649 -0.383316 -0.214685 0.4383 -0.538108 0.0979217
1113438 1.07701 -0.847496 -0.578567 -0.207049 -0.112758 0.512947 -0.249689 0.216342 0.161929 0.0104281 -0.0433327 0.251148 0.359624 -0.161215 -0.673988 -0.224277 0.902516 -0.978003 -0.07973 0.152052 -0.0173368 -0.119914 -0.0589073 -0.0718292 0.0149277 0.00828735 0.190393 0.324127 0.119903 0.564315 0.173806 -0.501406 -0.0261239 0.0265442 -0.145894 -0.0757421 -0.0818597 -0.119351 0.0733518 0.680106 0.610338 -0.428657 -0.244884 -0.387636 -0.160603 0.325622 -0.205555 0.250859 -0.568868 0.102347
1113831 0.075533 -0.0556171 -0.226944 -0.130821 0.0112665 -0.0438673 -0.365921 0.386444 0.0347517 0.0411985 -0.0561859 0.259609 0.0820771 -0.0279734 -0.146061 -0.0429707 0.17199 -0.197143 0.0233451 -0.0319175 0.00852188 -0.000882103 0.000904488 -0.012444 0.00935612 -0.00292034 -0.350927 -0.513675 0.0248799 0.178456 0.114458 -0.229443 0.132306 0.375097 0.181281 0.0820962 -0.11093 -0.176601 0.0102762 0.348776 0.575553 -0.442035 -0.26443 -0.368245 0.1528 -0.219102 -0.190214 0.380334 -0.409033 0.0568499
1114331 0.0463649 -0.105775 -0.152085 -0.0830932 0.0186188 -0.0685417 -0.384706 0.380302 0.0929642 0.030976 -0.037075 0.201379 0.0494848 -0.0267562 -0.145206 -0.0456695 0.145956 -0.157885 0.00947769 0.0107427 0.0050785 0.0202706 -0.00431502 -0.00626429 0.00330259 -0.00942688 -0.337567 -0.519122 0.0213398 0.0866069 0.104533 -0.204084 0.192888 0.481071 0.0659284 0.0194861 -0.135397 -0.215469 -0.00769137 0.236739 0.532781 -0.395465 -0.448587 -0.647234 0.245071 -0.357405 -0.189974 0.387799 -0.408968 0.0842463
1117476 0.107554 -0.0917755 -0.0557566 -0.045172 -0.00728933 -0.0640315 -0.168807 0.165866 -0.028327 -0.029011 -0.0319244 0.240388 0.0423118 0.00518952 -0.0418084 -0.0372279 0.0926333 -0.122514 0.0253329 0.00430054 0.00585914 0.000213918 -0.0108702 -0.000343063 0.0177444 -0.0246458 -0.14968 -0.209449 0.0218844 0.112178 0.0573261 -0.0949699 0.0764481 0.228607 0.0727553 0.0333266 -0.0269833 -0.0457675 0.0217694 0.189273 0.404968 -0.316587 -0.175339 -0.245794 0.102333 -0.167852 -0.089505 0.203721 -0.212171 0.0381947
1119505 0.0329858 -0.0801721 -0.200208 -0.0669265 0.0170019 -0.0373031 -0.201833 0.235772 -0.00624387 0.0286624 -0.0171237 0.0815268 -0.0256522 0.015629 -0.0303607 -0.0171908 0.0609141 -0.0774345 0.00907485 -0.0143489 0.00994521 -0.0325748 -0.0247614 -0.0267035 0.00319394 -0.00971 -0.143102 -0.202102 0.0391621 0.0140675 0.0392245 -0.0746808 0.155523 0.454224 -0.0689368 -0.0168148 -0.0808631 -0.0868857 -0.0181774 0.0864687 0.907725 -0.656288 -0.47593 -0.705876 0.263241 -0.374077 -0.236591 0.464465 -0.531863 0.0950213
1119708 -0.0535834 -0.072984 -0.188166 -0.0676498 0.0196824 -0.0199536 -0.300659 0.322306 0.0128362 0.0318659 -0.0553657 0.277497 -0.0165905 -0.00429582 -0.113764 -0.0398955 0.168377 -0.188668 0.0350925 -0.0790628 -0.0129884 -0.0321763 0.0187698 0.0203077 0.00704585 -0.0132132 -0.32365 -0.489645 0.0283416 0.333698 0.111989 -0.235007 -0.0104407 -0.0438818 0.313416 0.121074 -0.0748284 -0.182208 0.0357454 0.541284 0.34902 -0.293565 0.0955691 0.129148 0.00724393 -0.0142535 -0.0556247 0.16353 -0.087731 0.00100477
1120431 0.0597103 -0.110683 0.0294189 -0.0126331 0.0190483 -0.157143 -0.336055 0.322007 0.0171656 0.0165268 -0.0125838 0.0848817 0.109653 -0.0222273 -0.0879339 -0.038292 0.218891 -0.209559 0.00914593 0.0439182 0.0156068 -0.0205123 0.0144572 -0.0022388 -0.0230651 0.0613569 -0.356214 -0.502649 0.0342541 0.127286 0.0531141 -0.103038 0.0497839 0.129576 0.153659 0.0740233 -0.0549759 -0.129081 0.0249525 0.463629 0.394827 -0.313452 0.0923614 0.126175 0.0524457 -0.0939719 -0.103027 0.275184 -0.0967882 -0.000192698
1123756 -0.031703 0.0167501 -0.0749462 -0.126839 0.0654681 -0.494515 -0.515877 0.51269 0.0373022 0.0084996 -0.0265238 0.305102 0.209668 -0.0239661 0.0354672 -0.0322388 0.234094 -0.223491 0.0241693 0.0124692 -0.00702205 -0.0208386 0.00839188 -0.0376532 0.0302893 -0.00370838 -0.250535 -0.341877 0.0109184 -0.0632557 0.0710787 -0.108118 0.0676523 0.181647 0.116951 0.0591412 0.00447247 -0.0747127 0.0361515 0.355498 0.353017 -0.288323 0.00559403 0.00763474 0.145134 -0.238547 -0.226507 0.465287 0.00594714 -0.00361587
1125386 0.0629244 -0.0423742 0.0396405 0.049358 0.0414948 -0.257313 -0.335961 0.330815 0.0592094 0.0259119 -0.0370177 0.180481 0.0675533 -0.00858877 -0.127763 -0.0697811 0.141447 -0.13881 -0.0409667 0.116462 0.00651318 -0.0161578 0.00710117 -0.00555487 -0.0154048 0.0201496 -0.0920599 -0.110617 -0.0127491 -0.0649668 0.0302872 -0.0456137 0.126965 0.35051 -0.0527988 -0.0257341 -0.0757934 -0.105564 -0.0218007 -0.0271807 0.459828 -0.331393 -0.281851 -0.402242 0.102127 -0.136976 -0.176203 0.371862 -0.082759 0.0145399
1127430 0.0924245 0.133965 -0.177196 -0.0612552 0.0568397 -0.268611 -0.213945 0.219856 0.0663571 0.038862 -0.0253105 0.145862 0.0143825 -0.0343909 -0.00506883 0.00612682 0.102011 -0.12606 0.0598227 -0.0924 -0.0498861 0.0171002 0.0440925 0.0653951 0.0635167 -0.0343787 -0.339767 -0.497348 0.0652985 0.28467 0.112427 -0.239137 -0.0390745 -0.120395 0.221443 0.0787685 -0.00774858 -0.0636621 0.0331487 0.365995 0.0324418 -0.04504 -0.028405 -0.0290224 0.0149177 -0.0369329 -0.0854853 0.189728 -0.207989 0.0136904
1127913 0.0423485 0.183876 -0.112939 -0.0670976 0.106178 -0.539395 -0.220391 0.175535 -0.0280074 0.0383157 -0.0406847 0.0919268 0.145509 -0.0503629 -0.171628 -0.100432 0.112187 -0.208837 0.0843832 -0.184264 -0.129068 -0.0856423 0.125855 0.0791914 0.15852 -0.0429445 -0.369562 -0.566504 0.0995315 0.311227 0.129196 -0.335323 -0.0508344 -0.139189 0.209345 0.0823304 -0.145195 -0.272012 -0.0123641 0.643193 0.389239 -0.283939 -0.206561 -0.320419 0.11183 -0.168541 -0.146019 0.250363 -0.395542 0.0500885
1128204 0.229461 0.20694 -0.280508 -0.0136284 0.0465593 -0.215957 -0.0223601 0.0773976 0.0141658 0.0462795 -0.0266621 0.251055 0.00396279 -0.0139111 0.049994 0.000991357 -0.0214128 0.000287071 0.0795179 -0.0670577 -0.0968372 0.0309646 0.127035 0.139592 0.0298037 -0.062013 -0.21113 -0.313463 0.0354125 0.235573 0.0842905 -0.191377 0.0591176 0.196249 -0.049662 -0.0430912 0.0500724 0.0968356 -0.00232686 0.0638686 0.599057 -0.433122 -0.366982 -0.515146 0.155287 -0.219439 -0.0998347 0.214646 -0.338204 0.0541438
1128227 -0.0594215 0.179133 -0.198996 -0.106713 0.00669569 0.200431 -0.20555 0.265905 -0.0337679 0.0633816 0.0228118 -0.09394 0.0252053 0.0160682 -0.186503 -0.0647276 0.00274151 -0.0169155 -0.0711064 0.0805986 -0.0485566 0.0403418 0.212685 0.21715 0.0916967 -0.039786 -0.426833 -0.643054 0.0649601 0.206673 0.137145 -0.271018 -0.0153568 0.0163083 0.301693 0.113269 -0.0619298 -0.1065 0.021957 0.284381 0.174982 -0.124441 0.0567313 0.0667926 0.258323 -0.428621 -0.175837 0.385312 -0.176397 0.00785348
1128314 -0.135941 0.153327 -0.184972 -0.126918 -0.00273664 0.293352 -0.167459 0.252957 -0.0457978 0.0990914 0.0349679 -0.162715 0.000110203 0.0292103 -0.183837 -0.062606 -0.0392099 0.0437999 -0.0442741 0.0562156 -0.0715809 0.0402512 0.268436 0.251033 0.0982351 -0.0336256 -0.439125 -0.639546 0.105787 0.089711 0.100956 -0.207782 -0.0358902 -0.0259601 0.287634 0.114245 -0.0525162 -0.0895274 0.012686 0.127477 0.260926 -0.161631 -0.0210629 -0.0614915 0.339275 -0.552381 -0.187897 0.428402 -0.150987 0.0037746
1128453 0.132062 0.0156898 -0.200882 -0.0233622 -0.0189924 0.0199154 -0.434195 0.482635 0.120932 0.0926512 -0.0133638 0.20651 -0.0047193 -0.00183103 -0.0490281 -0.0362995 0.202876 -0.221129 0.00801626 0.0364634 0.00542211 -0.0022463 -0.0107372 -0.0203968 0.0244235 -0.00741363 -0.338619 -0.486944 0.0824978 0.264256 0.133482 -0.249086 0.156951 0.433848 0.0752263 0.0511867 -0.069242 -0.0923876 0.0219193 0.382033 0.761885 -0.566352 -0.41456 -0.59832 0.31404 -0.452336 -0.358314 0.724931 -0.709067 0.10871
1128945 -0.00832074 -0.00334425 -0.0956488 -0.0278815 -0.00108647 0.106385 -0.47702 0.564353 0.0470962 -0.0266021 -0.0903432 0.428558 0.0221181 -0.0130343 0.0765539 0.00687837 0.135419 -0.141329 -0.031238 0.0182728 0.006103 0.0234092 -0.0562989 -0.0711893 -0.034168 0.0389423 -0.385999 -0.547957 0.0351471 0.342773 0.151242 -0.308532 0.0175611 0.0591443 0.463084 0.180955 -0.0111728 -0.113656 0.0464233 0.548694 -0.0590705 -0.0118321 0.219328 0.293689 0.0190622 -0.0569775 -0.0420824 0.0519542 -0.225667 0.0281816
1128959 -0.0202439 -0.418937 0.0802693 -0.0253305 0.0114061 -0.106865 -0.102387 0.102295 -0.0302968 0.038454 -0.0596006 0.395257 0.204623 -0.098507 -0.143191 -0.0608292 0.460278 -0.495201 -0.123053 0.0140137 0.0499687 0.0594969 -0.0498369 0.0373155 0.0250727 -0.0925528 -0.294399 -0.42693 -0.0510007 0.144518 0.129494 -0.217997 -0.0182561 -0.0437818 0.0355004 0.0266619 -0.0436667 -0.158909 0.0319628 0.523778 0.306321 -0.273005 -0.33952 -0.433223 0.225944 -0.359359 -0.010824 0.0370644 -0.396338 0.00501146
1128985 -0.132533 -0.396722 0.211166 0.0019979 -0.028831 0.57857 -0.30953 0.309109 -0.0452302 0.0267009 -0.134353 0.441624 0.157374 -0.130358 -0.678734 -0.174151 0.557653 -0.643078 0.17767 -0.147453 -0.172829 -0.00828494 0.324553 0.324632 0.152237 -0.0912964 -0.0897312 -0.110308 0.100804 0.412944 0.185363 -0.417861 0.169144 0.500458 0.534013 0.227754 -0.0337966 -0.066628 0.00646141 0.094747 0.212083 -0.105126 -0.149506 -0.11619 0.108947 -0.115321 -0.577342 1.16243 0.234157 0.00151375
1129018 0.110738 -0.325769 0.0274001 -0.0784894 0.0877663 0.472556 -0.300022 0.262036 -0.0755549 0.132334 -0.163466 0.327165 0.0792964 -0.126737 -0.846962 -0.164795 0.733073 -0.836187 0.154604 -0.153276 -0.14948 0.01213 0.275675 0.281799 0.0666094 -0.110967 -0.103576 -0.0791608 0.122268 0.33204 0.117707 -0.297005 0.1523 0.427958 0.193152 0.0753683 0.0411013 0.0355688 -0.0504302 -0.153471 0.372089 -0.211168 -0.138184 -0.185626 0.151744 -0.135516 -0.60427 1.14403 0.250464 -0.00780462
1129027 0.0877555 -0.10701 -0.127808 -0.00135366 0.0304324 -0.115164 -0.133186 0.178297 -0.0426377 0.0249879 -0.0404723 0.273104 -0.0437996 -0.00700395 -0.10531 -0.0259202 0.0849193 -0.101665 -0.0112302 0.084254 -0.0303469 -0.00179915 0.0579298 0.0471143 0.0272654 0.00550794 -0.256469 -0.383373 0.0416476 0.187121 0.0933934 -0.182084 0.00890383 0.052306 0.253527 0.103543 -0.105757 -0.196421 0.00536338 0.418031 0.167543 -0.132573 0.0193852 0.0294256 0.0969927 -0.102032 -0.0274099 0.0158646 -0.186369 0.0374582
1129573 0.0614074 -0.0349594 -0.134621 -0.0381387 0.0213265 -0.000793428 -0.214098 0.24023 0.00842059 0.0362904 -0.0198803 0.0445331 0.0367524 -0.0234096 -0.0774879 -0.0146932 0.0425171 -0.0457924 0.00788297 -0.00916653 0.000651074 -0.00240638 -0.0116401 -0.0180875 -0.0241052 0.00181833 -0.0250574 -0.0278001 -0.00134247 -0.0713984 -0.00184105 -0.0123966 0.15419 0.39343 -0.10095 -0.0396987 -0.0399144 -0.0221164 -0.0358359 -0.0683717 0.723971 -0.498191 -0.459008 -0.654253 0.219585 -0.302566 -0.184705 0.368801 -0.401469 0.0653242
1129683 0.140105 -0.232879 -0.517575 -0.173947 0.0460657 -0.408571 -0.127878 0.0943077 -0.00665694 -0.0324632 -0.0476933 0.275764 0.181858 -0.0791349 -0.100636 -0.0617226 0.00113865 -0.00775633 0.0883247 -0.1238 -0.048787 -0.0674298 0.120465 0.0948025 0.0960647 -0.0158143 -0.708108 -0.974257 0.0355008 0.168869 0.0218032 -0.0137182 -0.0041245 -0.0182044 0.207089 0.101718 -0.0538723 -0.0937732 0.0462619 0.49953 0.0774739 -0.129734 0.164782 0.263049 -0.0529267 0.0598477 0.0632446 -0.108295 -0.229083 0.027968
1129778 0.0973401 -0.0103133 -0.195158 -0.0831771 0.00231084 -0.102546 -0.261789 0.26528 0.0453377 0.0273679 -0.0227771 0.0755536 0.0687242 -0.0391555 -0.159376 -0.0518556 0.0190211 -0.0375622 0.0127523 0.0501466 -0.010025 -0.00852563 0.0787031 0.0501457 0.0276419 -0.026968 -0.219061 -0.309048 0.0207605 -0.00575381 0.0353415 -0.0453318 0.180394 0.465132 0.151971 0.0591098 -0.114393 -0.177676 -0.0207971 0.137196 0.807126 -0.568579 -0.399849 -0.58596 0.18658 -0.25476 -0.161863 0.321633 -0.358281 0.06098
1130847 0.181293 0.123317 -0.0117813 0.0943966 0.111402 -0.605764 -0.264268 0.292961 0.0447314 0.109898 -0.0159208 0.139897 0.272567 -0.109578 -0.363202 -0.100166 0.0246283 -0.0489158 -0.00633347 0.0689186 0.0524151 -0.0941458 -0.026054 -0.207584 0.034561 -0.0109546 -0.778083 -1.04656 0.0804481 0.965307 0.190796 -0.555327 -0.0293404 -0.109728 0.769397 0.29167 0.0402875 0.043736 0.026495 0.153696 -0.330928 0.180546 0.204531 0.27828 -0.138692 0.23743 -0.111697 0.295912 -0.399445 -0.0105801
1130856 0.211218 0.386092 -0.0570095 0.1132 0.120172 -0.694013 -0.122574 0.130108 0.108708 0.143933 -0.0254632 0.0228197 0.286453 -0.12896 -0.385488 -0.126657 -0.0251694 0.0199947 0.0306404 0.088343 0.0464202 -0.0941701 -0.0283022 -0.215867 0.0903709 -0.0657395 -0.881891 -1.20232 0.114938 1.06625 0.266124 -0.710408 0.127319 0.242695 0.927674 0.355323 0.048599 0.117671 -0.00737735 -0.0848676 -0.0131108 -0.00193912 0.0235745 0.0436778 -0.0854088 0.1777 -0.158398 0.352885 -0.732747 0.0378212
1131116 0.141417 0.32034 0.209516 0.154203 0.156539 -0.979723 -0.00411904 -0.0181551 0.201396 0.164605 -0.0285298 0.126093 0.444686 -0.194898 -0.495155 -0.140557 -0.0615222 0.0525829 0.0870874 0.038481 0.0573095 -0.137067 -0.0410176 -0.271132 0.037639 -0.0284378 -0.929244 -1.26176 0.0825074 1.12255 0.295262 -0.833385 0.209664 0.462376 0.812825 0.297278 0.0497253 0.183548 -0.0429624 -0.226067 0.0817624 -0.0767859 -0.10742 -0.183966 -0.0365362 0.127828 -0.164681 0.310714 -0.640072 0.025709
1131360 0.00439372 0.276298 -0.050268 0.0748486 0.10647 -0.626338 -0.123076 0.152955 0.0600121 0.146269 -0.0649731 0.195204 0.165711 -0.0945319 -0.379832 -0.0821023 -0.0383518 0.00370631 0.0260378 0.0169007 0.0297698 -0.111468 -0.036534 -0.211271 0.00967258 -0.00183657 -0.703714 -0.930965 0.0874471 0.912639 0.247623 -0.652278 0.0263234 0.0345396 0.611753 0.206052 0.0382963 0.106106 0.011589 -0.0346831 -0.0564275 -0.00735817 0.156017 0.205193 -0.0885092 0.169693 -0.145934 0.284803 -0.454063 0.00410121
1131557 -0.143568 0.445632 -0.150453 0.0522638 0.105238 -0.536285 0.138253 -0.0694524 0.0563421 0.257738 -0.0668373 0.0670754 0.176972 -0.15035 -0.322536 -0.0295643 0.0953359 -0.110611 0.0387163 0.0586505 0.00433226 -0.133345 -0.162851 -0.354647 -0.0778813 -0.0364261 -0.807087 -1.06361 0.122919 0.768926 0.157696 -0.481727 0.0538536 0.1535 0.517052 0.171672 0.0489913 0.111556 0.0110602 -0.488866 0.363694 -0.324931 -0.0716439 -0.135781 0.122165 -0.212719 -0.292639 0.452304 -0.550169 0.0479819
1131752 -0.0192566 0.420267 -0.26137 0.019648 0.0685502 -0.431263 -0.0272141 0.0524678 -0.0930119 0.143316 -0.0938056 0.376404 0.0728774 -0.081042 -0.519749 -0.127405 -0.0496661 0.0882031 -0.0711863 0.0836829 0.0323547 -0.144125 -0.222514 -0.438641 -0.131162 0.0316997 -0.75208 -0.957087 0.187921 0.808716 0.0864682 -0.415136 0.0668498 0.160321 0.219134 0.0651166 -0.0302474 0.0652343 -0.0416411 -0.669193 0.593576 -0.426825 -0.164263 -0.314864 0.0625336 -0.0346709 -0.168973 0.248021 -0.870985 0.137184
1133196 0.0473594 -0.133566 -0.22591 -0.00859455 -0.00598928 0.0431294 -0.26718 0.283326 0.0196613 0.0308963 -0.067668 0.330837 0.0127692 -0.0391474 -0.166843 -0.0584741 0.2091 -0.243534 0.00801254 0.0107088 -0.0122265 -0.0345033 0.0595984 0.00245143 0.0292361 0.0232595 -0.284757 -0.430474 0.0475042 0.205835 0.153533 -0.314783 0.114044 0.310972 0.13137 0.0543595 -0.0865663 -0.13017 0.00332539 0.300313 0.58457 -0.448757 -0.415093 -0.616562 0.140069 -0.180042 -0.207834 0.432072 -0.458875 0.0782233
1133338 -0.0414009 0.0917168 -0.0739052 -0.00175227 0.0183056 -0.0571778 -0.186402 0.198364 0.00576745 -0.0119866 -0.0399239 0.260104 0.0482649 -0.00337705 0.0294495 0.00429586 0.118736 -0.14039 0.0651832 -0.0672681 0.00166141 -0.0196125 -0.000702707 0.0140125 -0.00689073 -0.0215393 -0.334781 -0.470258 0.0301594 0.308938 0.13487 -0.244659 0.0248121 0.0962066 0.189476 0.085969 -0.102143 -0.1834 0.0202704 0.329343 0.350633 -0.263704 0.0234732 0.0600677 0.00996619 -0.0390916 -0.0110877 0.0576901 -0.0186876 -0.0141794
1136814 -0.346333 0.31975 -0.0761848 0.152836 -0.0361443 -0.105002 -0.0724361 0.0626736 -0.0816042 0.0749701 0.00128382 0.176041 0.0756596 -0.0234265 -0.101234 -0.0187103 0.182908 -0.185564 0.0655556 -0.113683 0.00339246 -0.0513883 0.00569134 0.00222139 0.0978331 -0.0658409 -0.341514 -0.439517 0.00988011 0.376643 0.233338 -0.457755 0.0497752 0.136577 -0.143881 -0.0270706 -0.146094 -0.233708 0.0346528 0.300825 0.537386 -0.370116 -0.151959 -0.19126 0.0427643 -0.10633 0.0258151 -0.0698031 -0.309328 0.0736186
1137466 -0.0360372 0.337928 -0.0994139 0.057017 0.0117131 -0.137596 -0.504116 0.515557 -0.0377956 0.0844834 -0.0223726 0.303203 0.0726461 -0.0151688 -0.127892 -0.0495106 0.228272 -0.282064 0.0193734 -0.0123611 -0.081478 -0.0735925 -0.010529 -0.0425139 0.0817624 -0.0818372 -0.475327 -0.696691 0.044009 0.263247 0.221424 -0.411769 0.196074 0.566402 -0.0949055 0.00307504 -0.0863578 -0.148517 -0.00437061 0.169954 0.79211 -0.602395 -0.416446 -0.575373 0.219497 -0.328536 -0.134503 0.21906 -0.287815 0.0865225
1152421 0.0418719 0.0605174 -0.187364 -0.0887686 -0.00330135 -0.0218898 -0.214861 0.249345 -0.0191695 -0.00221617 -0.0243962 0.0944477 0.0278739 -0.0248297 -0.0959356 -0.028823 0.0827056 -0.0791703 -0.00289363 0.0520363 -0.00208504 0.0111442 -0.0153019 -0.0367 0.00154462 -0.0174592 -0.148108 -0.230288 0.045636 0.145577 0.111152 -0.241893 0.163864 0.441978 -0.0275056 -0.012005 -0.0916449 -0.146455 -0.00876421 -0.0660739 0.558017 -0.417618 -0.406525 -0.594132 0.219007 -0.305322 -0.220062 0.456267 -0.376344 0.0745154
1152508 0.168169 -0.112726 0.0668102 -0.0574729 0.0780571 -0.227772 -0.21674 0.230921 -0.1046 -0.0166795 -0.080224 0.46281 0.00483273 0.0300939 -0.111532 -0.088083 0.273023 -0.326673 -0.000440987 -0.0786241 0.0152453 0.00341037 0.0307154 0.112102 -0.140498 0.0187824 -0.213003 -0.277597 0.0526624 0.357325 0.117947 -0.236321 -0.0316313 -0.0913397 0.297579 0.145217 -0.107115 -0.184876 0.0380642 0.3644 0.541443 -0.41682 -0.0617989 -0.0810245 0.00927797 -0.0377359 -0.00441679 0.0659814 -0.289921 0.0102935
1153065 0.105354 -0.00150178 -0.134576 -0.0350251 0.0642841 -0.288086 -0.195124 0.228916 -0.00955213 -0.0185927 -0.0165868 0.241286 0.066465 -0.00210677 -0.105266 -0.0685889 0.157429 -0.192124 -0.00895708 -0.0308948 -0.0157901 0.00617845 0.0287309 0.0806998 -0.0364071 -0.00107048 -0.252098 -0.375157 0.0564581 0.217877 0.125821 -0.263969 0.105059 0.276996 0.0624269 0.0346219 -0.0753807 -0.120385 -0.0123935 0.307056 0.641036 -0.488028 -0.382606 -0.535887 0.135169 -0.16419 -0.162153 0.332874 -0.304459 0.0464427
1153280 -0.00669373 -0.0151737 -0.0964845 -0.0205531 0.0107833 -0.0435866 -0.198221 0.203721 -0.0151148 0.0182029 -0.0123935 0.0313241 -0.0331709 0.000324268 -0.00831424 -0.0203957 0.141549 -0.166713 0.0493755 -0.0571209 -0.0184544 0.00442192 -0.0114551 -0.0249218 0.00763204 -0.0178436 -0.284071 -0.421055 0.0420334 0.18589 0.0838642 -0.174737 0.0560313 0.167593 0.175387 0.0564758 -0.104778 -0.1919 0.0119136 0.345188 0.309063 -0.254147 0.00631885 0.00648217 0.14763 -0.202667 -0.0658588 0.151373 -0.0703749 0.0107689
1153577 0.116404 -0.174051 -0.200774 -0.00143451 0.0344809 -0.187214 -0.529032 0.562604 -0.00703448 0.00773469 -0.0268385 0.142293 -0.0156454 -0.0496711 -0.131848 -0.0372843 0.0927868 -0.123194 0.0312368 -0.01732 0.00235033 -0.0372225 0.0128279 -0.0275294 0.0354425 -0.0561495 -0.286711 -0.437736 0.0190997 0.103734 0.110345 -0.244225 0.152039 0.426757 0.198679 0.0811358 -0.173981 -0.249265 -0.0221431 0.204429 0.714715 -0.518316 -0.459531 -0.711231 0.342369 -0.478205 -0.276064 0.544222 -0.464971 0.0855421
1153853 -0.187482 0.128029 -0.298061 -0.121174 0.0864639 -0.536887 -0.65638 0.673078 0.0312784 0.0455463 -0.0670619 0.523974 0.168731 0.00243879 0.0758226 -0.029273 0.289928 -0.293975 -0.0296716 0.0308501 -0.00909329 -0.0157955 0.0138044 0.00267736 -0.00153536 -0.0147821 -0.293339 -0.407873 0.00782541 0.251973 0.0815814 -0.149883 -0.0704302 -0.16708 0.326268 0.129028 -0.107717 -0.30871 0.0633188 0.656258 -0.0421243 -0.0444898 0.431696 0.621995 -0.0382278 0.019077 -0.202912 0.513514 0.412801 -0.0986391
1153943 -0.156623 0.150864 -0.199724 -0.0515638 0.158677 -0.963327 -1.02779 1.08736 0.0612488 0.132787 -0.106349 0.493847 0.113871 0.00594173 0.0398048 -0.0464503 0.264718 -0.291571 -0.0132748 -0.0251269 -0.0332857 -0.0395039 0.0999858 0.0875577 -0.0219707 -0.0174211 -0.181859 -0.2691 -0.00410945 0.181491 0.0717084 -0.0486816 -0.0152218 -0.0784084 0.169081 0.0664923 -0.130885 -0.345228 0.0709476 0.537549 -0.0899861 -0.0258747 0.403906 0.608675 -0.10249 0.111524 -0.292075 0.686177 0.43734 -0.0989682
1154176 -0.476657 0.2787 -0.267012 -0.0922612 0.119366 -0.890094 -1.00775 1.12289 0.0263823 0.0597461 -0.0879725 0.814493 0.32856 0.00518825 0.0903704 -0.0855295 0.305415 -0.304761 -0.011524 -0.0358402 -0.0108564 -0.119324 0.136631 0.0352144 -0.0805293 0.080981 -0.254306 -0.295773 -0.0524181 -0.0783545 0.076569 -0.00923392 0.037124 0.0984118 -0.263024 -0.0445803 -0.17935 -0.40715 0.0795577 0.681011 0.286536 -0.265229 0.264549 0.408487 -0.0416982 -0.0527839 -0.342839 0.897858 0.457278 -0.0634145
1154459 0.00342233 0.0131993 -0.851428 -0.271467 0.207324 -0.937851 -0.965355 1.02908 0.0876764 0.0350484 -0.149783 0.916324 0.325667 0.0222325 0.249928 -0.0667517 0.299808 -0.300224 -0.0218992 -0.0190507 -0.066739 -0.0599906 0.166373 0.154761 0.0331502 0.016253 -0.180767 -0.225543 -0.0159666 0.150375 0.12202 -0.107109 -0.088372 -0.227778 -0.158882 -0.0426902 -0.211605 -0.522245 0.125292 0.712261 0.0629973 -0.169629 0.444612 0.668233 -0.120746 0.0622806 -0.339749 0.905806 0.433607 -0.0740794
116552 -0.030953 0.17444 -0.727703 -0.2253 0.204023 -0.999037 -0.980573 1.01098 0.0904446 -0.0101192 -0.128798 0.901715 0.265559 0.0415517 0.330178 -0.0237626 0.133887 -0.0768425 -0.0757924 0.0122688 -0.0532068 -0.0406603 0.117433 0.112779 0.00874151 0.0326906 -0.148091 -0.192443 0.0206066 0.233432 0.189653 -0.229038 -0.0230324 -0.0360484 -0.344793 -0.109331 -0.243647 -0.531684 0.114488 0.77373 0.289882 -0.318202 0.219695 0.344468 -0.104482 0.0361576 -0.459819 1.15545 0.465351 -0.0848681
12576 0.111197 0.138102 -0.847397 -0.198051 0.227063 -1.1035 -0.96269 1.06946 0.192412 0.0423242 -0.115132 0.886483 0.508446 0.00249583 0.413456 -0.0275929 0.196453 -0.157623 -0.0178575 0.0367938 -0.0960478 -0.0567775 0.233621 0.202191 0.0559631 -0.0143617 -0.0226974 -0.00837776 -0.0178966 0.477154 0.29659 -0.403277 0.121442 0.315672 -0.36923 -0.146913 -0.221366 -0.542328 0.0859016 0.600376 0.446288 -0.445994 0.0978219 0.18727 -0.177461 0.121677 -0.523278 1.35958 0.506797 -0.104323
128540 0.202419 0.125493 -1.05343 -0.260975 0.315523 -1.32593 -1.05431 1.0525 0.174557 -0.0216401 -0.152335 0.85726 0.10103 0.149092 0.405801 -0.088332 0.0499978 -0.0284949 0.091927 -0.169837 -0.119905 -0.106769 0.143001 0.0732367 0.00389639 0.0351523 -0.143187 -0.121896 0.0308877 0.149049 0.303128 -0.421924 0.161248 0.393612 -0.267803 -0.0938661 -0.40779 -0.780033 0.107771 0.666593 0.414872 -0.481501 -0.0314834 -0.00913817 -0.00463881 -0.147721 -0.547609 1.32824 0.394995 -0.0731526
132806 0.0690473 0.184244 -1.34599 -0.395113 0.384564 -1.41207 -1.14411 1.22601 0.133682 0.00354591 -0.128708 1.02016 0.0365797 0.195644 0.377373 -0.101098 0.0662971 -0.0407434 0.141277 -0.148033 -0.074525 -0.121145 0.0889409 0.0335977 -0.0708895 -0.0414984 -0.161275 -0.198866 -0.00908367 0.0328767 0.328524 -0.401319 0.172202 0.31264 -0.636146 -0.181388 -0.471527 -0.8927 0.106771 0.558717 0.579816 -0.581 -0.165462 -0.240348 -0.11566 -0.0288769 -0.562648 1.30256 0.476048 -0.070492
135130 0.246209 0.0885488 -1.96552 -0.428129 0.377455 -1.64827 -1.63368 1.60569 0.185419 -0.0655437 -0.153492 1.03814 0.0447406 0.0915856 0.135833 -0.103002 0.19962 -0.295213 0.0735797 -0.071603 -0.0213174 -0.131398 0.194697 0.0376998 -0.00724489 0.00798519 0.0282343 0.021049 0.059951 0.0855232 0.295039 -0.388764 0.217825 0.442293 -0.774297 -0.269886 -0.640262 -1.03516 0.0306425 0.385846 0.827962 -0.648016 -0.330239 -0.499119 0.0420019 -0.226333 -0.632101 1.49621 0.690841 -0.0405155
141342 0.145227 -0.234362 -0.0803872 -0.0690173 -0.0996682 0.215386 -0.07275 0.0900609 0.0759711 0.164882 -0.0486386 0.320326 -0.0602669 0.0273123 -0.429688 -0.145065 0.380535 -0.409248 -0.0477008 0.214087 0.0252038 -0.023495 0.00404084 0.0437748 0.0853709 -0.0245812 -0.0907881 -0.153062 0.00526889 0.26535 0.062144 -0.157749 0.0935981 0.289186 0.00700103 -0.000289052 -0.0592504 -0.150916 0.0160045 -0.129396 0.596293 -0.436435 -0.138549 -0.17781 0.221728 -0.313072 -0.225879 0.430912 -0.281151 0.049009
141347 0.0667428 -0.0647276 -0.0183892 -0.0450057 -0.00959972 0.053724 -0.168775 0.143325 -0.0135554 -0.000792736 -0.0271872 0.0691925 0.0023765 -0.00430387 -0.107153 -0.033516 0.033025 -0.0448969 -0.0228093 0.0173914 -0.0154902 -0.0197072 0.0321782 0.0399264 0.036389 0.00253196 -0.0204756 -0.0369438 0.00419968 -0.0736953 0.0237016 -0.0546911 0.133696 0.40209 -0.115247 -0.0377934 -0.0748402 -0.0594108 -0.0350402 -0.1352 0.707753 -0.492671 -0.407887 -0.594146 0.216653 -0.317386 -0.152354 0.266604 -0.395081 0.066044
148170 0.0273276 -0.0351793 -0.121742 -0.0509095 0.015926 -0.0343881 -0.261768 0.275558 0.0246738 0.0196319 -0.0179935 0.140585 0.0506716 -0.0188309 -0.0904859 -0.0357376 0.110191 -0.121615 -0.0055476 -0.00236619 0.00366239 0.000176282 -0.0102988 -0.00238028 0.00521301 -0.0136874 -0.270912 -0.385963 0.0386004 0.171215 0.100858 -0.204101 0.0833407 0.236313 0.190179 0.0795545 -0.0449903 -0.106993 0.0151114 0.303058 0.40797 -0.315241 -0.0964461 -0.126216 0.0409237 -0.0761574 -0.108318 0.221274 -0.22162 0.0259347
15670 0.0352396 -0.0584765 -0.108981 -0.026415 -0.00187623 -0.0205525 -0.215693 0.227452 0.0222727 0.0204359 -0.00482242 0.103741 0.0437137 -0.0143438 -0.0729226 -0.0351171 0.0843024 -0.108637 -0.0190624 0.0391186 0.0027444 0.00135315 0.0135554 -0.010812 0.00958079 -0.024016 -0.25059 -0.350027 0.00517382 0.0611235 0.0955285 -0.212464 0.125336 0.323195 0.165041 0.0794302 -0.0728111 -0.117879 0.0173699 0.212635 0.536624 -0.402923 -0.203978 -0.295829 0.0899507 -0.121516 -0.104769 0.209207 -0.312857 0.0450251
1688 -0.0145588 -0.0541826 -0.0500255 -0.0483902 -0.00484451 0.014484 -0.162224 0.149035 -0.0178483 -0.0270644 -0.00733608 0.106252 0.0377055 -0.00506498 -0.0681028 -0.0432805 0.111513 -0.140226 -0.00355674 0.0559081 -0.00735389 -0.0050913 0.0210734 -0.0199108 0.00772221 -0.0231645 -0.165484 -0.227686 0.0238948 0.0142507 0.0627963 -0.164657 0.191187 0.502235 -0.0197879 -0.0059809 -0.0594295 -0.0982774 -0.023254 0.0916023 0.699101 -0.507679 -0.451178 -0.656705 0.204302 -0.289993 -0.133814 0.228816 -0.331849 0.0470034
175291 0.109792 -0.17195 -0.447725 -0.0790058 0.0007509 -0.056873 -0.510776 0.531046 0.08088 0.140456 -0.124597 0.52569 0.118311 -0.099892 -0.302691 -0.0940987 0.133107 -0.132627 0.00897257 0.08287 0.0110532 0.0123303 -0.0161517 -0.101914 -0.104534 0.0286655 -0.461567 -0.694005 -0.0450573 0.181715 -0.0160635 -0.0487862 0.118032 0.15549 0.0348815 0.0243511 -0.00613203 -0.0574495 -0.0197559 0.388784 -0.0860745 0.0618303 0.288997 0.397461 0.0964721 -0.055748 -0.0704813 0.188256 -0.300437 -0.012717
178727 0.0887399 -0.135493 -0.253046 0.00234364 0.046814 -0.256048 -0.376146 0.396768 0.0509584 0.0771687 -0.0417457 0.282981 0.0448851 -0.0441749 -0.0979108 -0.0185204 0.112342 -0.142836 0.0174 -0.0170035 -0.0466953 -0.0119894 0.0399261 0.0259169 0.0211541 -0.0062144 -0.381365 -0.555448 0.0385932 0.204494 0.095476 -0.184077 0.0958571 0.273521 0.235159 0.117747 -0.0580446 -0.1394 0.0188353 0.336538 0.346979 -0.272451 -0.194553 -0.28315 0.185575 -0.270704 -0.127856 0.268529 -0.492499 0.0551318
18582 0.100923 -0.0931396 -0.25812 0.00873269 0.0745364 -0.313754 -0.380386 0.397007 0.0199226 0.0733328 -0.0512102 0.270443 0.0150984 -0.0217095 -0.0621067 -0.00832196 0.0474536 -0.0630054 -0.0483227 0.16874 -0.0207854 0.0148797 0.0628536 0.0835437 0.0138766 -0.014126 -0.31903 -0.447048 0.0318724 0.0689148 0.0668576 -0.147319 0.133661 0.355511 0.169612 0.100253 -0.102648 -0.165743 -0.000248443 0.203654 0.577646 -0.42767 -0.406364 -0.586138 0.245405 -0.324033 -0.173035 0.31285 -0.487148 0.0782513
190697 0.064832 -0.0488185 -0.159002 -0.0484044 -0.00632726 -0.0672632 -0.154921 0.174358 0.0235702 0.0517286 -0.00801548 0.12068 0.0384819 0.00375364 -0.0788163 -0.0461484 0.0702712 -0.0908614 0.0169807 0.0093675 -0.0050396 -0.0158162 2.83393e-05 -0.0127168 0.00967068 -0.00253229 -0.110514 -0.154527 0.0115527 -0.0335686 0.0375418 -0.0818864 0.17129 0.438303 -0.0715981 -0.0219144 -0.0456042 -0.0493709 -0.0125703 -0.00409334 0.649419 -0.456987 -0.408608 -0.5979 0.190196 -0.265769 -0.106015 0.182564 -0.282127 0.0488649
190706 0.0616242 -0.111974 -0.232244 -0.0918705 0.00267011 -0.0677843 -0.391893 0.438616 0.0326693 0.0372215 -0.02201 0.266245 0.0983502 -0.0273973 -0.151091 -0.0649691 0.20619 -0.229375 0.0289813 -0.036526 -0.023099 -0.0239723 0.0557942 0.00633577 0.0413586 -0.0100931 -0.348224 -0.519559 0.0503653 0.238848 0.100616 -0.211932 0.0848772 0.217807 0.281438 0.114912 -0.0983626 -0.187863 -0.00183377 0.382476 0.478033 -0.384384 -0.10717 -0.143381 0.0745025 -0.0959864 -0.19927 0.456998 -0.352599 0.0443902
1956 0.197728 -0.109751 -0.288428 -0.0744837 0.0284355 -0.167987 -0.4066 0.441741 0.0447205 0.0277861 -0.0550749 0.326897 0.0996169 -0.0438962 -0.155487 -0.0882383 0.241921 -0.272136 0.00881304 0.00577554 -0.0229521 -0.0310414 0.0648817 0.0385778 0.0533257 -0.0127096 -0.402261 -0.552647 0.0312127 0.271127 0.110991 -0.227072 0.0606954 0.166219 0.240257 0.106794 -0.119237 -0.198658 0.0107683 0.341193 0.662584 -0.504748 -0.213823 -0.282757 0.0984619 -0.164401 -0.254047 0.53365 -0.460033 0.0402821
197054 0.00270378 -0.159739 -0.229684 -0.0350518 0.00271038 -0.0415737 -0.378866 0.438082 0.0628108 0.0655514 -0.0421438 0.337446 0.0611066 -0.0410259 -0.132121 -0.0355609 0.181673 -0.201896 0.0300142 -0.0637375 -0.0206634 -0.0195787 0.0295681 0.0405212 0.0501788 -0.0237016 -0.336429 -0.485183 0.0375626 0.217921 0.0976754 -0.199251 0.126031 0.313148 0.252188 0.12312 -0.0901952 -0.153286 0.010024 0.353708 0.762652 -0.571407 -0.284835 -0.395444 0.140776 -0.20224 -0.199074 0.434401 -0.396509 0.0409088
198443 -0.0373885 -0.105262 -0.1991 -0.0178055 -0.027057 0.00911759 -0.279416 0.353364 0.029008 0.0424597 -0.0139916 0.313162 0.0176998 -0.0156856 -0.140596 -0.0158095 0.212344 -0.218741 -0.00827031 0.0176241 -0.0242835 0.00232825 -0.0306614 -0.0243091 0.0535038 -0.0465642 -0.344253 -0.457605 0.0666251 0.164177 0.140785 -0.265071 0.18785 0.500125 -0.00129728 0.00154568 -0.0843074 -0.121181 -0.0139172 0.0563086 0.803088 -0.580365 -0.450961 -0.641175 0.119105 -0.182529 -0.225508 0.432831 -0.379106 0.0460586
198653 -0.0531938 -0.086701 0.0574456 -0.00522596 0.0339013 -0.00727079 -0.085502 0.0678839 -0.0204554 0.00213974 -0.00535488 0.10038 0.00122502 -0.0221453 -0.223685 -0.0563986 0.283533 -0.307277 0.0405049 -0.0114021 -0.0749216 0.0266104 0.0771586 0.0811949 0.0307342 -0.0274965 -0.147095 -0.215189 0.047212 0.182466 0.0746281 -0.176291 0.0858988 0.215022 0.273586 0.0948167 -0.018427 -0.0793501 0.0237687 0.15814 0.04323 -0.0550158 0.132041 0.197417 -0.0224039 0.040477 -0.250531 0.537518 0.0699946 -0.0303317
206371 -0.0596212 -0.263542 -0.225437 -0.200671 0.112809 -0.117759 -0.331246 0.24258 -0.024085 -0.0658729 -0.0854921 0.288109 -0.0531826 -0.0433076 -0.648433 -0.192452 0.828121 -0.931306 0.256356 -0.225764 -0.227006 0.0223168 0.259558 0.260376 0.0646492 -0.034203 -0.146829 -0.236112 0.106522 0.385539 0.0784495 -0.240808 0.144606 0.334679 0.379713 0.115624 0.0316645 -0.0387496 -0.0160068 0.0572976 0.0537884 -0.0270133 -0.0914423 -0.111769 -0.09876 0.173018 -0.59202 1.26993 0.305452 -0.0932197
210871 0.268141 -0.702294 -0.148333 0.00782284 0.16231 -0.217721 -0.337464 0.301403 -0.0214029 0.0904206 -0.12502 0.259353 -0.0683351 -0.0699006 -0.863983 -0.206033 0.944967 -1.06177 0.251458 -0.227021 -0.306406 -0.0518088 0.454523 0.41465 0.233462 -0.143179 -0.0649673 -0.0920198 0.118952 0.523777 0.136305 -0.395202 0.217157 0.534689 0.115342 0.0305999 -0.104323 -0.158456 -0.0273148 -0.2192 0.406194 -0.272504 -0.254891 -0.384025 -0.0996235 0.137637 -0.638172 1.3845 0.412899 -0.0684995
229635 0.0483009 -0.0185618 -0.124667 -0.031261 0.0400094 -0.120187 -0.213124 0.219003 0.0377703 0.00937075 -0.0636201 0.262017 0.0352649 -0.0263817 -0.11975 -0.0238376 0.138978 -0.164522 0.0360371 -0.0384575 -0.0109321 -0.0166691 0.0407345 0.0292672 0.0255431 -0.00940045 -0.136908 -0.210548 0.0430046 0.0529225 0.0425884 -0.0935481 0.145052 0.391132 0.075186 0.0317621 -0.0391734 -0.0450137 -0.0161461 0.0809719 0.42969 -0.311275 -0.392987 -0.55428 0.126772 -0.176243 -0.170682 0.342356 -0.440229 0.075863
231249 0.0264783 -0.21684 -0.687358 -0.206816 -0.0275918 -0.069595 0.236186 -0.260696 0.0599767 0.00527754 -0.1089 0.608427 0.591114 -0.228976 -0.599641 -0.230454 1.09385 -1.16398 0.0429512 -0.102039 -0.00385744 -0.0345259 0.102901 0.0872185 -0.126485 0.0935313 -0.295768 -0.428785 0.0174943 0.197478 -0.0032819 0.0455151 0.072252 0.109049 1.06057 0.439493 -0.00664134 0.080466 -0.0590097 0.558336 0.499664 -0.259227 -0.226647 -0.380886 -0.334846 0.417969 -0.107548 0.368982 -0.397205 0.0228764
248425 0.0164899 -0.42563 -0.59748 -0.208992 -0.0148761 -0.103045 0.0490848 0.0100016 -0.0981265 -0.0192523 -0.116765 0.524451 0.577681 -0.249493 -0.686923 -0.234549 0.924091 -0.998122 -0.0338036 0.0174824 -0.0750697 -0.042222 0.248287 0.142979 -0.0447053 0.0177804 -0.215974 -0.304142 -0.0159281 -0.0447949 -0.034876 0.110335 0.0519818 0.116545 0.860066 0.36298 0.03426 0.135023 -0.0973928 0.488823 0.501655 -0.240569 -0.145206 -0.272507 -0.332201 0.444156 -0.0760572 0.356576 -0.386291 0.0435712
249421 -0.165079 -0.240503 -0.431101 -0.135689 -0.0225086 -0.0496951 0.219699 -0.17281 -0.00947519 0.000285563 -0.0910996 0.377015 0.34543 -0.171552 -0.451605 -0.111654 0.877872 -0.901016 0.0120604 -0.0436761 -0.0292751 -0.0305901 0.0760785 0.0214471 -0.0150495 -0.0434012 -0.151956 -0.202112 0.0258353 0.187662 0.0646801 -0.105789 0.0720514 0.157185 0.694536 0.313236 0.0627579 0.170874 -0.0450247 0.191592 0.495701 -0.306764 -0.341412 -0.53294 -0.152171 0.204542 -0.136969 0.380444 -0.374595 0.071208
254923 0.0884766 -0.0667173 -0.125886 -0.025324 0.0190847 -0.0318836 -0.108014 0.114782 -0.00270662 0.0199482 -0.0152819 0.0510736 0.00434149 0.0104466 -0.0560618 -0.0269769 0.0453068 -0.0661848 0.0264209 -0.0270992 -0.024992 0.00516991 0.0237792 0.0414062 0.0234686 -0.020682 -0.0582648 -0.0705133 0.0248402 0.0246275 0.053899 -0.115878 0.156745 0.40164 -0.112272 -0.0349343 -0.0682789 -0.0717688 -0.0272202 -0.0591949 0.642293 -0.422005 -0.495106 -0.701391 0.224497 -0.323551 -0.146862 0.279835 -0.466124 0.0859097
259701 -0.0818541 -0.195403 -0.813389 -0.31014 -0.0871637 0.829583 -0.476307 0.616999 -0.14981 0.147287 -0.249161 1.04209 -0.153452 -0.0295539 -0.626852 -0.0987467 -0.478509 0.543224 0.00395875 -0.217414 -0.0382549 0.0939377 -0.24999 -0.19921 0.0422169 -0.000177292 -0.169127 -0.173874 0.0903877 1.51925 0.256126 -0.494678 -0.134944 -0.431523 0.571463 0.208889 -0.243157 -0.574661 0.0569952 0.572917 0.489426 -0.368791 -0.176124 -0.216856 0.214426 -0.354846 -0.159635 0.214038 -0.470163 0.0376635
259702 -0.151576 -0.116843 -0.876082 -0.323795 -0.140452 0.912683 -0.467069 0.592096 -0.0829218 0.113934 -0.275183 1.14605 -0.11161 -0.0380173 -0.732772 -0.154038 -0.405321 0.50005 0.00502248 -0.185591 -0.026414 0.143607 -0.265359 -0.176976 0.0213763 0.0476335 -0.267382 -0.313109 0.0846897 1.52316 0.238377 -0.45561 -0.10115 -0.306653 0.4083 0.160743 -0.269801 -0.614756 0.0024358 0.376625 0.587519 -0.440122 -0.330538 -0.428977 0.224504 -0.417206 -0.128663 0.17844 -0.525471 0.0242326
263279 0.0329251 -0.190943 -1.0849 -0.354795 -0.129083 0.929578 -0.583973 0.726596 -0.0942585 0.141719 -0.233199 1.10124 -0.0236737 -0.0432638 -0.819577 -0.144445 -0.479622 0.59166 0.0265672 -0.263436 -0.0344854 0.0833835 -0.282149 -0.250885 0.045089 0.00474336 -0.158619 -0.111737 0.116098 1.40408 0.323979 -0.612972 -0.0970497 -0.339405 0.500675 0.210695 -0.341705 -0.64648 0.0133102 0.266054 0.66893 -0.490897 -0.481377 -0.652126 0.321137 -0.495531 -0.173055 0.093891 -0.638287 0.0854497
263498 0.0576845 -0.260389 -0.352376 -0.0867435 -0.052568 0.150088 -0.317907 0.356431 0.0044495 0.00555323 -0.0193472 0.187962 0.129826 -0.079976 -0.291282 -0.0938734 0.159517 -0.174904 0.0035986 0.0267635 -0.0293532 -0.00261112 0.0737197 0.0300741 0.000710209 0.00444751 -0.196286 -0.288758 -0.0178026 0.112682 0.0168586 -0.00691548 0.0146583 0.045361 0.435105 0.165562 -0.0234762 -0.0897566 0.0286621 0.460131 0.111376 -0.0999096 0.247977 0.336191 -0.0660674 0.0979162 0.0561509 -0.0206767 0.0587906 -0.0304773
265203 0.148358 -0.813428 -0.895199 -0.0748719 -0.108743 0.217692 -0.158593 0.264808 -0.11929 0.0338579 0.00666313 0.176794 0.382785 -0.155757 -0.626827 -0.185649 0.436598 -0.464005 -0.0555896 -0.00454366 -0.0591562 -0.105167 0.236699 0.0905275 -0.0207938 0.0947881 -0.346263 -0.501242 -0.0498824 -0.278546 -0.321181 0.645401 -0.00464099 -0.00703896 1.23428 0.50055 -0.0334858 -0.0646988 0.100235 0.437007 0.234471 -0.159926 0.190197 0.25012 -0.0537392 0.0817284 -0.0432074 0.398326 -0.531722 0.00804701
273152 0.758839 -1.04671 -0.848993 -0.185107 -0.124275 0.584995 -0.89929 1.07123 -0.107824 0.0764112 0.0198426 0.124858 0.241053 -0.0955174 -0.792593 -0.228432 -0.0312675 0.0289822 -0.0611371 0.127951 -0.0573664 -0.0229199 0.177771 0.0600925 -0.0348687 0.00399662 -0.321116 -0.440959 -0.103328 0.000115861 -0.0706065 0.148663 -0.0694962 -0.24655 0.453202 0.162431 -0.139058 -0.22937 0.063028 0.725621 0.283046 -0.19209 0.0501764 0.0357083 0.0158283 0.00936855 0.0636732 0.0920569 0.0873884 -0.0821749
27510 0.938933 -1.44582 -0.931887 -0.2246 -0.199754 0.846852 -1.03187 1.19392 -0.167747 0.0757563 0.0799648 -0.0496061 0.399404 -0.158524 -0.997784 -0.31172 -0.0492397 0.0524693 -0.0835385 0.0453329 -0.0636653 -0.0908996 0.294747 0.0603713 0.0546595 -0.00508889 -0.302905 -0.388889 -0.108079 0.156997 -0.035241 0.227506 0.0150921 -0.00833733 0.36333 0.18425 -0.101617 -0.12696 0.0745901 0.707788 0.545996 -0.359549 -0.229767 -0.391403 -0.0114832 0.0399722 0.0320979 0.250348 -0.117643 -0.0743755
28290 0.70984 -1.04021 -0.831743 -0.21281 -0.199452 0.794608 -0.790434 0.954669 -0.246917 -0.017779 0.0319712 -0.0561356 0.344956 -0.144215 -0.730725 -0.231611 0.128097 -0.167402 -0.0846709 0.105948 -0.0656283 -0.0477128 0.272617 0.0792527 0.0389597 0.0129285 -0.20872 -0.215195 -0.093673 0.145909 -0.0944175 0.246902 -0.00194773 -0.0723266 0.359213 0.134635 -0.137308 -0.216943 0.0353064 0.783086 0.429244 -0.250089 -0.175602 -0.287934 -0.0167346 0.0576286 0.0595274 0.140831 -0.0481232 -0.0423713
286500 0.600602 -0.822616 -0.747188 -0.204156 -0.0591684 0.344359 -0.782377 0.878402 -0.0902923 0.0321919 0.0587653 -0.0905001 0.194042 -0.0880886 -0.645101 -0.197879 -0.240752 0.280857 -0.0307416 0.16532 -0.00717118 -0.000447827 0.121016 -0.0662036 0.00140775 -0.00565654 -0.205583 -0.232414 -0.0974468 -0.0190945 -0.0622066 0.190007 0.0542593 0.118834 0.378083 0.133108 -0.0220582 -0.0885959 0.0578352 0.656312 0.453198 -0.325391 -0.261863 -0.422267 0.145879 -0.180074 0.0914339 -0.0635446 -0.12845 -0.0341652
287787 0.0284911 -0.0397126 -0.190722 -0.0460931 0.0390113 -0.120921 -0.286062 0.290467 -0.0310434 0.00463482 -0.0339073 0.145909 0.0710669 -0.0355232 -0.087815 -0.0283754 0.162044 -0.182836 0.00626677 -0.0394304 -0.0199051 -0.0112955 0.0113633 0.00669751 0.0304484 -0.0102663 -0.254782 -0.365578 0.0399458 0.154265 0.114582 -0.214987 0.0918218 0.260018 0.188697 0.0728337 -0.0749982 -0.149716 0.00864565 0.260206 0.411308 -0.311415 -0.125024 -0.176764 0.0899295 -0.122651 -0.131371 0.310591 -0.242556 0.0355366
28851 0.0586791 -0.0143408 0.00211171 -0.00208403 0.00840586 -0.0160601 -0.166453 0.185677 -0.0222885 0.00511848 -0.0179392 0.047208 0.0128357 -0.00974274 -0.0353572 -0.00547284 0.0309087 -0.0335168 0.015906 -0.0112237 0.00652355 -0.00627038 0.00899576 0.00334601 0.0016828 -0.00104534 -0.12462 -0.165033 0.0307214 0.0481337 0.0576327 -0.131798 0.18799 0.513771 -0.0288494 0.00715301 -0.0509095 -0.0633744 -0.0288239 -0.0016721 0.658093 -0.441931 -0.490795 -0.70779 0.25644 -0.355242 -0.233038 0.454728 -0.354506 0.0533148
289779 0.0258435 0.0570674 -0.206724 -0.0731855 -0.00250203 -0.0742329 -0.28255 0.293504 0.0246628 0.0216355 -0.0609519 0.242431 0.0732205 -0.0494263 -0.0924372 -0.024074 0.181036 -0.202778 0.0308127 -0.0814265 -0.0186905 -0.010864 0.00160819 0.0298862 0.0216631 0.00758277 -0.384333 -0.57287 0.0185522 0.303265 0.0908185 -0.163924 -0.0664172 -0.18113 0.359671 0.150527 -0.042616 -0.128018 0.0387702 0.533645 0.0878635 -0.0943142 0.183856 0.264234 -0.0315376 0.0405861 -0.0230058 0.0765712 -0.126834 -0.0165012
289780 0.343669 -0.0173875 -0.145075 -0.00424063 0.00154016 -0.0881328 -0.117515 0.12089 0.145526 0.0302811 -0.0182854 0.21898 0.0547544 -0.0132905 0.00382843 0.00428007 0.158673 -0.160601 0.0740061 -0.129734 -0.00983374 -0.0345892 0.0374776 0.0391935 0.101586 -0.0608967 -0.514951 -0.697645 0.0554788 0.345585 0.0855963 -0.229427 -0.0936205 -0.228619 0.694312 0.279145 -0.0713551 -0.177904 0.040918 0.60163 0.466053 -0.369329 0.0744112 0.101238 0.0114487 -0.0167818 -0.149264 0.346313 -0.361942 0.0273912
289781 -0.24598 -0.269988 0.0136689 -0.0284696 0.0226621 0.00263265 -0.0251607 -0.0134812 -0.0933426 -0.0205349 -0.066906 0.473279 0.205339 -0.0646429 -0.121541 -0.0640132 0.369349 -0.402288 -0.124792 0.00455616 0.0764302 0.0230373 -0.0598754 0.00690633 -0.0163861 -0.00969464 -0.404708 -0.564654 -0.0359272 0.13041 0.113138 -0.16763 0.00653599 0.0281341 -0.0633705 -0.0196772 -0.110609 -0.225305 0.0232435 0.284328 0.394749 -0.34512 -0.333507 -0.437852 0.281826 -0.438383 -0.0441958 0.180627 -0.30176 -0.0240545
307015 0.14728 0.361554 0.100885 0.0761973 -0.0272804 0.151982 -0.174863 0.29425 -0.00229074 -0.0696557 0.0544002 0.0397022 -0.105327 0.128512 0.108427 0.0475571 0.02966 9.32199e-05 -0.00879298 -0.130548 0.0280157 0.0178978 -0.0841694 -0.114692 -0.0846256 -0.0219439 -0.51886 -0.702943 0.162769 0.383407 0.0443856 -0.073491 0.170545 0.381654 0.489384 0.15353 0.2821 0.333714 0.0102007 0.288968 0.20577 -0.158018 0.00299481 0.00910242 0.227412 -0.354713 0.0615482 -0.130602 -0.24651 0.0484583
335733 -0.0391438 0.177434 -0.00949064 0.0288815 -0.0221867 -0.022403 -0.449928 0.466613 -0.00373202 -0.0135484 0.0133323 0.0220274 -0.0270938 0.0409622 -0.0146042 0.00139811 0.125134 -0.145892 0.056166 -0.0457697 0.000618705 0.00259033 0.0703245 0.056463 -0.00380102 -0.0410427 -0.401859 -0.541108 0.0592307 0.184114 0.054382 -0.127689 0.236508 0.616397 0.0699192 0.0295018 0.0154388 0.02148 -0.0248106 0.435045 0.618105 -0.459903 -0.321613 -0.453719 0.245731 -0.342305 -0.11247 0.149484 -0.311262 0.0780687
33904 -0.0355667 -0.1385 -0.206545 -0.0367209 0.0327998 -0.122872 -0.414679 0.475375 -0.0289177 0.0735171 -0.0325382 0.209367 0.0866837 -0.0235976 -0.11814 -0.059414 0.208951 -0.235207 -0.00086468 0.00765947 -0.0235613 -0.0115638 0.0149133 -0.00341828 0.000380151 -0.0167994 -0.492988 -0.699367 0.0639832 0.405362 0.16488 -0.312909 0.12184 0.33582 0.285507 0.113578 -0.0973985 -0.202193 0.0194067 0.593838 0.565305 -0.476115 -0.202869 -0.292513 0.106656 -0.142036 -0.18322 0.387955 -0.219183 0.0413652
33907 0.0487298 -0.123453 -0.128579 -0.0500334 0.0140351 -0.0541395 -0.257143 0.264707 0.0267725 0.0252207 -0.00884047 0.0975569 0.0176964 -0.0232 -0.0455796 -0.0145539 0.0807183 -0.0977653 -0.0145053 -0.0016676 -0.00622143 0.00759939 -0.00118725 -0.00540928 -0.000207685 0.00437634 -0.173797 -0.230283 0.0145665 0.091545 0.0573989 -0.114241 0.103756 0.285441 0.0569486 0.0408692 -0.0470734 -0.0798902 -0.00704518 0.17009 0.450979 -0.322294 -0.201369 -0.314207 0.128934 -0.174583 -0.122384 0.253277 -0.279627 0.0462709
35061 0.152903 -0.279333 -0.111614 -0.0513658 0.00468097 -0.0506351 -0.320555 0.327657 -0.0444535 -0.0116822 0.00937131 0.0554139 0.0687615 -0.0153308 -0.0288311 -0.022844 0.104969 -0.109728 -0.0229173 0.0151728 -0.0311596 -0.00835217 0.0244178 0.0152522 0.000839515 -0.00476135 -0.233035 -0.343165 0.0221461 0.088835 0.0472959 -0.061206 0.18101 0.439756 -0.0883721 -0.0261617 -0.0120387 0.000102889 -0.00837 0.159913 0.786238 -0.559168 -0.450474 -0.650131 0.263323 -0.379925 -0.189942 0.351739 -0.528925 0.100154
38205 0.0179547 -0.0347291 -0.217728 -0.060541 0.0949709 -0.317775 -0.386799 0.429687 0.0438358 -0.00295438 -0.0375393 0.285842 0.0828347 -0.0231945 0.0626269 -0.00522971 0.0808268 -0.0874812 -0.0329031 0.009713 -0.00743721 -0.03748 0.0183137 0.016645 0.00654257 0.0257965 -0.292693 -0.400948 0.0448511 0.139248 0.117897 -0.191251 0.0534781 0.16253 0.154828 0.0617421 -0.0331689 -0.0953929 0.0220361 0.34099 0.0588658 -0.0672802 0.0199423 -0.00544693 -0.0103977 0.0241043 -0.132953 0.339839 0.186333 -0.00631799
387795 0.121707 -0.0797868 -0.162718 -0.0308593 0.0367547 -0.0779151 -0.467308 0.511817 0.0433158 0.0705685 -0.0102602 0.0741931 0.0808245 -0.0280327 -0.0673586 -0.0279017 0.0705514 -0.066895 -0.0219714 -0.019516 0.0152141 -0.0105963 -0.0584671 0.0202994 0.0374275 -0.00898959 -0.343227 -0.502142 0.0546908 0.300438 0.185721 -0.32844 0.204576 0.580231 -0.0252746 0.00324557 -0.134686 -0.221975 0.00218112 0.168664 0.771379 -0.574308 -0.48986 -0.691011 0.208845 -0.287249 -0.232273 0.460744 -0.424909 0.0717721
415693 0.00596753 -0.203053 -0.26047 -0.100619 -0.000905778 -0.0918309 -0.447824 0.478194 0.0267602 0.13255 -0.0518487 0.312636 0.117676 -0.05431 -0.043756 -0.013973 0.168425 -0.212329 0.0263494 -0.0264965 -0.0664429 -0.0175043 0.0336255 0.0316958 0.0474312 -0.0149198 -0.391915 -0.550264 0.0604946 0.257093 0.128586 -0.269067 0.137991 0.358199 0.0895893 0.0496826 -0.125526 -0.168854 -0.00506251 0.272589 0.72994 -0.563958 -0.490005 -0.715976 0.255234 -0.365572 -0.198785 0.384916 -0.657781 0.108561
41714 0.0295256 -0.027115 -0.0824152 0.000109247 -0.0149515 0.028531 -0.20413 0.209578 -0.0330472 0.0110667 -0.0371621 0.0834477 -0.00647216 -0.0210871 -0.0553266 -0.013916 0.0526775 -0.06174 -0.00344395 0.0170151 0.00886123 -0.00133061 0.00583742 0.00546654 -0.00914471 0.0145945 -0.0890725 -0.117462 -0.00844645 -0.0831083 -0.0075232 -0.0180263 0.123193 0.31107 -0.0205174 -0.00634567 -0.0678226 -0.0606499 -0.0231541 0.0171412 0.733545 -0.507993 -0.451645 -0.662853 0.263577 -0.365258 -0.177786 0.343478 -0.382737 0.0664654
427606 0.0260134 0.0475966 -0.117912 -0.06342 -0.00161695 -0.0395449 -0.149295 0.138759 0.078906 0.0490513 -0.0372086 0.119327 0.016096 -0.0230803 -0.134496 -0.0460527 0.0849309 -0.0997595 0.00258746 0.0348062 -0.00672313 0.00297452 0.0108217 -0.0102517 -0.00973853 -0.00948846 -0.0590727 -0.0836287 0.0237753 -0.00313149 0.0519085 -0.107141 0.193433 0.497623 -0.0647405 -0.0308302 -0.0947429 -0.116884 -0.0276601 -0.0977381 0.690399 -0.498677 -0.478571 -0.678987 0.19863 -0.296185 -0.178185 0.353122 -0.579797 0.082271
44368 0.1335 -0.103635 -0.16333 -0.0570442 0.0529816 0.0744741 -0.253118 0.295335 -0.0332259 0.0130456 -0.049337 0.261033 -0.00114113 0.00512212 -0.052656 -0.00646402 -0.011633 -0.0108139 -0.00986009 0.0305328 -0.0297894 -0.0198959 -0.0416338 -0.0656511 -0.00617366 -0.00446673 -0.0940872 -0.150106 0.0412114 0.174078 0.106734 -0.234537 0.130568 0.36084 -0.0287838 0.000939903 0.000846722 -0.0265402 0.00448217 0.130214 0.396276 -0.312 -0.28967 -0.412662 0.296135 -0.413465 -0.194939 0.328587 -0.302543 0.064382
45599 0.139565 0.0309316 -0.089803 -0.00858208 0.0281054 0.0118948 -0.350265 0.39404 0.0351003 0.0634767 -0.068853 0.36479 0.0862644 -0.0253141 -0.156718 -0.0448557 0.104869 -0.133614 0.00160433 -0.0595656 -0.0280265 -0.00611856 0.0110528 0.0229495 0.00935845 -0.0347708 -0.400924 -0.5677 0.0400141 0.361253 0.155343 -0.304141 0.0487752 0.149195 0.315763 0.127066 -0.147709 -0.259434 0.0235727 0.402313 0.38749 -0.325544 -0.113637 -0.16233 0.104728 -0.168198 -0.156183 0.347139 -0.246747 -0.00340164
46079 0.039819 0.10699 -0.0265629 -0.0780032 0.0162296 -0.0372454 -0.374064 0.361692 0.0783271 0.0163106 -0.016058 0.175605 0.0522608 -0.00366282 -0.0483212 -0.0558189 0.107232 -0.139868 -0.033095 0.086176 -0.0313338 -0.0169767 0.0393721 0.020346 0.0214877 0.0191815 -0.134326 -0.19829 0.0364138 0.111849 0.0957076 -0.170681 0.14652 0.421575 0.0513063 0.0219842 -0.0784838 -0.105429 -0.00964421 0.0972197 0.807738 -0.564105 -0.431523 -0.60835 0.205457 -0.287506 -0.139334 0.303602 -0.308437 0.0511002
46431 0.0566994 0.0159163 0.179508 0.121302 -0.131887 0.307306 -0.768145 0.948623 -0.0975588 -0.145134 0.00613838 0.621376 -0.120925 0.124713 0.314332 0.10269 0.342322 -0.391687 -0.0222367 -0.292653 0.0380441 0.0964134 0.0930884 0.156881 -0.168965 0.0231744 -0.0604543 -0.101049 0.0556044 0.0579974 0.220256 -0.423437 -0.152014 -0.312959 0.552776 0.195389 -0.111286 -0.368511 -0.00834561 0.771242 0.144341 -0.155003 -0.151298 -0.15799 0.0231693 0.0172989 0.0909974 -0.2346 -0.280447 0.0286735
486840 -0.0173224 -0.00727673 0.219047 0.178213 -0.148112 0.322063 -0.550563 0.716168 -0.126811 -0.125651 -0.0190837 0.677059 -0.182722 0.122538 0.316728 0.0936524 0.216648 -0.289854 -0.0216455 -0.229304 0.0116555 0.0442222 0.12711 0.175704 -0.201651 0.039854 -0.0782436 -0.111338 0.0685908 -0.0927111 0.206236 -0.390654 -0.122608 -0.250369 0.729835 0.23201 -0.102962 -0.375867 -0.0161977 0.949111 0.339138 -0.285795 -0.4089 -0.550886 0.124214 -0.120809 0.0512377 -0.154885 -0.169434 0.0204173
48766 0.021291 -0.0562243 0.0164418 0.00948524 -0.105596 0.19184 -1.06934 1.15406 -0.097352 -0.19042 -0.00636448 0.463541 -0.00672208 0.0750947 0.245533 0.0916876 0.362244 -0.377144 0.0119498 -0.427503 0.0510701 0.0907289 -0.0566157 0.0557748 -0.0953888 -0.0120724 -0.0506597 -0.0782938 0.00309881 -0.0195296 0.196061 -0.388593 -0.0281402 0.00751525 0.0883651 0.0201552 -0.0979151 -0.270811 0.00315902 0.514646 0.37404 -0.310043 -0.432269 -0.54198 0.138519 -0.155549 -0.0410176 -0.00378236 -0.45873 0.102065
503883 0.000242657 -0.0521944 -0.125122 -0.0546987 0.037439 -0.0817202 -0.299674 0.304953 0.0143142 0.0423247 -0.04484 0.305194 0.0094269 -0.0184446 -0.0702997 -0.0131654 0.0929071 -0.11805 0.0296874 -0.0897687 -0.00211125 -0.00694167 0.0230491 0.0181303 0.0345579 -0.000551978 -0.298376 -0.427443 0.0453203 0.267065 0.116074 -0.253673 0.098815 0.261338 0.207349 0.0758281 -0.0566691 -0.101926 0.00215727 0.303793 0.328608 -0.252503 -0.13552 -0.188198 0.116526 -0.150459 -0.131654 0.275322 -0.221469 0.0240042
503893 0.0878966 0.09108 -0.114999 -0.0422456 -0.000144217 -0.0498121 -0.146822 0.149124 0.045608 0.0284875 -0.00534244 0.165173 0.0519057 -0.0375689 -0.0621706 -0.0432612 0.126025 -0.166898 -0.0137198 0.0847733 0.0109917 -0.00464571 -0.00412815 0.00881591 0.0157328 -0.00903102 -0.205084 -0.290904 0.0410801 0.130441 0.0445329 -0.121923 0.147594 0.394041 -0.0861178 -0.0258401 -0.051523 -0.0264269 -0.0168109 -0.046515 0.677584 -0.476274 -0.48933 -0.72849 0.178947 -0.238523 -0.158018 0.300684 -0.396982 0.0624693
513189 0.0726359 -0.0444426 -0.0946285 -0.0424497 0.0163399 -0.066828 -0.190906 0.221273 0.000293912 0.0101397 -0.0272186 0.197186 0.00864719 -0.011836 -0.0869486 -0.0181475 0.0915636 -0.0928814 -0.00534244 -0.000900139 -0.00527368 0.00483247 0.0208968 0.0336825 0.0196564 -0.0211257 -0.158162 -0.212764 0.0146543 0.100227 0.0558368 -0.131521 0.104268 0.285497 0.0803764 0.0420663 -0.0441186 -0.0897993 -0.00806502 0.149703 0.388091 -0.278499 -0.216015 -0.331524 0.125557 -0.169739 -0.125956 0.241642 -0.254517 0.036301
54129 0.107593 -0.101301 -0.143775 -0.0386436 0.0291734 -0.0694378 -0.191724 0.207746 0.0255445 0.0291134 -0.0135822 0.174237 0.0703921 -0.00660904 -0.0555077 -0.0238535 0.100946 -0.0990884 -0.0174065 0.0583428 0.00434212 0.0144725 0.0200435 0.0125483 0.00322868 0.00323875 -0.12733 -0.167437 0.0216446 0.00140941 0.0344757 -0.0722556 0.18736 0.512451 -0.136313 -0.0436953 -0.0732452 -0.0617805 -0.036977 -0.112619 0.582612 -0.388578 -0.485085 -0.715951 0.241268 -0.327428 -0.178729 0.362758 -0.43622 0.0687516
54131 -0.259308 -0.102908 -0.10876 -0.0129671 0.00274308 -0.0720252 -0.448437 0.516569 0.0405372 0.0124566 -0.11196 0.592983 0.0635619 -0.0240686 -0.154656 -0.080378 0.301992 -0.322717 0.012535 -0.0155885 -0.0138258 -0.0193401 0.0509691 0.0612997 -0.0435685 -0.00949668 -0.330405 -0.465515 0.023282 0.233497 0.0430538 -0.0720813 0.0122953 -0.0274613 0.20117 0.0935478 -0.120564 -0.249715 0.0542212 0.706429 0.049431 -0.0926263 0.221048 0.311088 -0.020995 0.0174749 -0.155122 0.370121 0.125443 -0.0235072
56119 -0.142464 -0.115239 -0.280257 -0.0523515 0.0781651 -0.587298 -0.515159 0.487794 0.310902 0.217266 -0.149274 0.765389 0.333365 -0.0752412 0.0870166 -0.099953 0.227281 -0.270207 -0.0839581 0.256364 0.0410876 0.00846596 0.0532382 0.0703246 0.0806386 -0.0241987 -0.197452 -0.300405 -0.0105536 0.204227 -0.0545608 0.0309831 0.205165 0.356549 0.0751287 0.0429503 -0.151063 -0.318016 -0.0135104 0.643194 0.0915822 -0.125022 0.269406 0.360007 0.107269 -0.129531 -0.193992 0.49648 0.0574708 -0.0724071
561238 -0.0410252 0.0394942 -0.169045 -0.0511623 -0.00296206 -0.0340432 -0.276338 0.331437 0.007765 -0.00545581 -0.0408659 0.176024 0.0439258 -0.0134528 -0.0285343 -0.01241 0.264305 -0.301541 -0.016449 0.0203583 0.00740142 0.0199901 0.0278651 0.0633417 0.0231951 -0.030148 -0.169699 -0.268474 0.00615663 0.104497 0.00603158 0.017224 0.128494 0.29798 -0.151157 -0.0361898 -0.0911523 -0.144453 -0.00975806 0.0876482 0.483077 -0.365219 -0.310248 -0.454298 0.186446 -0.271271 -0.12851 0.239134 -0.195951 0.0207474
568857 0.159382 -0.202741 -0.0188864 -0.0240703 0.00389044 -0.0536387 -0.177804 0.19512 -0.00526751 -0.0316543 -0.0271224 0.0711636 0.0242948 -0.0327296 -0.159861 -0.0497917 0.0528332 -0.0593889 -0.0298594 0.023663 0.00119791 0.0403016 -0.0194537 0.0185202 0.0139041 -0.00603537 -0.178779 -0.254226 0.00122512 0.0755155 0.0575379 -0.10197 0.0577316 0.162462 0.0864626 0.035993 -0.0624649 -0.162946 0.018534 0.37028 0.268966 -0.208185 0.00353281 -0.00214083 -0.00322696 -0.00883893 -0.0679047 0.151239 -0.174557 0.031995
573964 0.19353 -0.164616 0.00605174 -0.0267258 0.0173967 -0.06056 -0.103505 0.0814585 0.0152844 -0.0388464 -0.0249187 0.0628035 -0.0172734 -0.022122 -0.181601 -0.0353724 0.0292079 -0.0242121 -0.0114555 0.0437937 0.00753698 0.0291696 -0.0228896 0.00608755 0.00549527 -0.0136016 -0.174967 -0.265074 -0.00193274 0.0310028 0.0309148 -0.0910632 0.0778125 0.259125 0.131189 0.065616 -0.0881524 -0.173724 0.00124028 0.365079 0.293063 -0.203946 -0.100054 -0.150567 0.0373694 -0.0488746 -0.0745086 0.127371 -0.192948 0.0490032
573978 0.0760313 -0.116855 -0.252622 -0.0355954 0.0263459 -0.123377 -0.335152 0.385748 0.0576917 0.10362 -0.00111503 0.126005 0.0578205 -0.0233592 -0.140097 -0.0433391 0.119576 -0.107343 -0.0112442 0.0568654 -0.017214 -0.00825463 -0.0183475 -0.00759998 0.0251743 -0.0533144 -0.256215 -0.395113 0.036001 0.208092 0.118201 -0.237397 0.171988 0.486462 0.0520048 0.0388556 -0.0788914 -0.163491 0.00613091 0.214493 0.840241 -0.62487 -0.46807 -0.660888 0.278474 -0.376617 -0.19343 0.326899 -0.542136 0.104416
574009 0.00190584 -0.0303523 -0.0899219 -0.0268809 0.0155142 -0.0301443 -0.199753 0.19839 0.0229804 0.0196686 -0.0231689 0.0751148 0.000515498 -0.0185718 -0.0907036 -0.0237486 0.0891498 -0.0939739 0.0257057 -0.0255059 -0.00655425 -0.0279196 0.0114244 0.00937393 0.0325649 -0.00656849 -0.152175 -0.210698 0.037635 0.042486 0.0791645 -0.15863 0.186941 0.510194 -0.0727174 -0.0262199 -0.0457667 -0.0392684 -0.030744 -0.110313 0.583505 -0.395143 -0.452852 -0.661533 0.182396 -0.253882 -0.180962 0.323883 -0.340343 0.077948
574264 0.0693276 -0.183826 -0.0440004 -0.0046166 0.0160053 -0.107798 -0.240935 0.267098 0.00232261 -0.00708657 -0.0702617 0.244166 -0.03915 0.00631546 -0.0837346 -0.00691755 0.0631304 -0.0654524 0.0140179 -0.0208674 -0.00740016 0.00842382 -0.0499412 -0.0166291 0.0369262 -0.0222181 -0.323376 -0.459668 0.039404 0.17098 0.0740647 -0.165396 0.00856867 0.0257049 0.320752 0.123134 -0.071607 -0.17076 0.00540265 0.499528 0.111183 -0.112657 0.0410273 0.0681607 0.00426824 -0.000448479 -0.069352 0.141556 -0.180089 0.0369499
574462 -0.014254 -0.0102052 -0.0903516 -0.0206825 0.000372624 0.0157396 -0.129923 0.137635 0.0347531 0.0714464 -0.0107439 0.0922375 0.0678472 -0.018055 -0.0786337 -0.0350803 0.065782 -0.0549781 0.00122883 0.0739144 -0.0138441 -0.0119935 -0.0112202 -0.036693 0.0426719 -0.013676 -0.0938592 -0.128312 0.00582261 -0.086138 0.0290708 -0.081735 0.155071 0.441416 -0.0779678 -0.0139651 -0.0752271 -0.0609535 -0.0336375 -0.124068 0.674391 -0.48613 -0.355566 -0.513789 0.144816 -0.198753 -0.140156 0.268621 -0.333046 0.0477158
575077 0.0638061 0.0111228 -0.164222 0.0336134 0.0253242 -0.18783 -0.2469 0.27715 0.0751526 0.0881237 -0.0667316 0.321771 0.167689 -0.0737583 -0.149422 -0.0730565 0.279353 -0.321526 -0.0212628 0.0547861 -0.0261176 -0.00940777 0.0150634 0.0532808 0.024552 -0.0243493 -0.16116 -0.250167 0.0605553 0.135507 0.0812676 -0.175955 0.145212 0.377805 -0.0927385 -0.0130752 -0.0775218 -0.0966419 -0.0219124 0.172787 0.747995 -0.553036 -0.35933 -0.557616 0.263691 -0.398195 -0.161921 0.336296 -0.423969 0.0899297
575292 0.0319362 -0.0289883 -0.15664 -0.0439692 0.00558732 -0.0369367 -0.282669 0.297333 0.0367149 0.0534637 -0.0466673 0.195472 0.0715828 -0.0214008 -0.1101 -0.0353335 0.177039 -0.199811 0.00524504 -0.00575192 -0.0119783 -0.0040678 0.0240064 0.0185928 0.0261504 -0.0179746 -0.259431 -0.366669 0.0391951 0.200509 0.114887 -0.256366 0.145111 0.39886 0.122785 0.0601214 -0.0746431 -0.138514 -0.0022537 0.273979 0.54696 -0.393793 -0.253638 -0.362508 0.123903 -0.181985 -0.164188 0.327964 -0.379143 0.0517505
575331 0.0643751 -0.0535315 -0.154132 0.000873634 0.0064729 -0.0878847 -0.341687 0.366607 0.0564898 0.0986913 -0.0305786 0.0835653 0.0455459 -0.0323936 -0.0980888 -0.0270491 0.143843 -0.156876 0.0180225 -0.0134662 -0.0116106 0.0137645 -0.00797229 -0.0107774 -0.012885 0.00218286 -0.161081 -0.231015 0.0311971 0.13346 0.105668 -0.243 0.163412 0.461461 0.0407199 0.0272039 -0.0830358 -0.129398 -0.00369753 0.179223 0.670581 -0.492107 -0.456397 -0.655824 0.214456 -0.319321 -0.195879 0.396411 -0.555523 0.0837375
576725 0.0422289 -0.0086627 -0.102603 -0.0423204 0.0260063 -0.064659 -0.232696 0.242794 0.0179844 0.0249723 -0.0307814 0.202643 0.0186467 -0.0197608 -0.045965 -0.0277573 0.0892687 -0.107886 0.0230897 -0.0221394 -0.00206573 -0.00408536 0.019583 0.0203182 -0.000119951 -0.00669073 -0.254469 -0.3845 0.0240273 0.124442 0.0878067 -0.165315 0.114823 0.314108 0.148538 0.0680191 -0.0441882 -0.0860968 -0.010094 0.193093 0.461675 -0.331468 -0.121643 -0.197057 0.106938 -0.168246 -0.112319 0.21661 -0.246808 0.0262094
576795 0.0708724 -0.0874543 -0.134449 -0.03168 0.0391375 -0.128526 -0.264968 0.267196 0.0773392 0.0300673 -0.0188912 0.094081 0.0248128 -0.0210352 -0.107099 -0.0268986 0.0821953 -0.0847897 -0.00872258 0.0100671 0.00559333 0.00398048 -0.00184076 0.0197384 0.00734462 0.0128321 -0.0956307 -0.145579 -2.09759e-05 -0.0294042 0.0535908 -0.088605 0.111879 0.292033 -0.0370252 -0.00107973 -0.0672186 -0.0531787 -0.0318247 -0.0465791 0.709469 -0.496599 -0.440869 -0.646145 0.20021 -0.290401 -0.203901 0.403385 -0.525485 0.086136
577227 0.103953 0.148508 0.0557919 -0.00767001 0.0761178 -0.0248309 -0.599347 0.665038 -0.0469997 0.0319086 -0.0167291 0.124452 0.0749342 -0.0331707 0.0823457 0.017373 0.07529 -0.125673 0.020068 -0.0782678 0.0115509 -0.0134751 -0.0436245 -0.0420898 0.0783377 -0.0188996 -0.141737 -0.22095 0.0520016 0.246538 0.0734138 -0.181278 -0.0461782 -0.0867566 0.482443 0.192108 -0.0589663 -0.134476 -0.00305636 0.67757 0.131278 -0.07062 0.00648415 -0.00104376 0.0703852 -0.124266 -0.251364 0.511561 -0.422586 0.0447793
578780 0.0693904 0.735865 0.139618 0.0261377 0.0725943 0.0952859 -0.563472 0.603232 -0.103879 -0.0746675 0.0214771 0.0953921 0.25254 -0.0568616 -0.0887408 -0.130374 0.532652 -0.657085 -0.061236 -0.120822 -0.0335681 -0.0612945 -0.0340991 -0.126294 0.211483 -0.075484 -0.249568 -0.378722 0.0432177 -0.242638 0.0958879 -0.244184 0.195663 0.523613 0.134026 0.0758767 -0.0755893 -0.0867571 -0.0279512 0.31004 0.201306 -0.103745 -0.16826 -0.303773 0.313508 -0.463169 -0.224736 0.361655 -0.224975 0.0947771
579008 0.036048 0.0345453 0.051828 -0.0357366 -0.035284 0.178954 -0.432547 0.512883 -0.00117771 -0.0431095 -0.0331718 0.22511 -0.0269817 0.00256241 0.0500888 0.0292416 0.0678991 -0.113846 -0.0111369 0.0242504 0.0283821 0.0185658 -0.0826512 -0.0862254 0.0015258 0.0280747 -0.249028 -0.353472 0.0655258 0.0716868 0.180583 -0.398152 0.220178 0.599545 0.0824838 0.0408674 -0.0442777 -0.0550791 -0.017424 0.131747 0.557674 -0.399351 -0.241054 -0.372164 0.22168 -0.331824 -0.0418478 -0.0486289 -0.468545 0.107129
592973 0.0719769 0.0863029 -0.144352 -0.0476524 0.0252271 -0.0682694 -0.262327 0.271623 0.00554306 -0.0044748 -0.0182279 0.129735 -0.00790857 -0.00570356 -0.084152 -0.019844 0.0717796 -0.0875564 -0.0229851 -0.00881227 0.0110853 0.0140642 -0.0250711 -0.00699376 0.0353267 0.0147958 -0.172558 -0.232721 0.0167518 0.143973 0.0988894 -0.171722 0.168482 0.43399 -0.130205 -0.0456398 -0.0566472 -0.0442782 -0.0306113 -0.00662824 0.625117 -0.436999 -0.389934 -0.566555 0.176118 -0.276766 -0.18384 0.340671 -0.355413 0.0729707
593091 0.242982 -0.605239 -0.685883 -0.181883 0.0352357 -0.338868 -0.0800798 0.0648336 -0.0193262 -0.0558124 -0.0345728 0.170226 0.130436 -0.0511698 -0.0928928 -0.0419977 0.0175493 -0.0496258 0.0897941 -0.204017 -0.0682652 -0.0482639 0.13913 0.101682 0.0290355 -0.0133231 -0.553539 -0.743973 0.00246249 0.166533 0.00791282 -0.00168886 -0.0398784 -0.162417 0.269358 0.112248 -0.0689274 -0.151841 0.0416494 0.589599 0.138129 -0.161959 0.160754 0.255939 -0.0392772 0.0541106 0.122288 -0.247145 -0.0321417 -0.0137373
593105 0.494864 -0.755117 -1.01955 -0.312415 0.140826 -0.888797 0.28382 -0.367547 0.0084047 -0.0815373 -0.0997797 0.416902 0.463778 -0.180442 -0.24537 -0.15122 0.147629 -0.229767 0.128006 -0.213811 -0.119456 -0.0900106 0.242098 0.1571 0.114818 -0.033964 -1.04964 -1.47356 0.00795837 0.107339 -0.00979157 0.0642323 -0.0263584 -0.102559 0.170963 0.0906328 -0.170055 -0.324616 0.0659251 0.984951 0.362639 -0.375539 0.189707 0.31271 -0.0316004 0.0352227 0.171588 -0.330581 -0.442268 0.0130759
593240 0.528351 -0.637633 -0.693267 -0.210141 0.170131 -0.926186 -0.0534148 -0.012583 -0.0278125 -0.0294984 -0.0503145 0.153364 0.362282 -0.145101 -0.227186 -0.123136 0.198331 -0.315943 0.048318 -0.228438 -0.152294 -0.0773976 0.331355 0.269103 0.195013 -0.076252 -0.491406 -0.683264 -0.00888426 0.183078 0.0528592 -0.115893 -0.112696 -0.358338 0.416877 0.172676 -0.339485 -0.646008 0.0568825 1.14362 0.1544 -0.212522 0.0357322 0.0936202 0.00644257 0.0211736 0.0457441 -0.130158 -0.449878 0.0342716
593260 0.367319 -0.612618 -0.634239 -0.198062 0.207695 -1.0758 -0.0410394 -0.00240553 -0.0816017 -0.0254495 -0.00709764 -0.116589 0.366834 -0.147544 -0.22212 -0.0984081 0.150019 -0.286173 0.0115296 -0.255234 -0.166737 -0.0824022 0.353284 0.279152 0.170815 -0.0568976 -0.51887 -0.730931 -0.0164986 0.132171 0.0664542 -0.169143 -0.0302319 -0.164478 0.399167 0.180125 -0.30803 -0.564834 0.0407895 1.0638 0.26491 -0.283189 -0.103879 -0.130063 0.0242321 -0.0162356 0.046593 -0.127007 -0.552626 0.0384911
593813 0.35251 -0.37127 -0.473254 -0.101499 0.230103 -1.08364 -0.110602 0.0864701 0.0254826 0.0458795 -0.0252063 -0.0172316 0.214534 -0.0755515 -0.0963321 -0.0276062 0.187739 -0.294286 0.0479855 -0.284131 -0.199664 -0.0793696 0.30388 0.309771 0.227629 -0.105913 -0.405526 -0.617822 0.0346794 0.325615 0.102365 -0.264196 -0.175548 -0.535539 0.457183 0.179269 -0.297092 -0.576821 0.0519627 1.05441 0.0829021 -0.13554 -0.0583117 -0.0362834 -0.0192361 0.02253 0.0535939 -0.11412 -0.443173 0.0341428
594047 0.452048 -0.472811 -0.466537 -0.106453 0.255583 -1.11504 -0.204064 0.182779 -0.0311672 0.0106074 0.00902949 -0.179759 0.301778 -0.0978304 -0.165427 -0.0575067 0.166899 -0.277697 0.0395411 -0.339714 -0.211641 -0.0992881 0.371729 0.360021 0.182716 -0.0756148 -0.413478 -0.603858 0.00565113 0.183301 0.0630971 -0.16754 -0.0960801 -0.298109 0.446855 0.193363 -0.379321 -0.70494 0.0399584 1.00086 0.0817975 -0.145406 -0.145493 -0.174534 0.0498793 -0.0547677 0.0481453 -0.179485 -0.441915 0.042546
594543 0.227818 -0.337394 -0.417402 -0.11849 0.299032 -1.19886 -0.16272 0.108946 -0.0222448 0.0320565 0.00436647 -0.256328 0.233434 -0.0767153 -0.0909417 -0.00388982 0.144963 -0.236177 0.0556187 -0.349644 -0.217865 -0.10601 0.328952 0.295242 0.207755 -0.110377 -0.43602 -0.627348 0.0248687 0.098992 0.0194694 -0.12527 0.000695921 -0.0768091 0.315006 0.144478 -0.399852 -0.733286 0.0186264 1.03469 0.413074 -0.373358 -0.324699 -0.449659 0.0940922 -0.119387 0.0714958 -0.210735 -0.510496 0.0590664
594649 0.324924 -0.482695 -0.376582 -0.136989 0.167506 -0.864039 -0.264128 0.22465 0.0679479 -0.0358281 0.0253613 -0.138187 0.240724 -0.0754134 -0.264941 -0.129576 0.125723 -0.205998 0.0104578 -0.17026 -0.145563 -0.0462989 0.267306 0.22436 0.135536 0.0251339 -0.168811 -0.269743 -0.0425347 -0.0262263 0.023256 -0.0749086 0.0283769 0.0263703 0.0408445 0.0286764 -0.203811 -0.373754 0.0258676 0.472123 0.448521 -0.343274 -0.338267 -0.450633 0.221808 -0.330626 -0.0489305 -0.0139914 -0.386052 0.043183
594900 0.0335027 -0.0185025 -0.0883942 -0.0258216 0.0254216 -0.0439436 -0.148772 0.183731 0.000999023 0.0303425 -0.0235064 0.0955105 0.0312478 -0.0184544 -0.0566041 -0.0270814 0.0965303 -0.105512 -0.0212446 0.0379526 0.0236659 -0.00316673 -0.02234 -0.0133468 0.0113457 -0.0109902 -0.0356334 -0.0472694 0.0075883 0.0217087 0.0684263 -0.122352 0.116833 0.310584 -0.0613219 -0.0213786 -0.0641467 -0.047374 -0.0422695 -0.0386769 0.77881 -0.547217 -0.495185 -0.707016 0.220679 -0.304037 -0.21195 0.408027 -0.467974 0.0752278
608326 0.0354115 0.0459453 -0.253663 -0.0929534 0.0217222 -0.0610483 -0.425825 0.481369 0.0238512 -0.0126811 -0.0407524 0.324519 0.0251129 -0.0190446 -0.116878 -0.0472532 0.0942937 -0.0870835 -0.0502518 0.03739 0.0233654 0.0271673 -0.0144197 0.00648356 -0.0641553 -0.0238154 -0.106017 -0.158231 0.0271153 0.199266 0.0589152 -0.156496 -0.0309714 -0.135763 0.246501 0.131382 -0.0639245 -0.100589 0.0434243 0.730067 0.152744 -0.167797 0.125206 0.164496 -0.00344274 0.015337 -0.0131231 0.0584173 -0.0920411 0.034446
634902 0.00431199 -0.0459484 -0.253527 -0.0742921 0.000655437 -0.0285465 -0.418222 0.506662 0.0140716 0.0229122 -0.0225068 0.0939129 -0.0401059 0.0261565 -0.0663506 -0.0333635 0.152809 -0.180713 -0.0389951 -0.0423576 -0.0149462 0.0303019 0.00735276 0.0359733 -0.0102386 -0.0290334 -0.352401 -0.489106 0.0506597 0.256145 0.000560433 -0.00529928 -0.0748346 -0.21678 0.27987 0.148791 -0.0571664 -0.158945 0.0742844 0.927294 0.362397 -0.315661 0.106212 0.147721 -0.0394237 0.0562396 0.108659 -0.184608 -0.0951983 -0.00574056
634904 0.0686708 -0.0588719 -0.202071 -0.0605643 0.0239448 -0.0861477 -0.363326 0.364607 0.0309593 0.0109644 -0.0305681 0.227144 0.0694719 -0.0367839 -0.104437 -0.0316301 0.143719 -0.162592 -0.00572597 0.00337321 -0.00845638 -0.00716881 0.0307989 0.0342903 0.00759582 -0.0158133 -0.316131 -0.461442 0.0398565 0.231413 0.102309 -0.217226 0.1135 0.300494 0.213079 0.0915027 -0.0938233 -0.185745 0.00753286 0.386759 0.610379 -0.458956 -0.274832 -0.402783 0.138538 -0.218847 -0.159797 0.370185 -0.359621 0.0290275
634938 0.0786175 -0.166209 -0.181963 0.046947 0.0295063 -0.145559 -0.262755 0.292733 0.0595659 0.0629049 -0.0267595 0.123414 0.0356242 -0.013493 -0.0406797 -0.0279711 0.12662 -0.132543 0.0397988 -0.0334917 -0.00844631 -0.0311785 -0.00295274 -0.0234078 0.0201448 -0.0161137 -0.196856 -0.286889 0.0499317 0.151756 0.0755941 -0.163577 0.174734 0.474387 0.00812816 -0.000511766 -0.0546621 -0.0775142 -0.0121391 0.0923174 0.732235 -0.514623 -0.453037 -0.67348 0.177606 -0.267613 -0.186278 0.35649 -0.429937 0.0854174
634975 0.119756 0.19447 0.0713139 0.0963963 -0.0487204 0.298045 -0.634034 0.639648 -0.219307 0.0808716 -0.0161648 -0.0385334 0.0181667 -0.0278883 -0.0763941 -0.0104567 -0.496687 0.487912 -0.110594 0.0176682 0.0318977 0.0190036 -0.0410209 0.0523682 -0.0750291 -0.0498979 -0.459631 -0.624353 0.0527295 0.375704 0.0436281 -0.0673368 0.00898674 -0.0855025 0.269938 0.131696 -0.0899786 -0.14573 0.0317108 0.330151 0.539082 -0.432604 -0.236974 -0.347953 -0.0975282 0.123142 0.0663955 -0.0966868 -0.620477 0.15896
640617 0.0319453 -0.0456166 -0.297172 -0.137715 0.0335962 -0.00326896 -0.650818 0.686869 0.104502 0.230815 0.00445915 -0.364401 -0.0276512 -0.0686751 -0.0710883 0.0405368 -0.42877 0.44093 -0.108616 0.0931998 0.070994 0.0087733 -0.218816 -0.196776 -0.159198 0.00560281 -0.183551 -0.19954 0.0855147 0.327269 0.0334026 -0.0320242 -0.014181 -0.0223256 0.616137 0.223675 -0.0789434 -0.120357 -0.012885 0.490979 0.526459 -0.376195 -0.444754 -0.659497 0.0322056 -0.010488 0.0728784 -0.152353 -0.55748 0.113067
646809 0.107877 0.0146099 -0.0147946 -0.0156498 -0.0280147 0.300797 -0.43932 0.452765 0.0330086 -0.145205 -0.0884529 0.177966 0.0246138 -0.0175879 0.34998 0.0815193 -0.00812429 -0.0509887 -0.0241276 -0.0916775 -0.0391178 0.0253641 -0.108598 -0.0174388 0.0342997 0.0406444 -0.16735 -0.267068 0.0538617 0.410542 0.28041 -0.595194 0.106734 0.325987 0.628552 0.264579 -0.101016 -0.23701 0.0912217 0.695938 0.260618 -0.240577 0.0646815 0.0665084 0.222071 -0.327692 -0.0672806 0.0851104 -0.53849 0.0717826
646837 0.110722 -0.0889978 -0.43156 -0.126134 0.0511716 0.267175 -0.352134 0.449222 0.00968156 0.0876492 -0.132163 0.555806 -0.0703149 -0.0296974 -0.190993 -0.0670277 0.0947783 -0.122229 -0.0531593 0.0138199 -0.0147418 0.0254448 -0.0589741 -0.0302869 0.14008 -0.0297045 -0.145801 -0.17376 0.0132262 0.523875 0.172248 -0.380517 -0.0790444 -0.21475 0.443508 0.164426 -0.0430317 -0.187762 0.0640843 0.61196 0.0672919 -0.102362 0.269829 0.413447 0.128514 -0.199116 -0.0764167 0.101512 -0.0940817 -0.007294
647408 0.159647 -0.245432 -0.487824 -0.226286 -0.0551995 0.47601 -0.358115 0.491365 -0.027775 0.0645764 -0.175292 0.953414 -0.176795 0.0245908 -0.176228 -0.054354 0.28002 -0.278543 0.0443121 -0.19931 -0.0144455 0.0924603 -0.101047 -0.0134806 0.129139 -0.0284208 -0.0869758 -0.0831401 0.0065294 0.739738 0.205253 -0.433668 -0.0936596 -0.30211 0.224647 0.0837408 -0.0815244 -0.299176 0.0525187 0.744222 0.149518 -0.149022 0.135725 0.211253 0.329081 -0.497203 -0.0734829 0.0481858 -0.372091 0.0340507
647447 0.0873506 0.0916491 -0.453663 -0.138525 0.17351 -1.25134 -0.760615 0.720043 -0.132119 -0.221149 0.0794234 -0.339083 0.130242 0.0770459 -0.067923 -0.080699 0.665907 -0.775874 -0.109165 0.0233062 0.0639502 0.0146077 -0.202193 -0.153977 -0.0377261 -0.0718558 -0.860974 -1.25369 0.0591135 -0.0175876 0.173741 -0.236281 -0.0876957 -0.116879 -0.746706 -0.292253 -0.153844 -0.290433 0.1183 0.274846 0.525012 -0.573684 -0.0918679 -0.0115764 0.241482 -0.378773 0.145586 -0.320175 -1.46487 0.112526
66556 0.0604755 0.170235 -0.4596 -0.0482562 0.200429 -1.46696 -0.859379 0.892258 -0.0760209 -0.156418 0.0811105 -0.408202 0.0902605 0.105539 -0.00502058 -0.0568142 0.645403 -0.737065 -0.180782 -0.0182327 0.0586672 0.0354504 -0.233783 -0.155882 0.0447103 -0.137757 -0.820352 -1.18706 0.0687137 -0.0360682 0.17615 -0.237594 -0.0255337 0.0326741 -0.908052 -0.320448 -0.102399 -0.138545 0.099501 0.153401 0.644352 -0.630688 -0.186181 -0.105728 0.303394 -0.486424 0.153134 -0.351204 -1.58185 0.136703
66563 0.0120248 0.0189743 -0.103771 -0.0615747 0.0272496 -0.0359062 -0.146584 0.166094 -0.0101737 -0.013509 -0.036374 0.194844 0.000966424 0.00680428 -0.041143 -0.022242 0.0406714 -0.0410334 -0.0374404 0.0542221 -0.0247186 -0.0153544 0.00229713 -0.00936876 0.0405941 -0.0292688 -0.0923582 -0.123458 0.0258972 0.0988729 0.0965571 -0.196252 0.145463 0.398018 -0.0186069 -0.00935259 -0.0849642 -0.102236 -0.0262869 -0.0555427 0.543392 -0.400003 -0.421428 -0.619075 0.208523 -0.286052 -0.199785 0.375326 -0.454298 0.050961
66805 0.0333511 -0.0116495 -0.177313 -0.0630313 0.0104715 -0.0135813 -0.304451 0.324732 0.0193919 0.0049122 -0.0429525 0.206731 -0.00123955 -0.00107591 -0.110741 -0.0445967 0.144866 -0.180433 0.00810949 -0.030664 0.0093453 0.000579233 -0.0031469 0.030274 0.0243673 -0.00762744 -0.274226 -0.394965 0.0332524 0.185278 0.0983187 -0.217092 0.105695 0.25626 0.0372448 0.0241668 -0.0688006 -0.137658 -0.00216431 0.259251 0.488092 -0.36699 -0.290541 -0.418134 0.121783 -0.17476 -0.181289 0.389393 -0.316 0.042081
69284 0.0729558 -0.026579 -0.103005 -0.0480299 -0.0133092 0.011238 -0.223238 0.219698 0.037171 -0.0229057 -0.0222639 0.133753 0.0385715 -0.00517702 -0.100651 -0.0332961 0.0857625 -0.109916 -0.0107566 0.0364807 0.011252 -0.00524708 0.0078344 0.012955 -0.0277282 -0.00342782 -0.222633 -0.303259 0.0266653 0.068909 0.0897744 -0.154857 0.251345 0.656688 -0.000125556 0.0128959 -0.0954584 -0.103411 -0.0180126 0.0695509 0.902671 -0.628534 -0.489061 -0.703378 0.255968 -0.376803 -0.223678 0.432293 -0.52851 0.0642946
69296 0.12244 -0.139759 -0.244646 -0.02221 0.185185 -0.72618 -0.122163 0.112717 0.0104516 0.0898799 0.00295063 -0.225089 0.146823 -0.0659983 -0.0643286 -0.00522533 0.0906569 -0.166449 0.0247449 -0.219001 -0.142234 -0.0561924 0.200633 0.187868 0.145465 -0.0576375 -0.419743 -0.624011 0.0196502 0.214955 0.0886459 -0.206578 -0.0570998 -0.187372 0.281028 0.107048 -0.265883 -0.4947 0.0363141 0.799886 0.226976 -0.209928 0.0629506 0.0947525 -0.0310176 0.0375927 0.0183275 -0.0680621 -0.389758 0.0307032
694759 0.483014 -0.346523 -0.483484 -0.0824783 0.337386 -1.48494 -0.093655 0.000588057 -0.0655482 0.116561 0.00287738 -0.308687 0.381095 -0.200268 -0.240187 -0.0129217 0.176602 -0.331412 0.0794449 -0.462362 -0.283155 -0.128691 0.427549 0.393709 0.253803 -0.157509 -0.375535 -0.564438 -0.0239611 0.124271 0.251676 -0.525988 0.0014792 -0.157576 0.219911 0.0926018 -0.525161 -0.896221 -0.0055211 0.777428 0.541623 -0.455252 -0.446866 -0.629375 -0.026011 0.0258281 0.0218176 -0.124422 -0.853405 0.0848232
735303 0.489816 -0.238542 -0.337126 -0.108719 0.465154 -1.77847 -0.0751347 -0.00206744 0.0185761 0.185307 -0.0568137 -0.102515 0.407091 -0.205451 -0.195767 0.0385221 0.237263 -0.446979 0.102529 -0.403321 -0.284247 -0.141843 0.423654 0.37174 0.195956 -0.129866 -0.294917 -0.507643 0.0518142 0.287974 0.186784 -0.546079 0.0250034 0.01361 0.00898651 0.032511 -0.54634 -0.889407 -0.114784 0.724731 0.602311 -0.429799 -0.579504 -0.782411 0.127088 -0.180991 0.0348741 -0.270843 -0.975535 0.12653
78511 -0.0184005 0.0378156 -0.167955 -0.0137682 0.0408658 -0.0744007 -0.381112 0.415642 -1.75476e-05 0.00174142 -0.0321439 0.169262 0.0207171 -0.00620099 -0.164825 -0.0403247 0.256806 -0.273183 0.0261028 -0.0348317 -0.0164169 0.00243957 0.00401764 0.0232681 -0.033396 -0.0782913 -0.3695 -0.536457 0.0548614 0.219744 0.183951 -0.301385 0.168246 0.397988 0.22074 0.104074 -0.10131 -0.129549 -0.0125264 0.266689 0.888194 -0.661169 -0.46896 -0.658735 0.192985 -0.268503 -0.188161 0.374257 -0.386017 0.0603936
787016 0.14909 -0.0593267 -0.756553 -0.172646 0.174566 -0.886929 -0.849995 1.0115 0.224342 0.207909 -0.097953 0.73947 0.235105 -0.0517611 -0.000424067 -0.0591577 0.347808 -0.406461 0.0760249 0.0319751 0.0195161 0.0398695 -0.0640947 -0.0556885 -0.0261302 -0.0329723 0.0325545 0.0865232 -0.0188995 -0.0638728 -0.0178919 0.0632156 0.0838596 0.222283 0.0935071 0.0220182 -0.14217 -0.326709 0.00883488 0.0065265 0.294599 -0.293171 -0.00296326 -0.0370034 0.185168 -0.29582 -0.548487 1.18153 0.17772 0.0325345
801170 0.167051 -0.220943 -0.428759 -0.13039 0.0366892 -0.111784 -0.523124 0.548765 0.0724058 0.098011 0.0175983 -0.0790615 0.0164112 0.0104197 -0.0375655 -0.0177827 -0.00641606 0.0127259 0.0526344 -0.0479259 -0.0158573 -0.028574 0.0474233 0.00713385 -0.00190705 -0.00104868 -0.3129 -0.452075 -0.0175716 0.18611 0.087618 -0.214139 0.00360754 -0.00138703 0.225281 0.0867693 -0.0132031 -0.0924581 0.0303457 0.358708 -0.0827778 0.00458596 0.15565 0.228746 0.0105126 -0.00366241 -0.0990425 0.235462 -0.258909 0.0167456
81722 0.182624 -0.301524 -0.430451 -0.162757 0.0386755 -0.0942925 -0.590629 0.655582 0.110782 0.11628 0.0101825 -0.107506 0.0369414 0.00109936 -0.0609135 -0.0378177 0.0126891 -0.014099 0.0478613 -0.0352707 0.00899719 -0.0261429 0.0311133 -0.030136 -0.0259386 0.0059163 -0.222439 -0.321852 -0.0449787 0.10853 0.0247416 -0.094178 -0.00107548 -0.00705398 0.116601 0.0345086 -0.00903412 -0.100524 0.0311611 0.343907 -0.144934 0.0344062 0.0765607 0.118632 0.0793347 -0.10587 -0.127955 0.313944 -0.319404 0.0172427
82098 0.343782 -0.316367 -0.839929 -0.280168 0.0340828 -0.336618 -1.07631 1.13625 0.228357 0.216834 0.0707877 -0.325126 0.0382439 0.0127956 -0.113579 -0.051998 -0.0904784 0.078305 0.162024 -0.161388 -0.0432763 -0.0973758 0.128977 -0.00839417 0.0730233 -0.0418212 -0.506163 -0.698617 -0.0898325 -0.0881977 -0.0580921 0.0104197 -0.0139676 -0.0390514 0.459791 0.157837 0.000625198 -0.0859612 0.058221 0.538064 -0.0779164 -0.0327242 0.0360792 0.0683819 0.0238346 -0.0332235 -0.250334 0.588598 -0.83389 0.0869882
84021 0.36347 -0.450018 -1.09094 -0.386939 0.0656289 -0.530192 -1.32051 1.44015 0.239292 0.242824 0.0224776 -0.158577 0.0668914 -0.0293235 -0.134572 -0.0652776 -0.0382874 0.013809 0.180142 -0.236324 -0.0796415 -0.110362 0.141837 0.0513271 0.0729171 0.00580675 -0.508918 -0.626593 -0.159898 -0.181117 -0.119054 0.161543 -0.0335238 -0.000866762 0.470589 0.171532 -0.0190894 -0.131759 0.0496516 0.284559 -0.333316 0.146532 0.206635 0.317998 0.0198981 -0.0342626 -0.318377 0.74781 -0.831149 0.098629
85352 0.381068 -0.507733 -1.09895 -0.436574 0.0658903 -0.517796 -1.31494 1.4398 0.291301 0.288427 0.016765 -0.237916 0.0340835 -0.0395368 -0.137486 -0.0369864 -0.0974854 0.0779501 0.208635 -0.306369 -0.0737804 -0.141643 0.137689 0.0402193 0.114452 0.0210679 -0.523342 -0.671277 -0.18986 -0.342291 -0.140326 0.165638 -0.022367 0.0400679 0.323618 0.0989116 0.0091502 -0.0621997 0.0387975 0.139477 -0.135349 0.0122213 0.134461 0.203776 0.024426 0.000211224 -0.286075 0.687954 -1.03769 0.105643
86359 0.391461 -0.441047 -1.20146 -0.510667 0.0798994 -0.575001 -1.45691 1.54383 0.255008 0.286752 0.0462117 -0.282259 0.0639058 -0.0413637 -0.147504 -0.0503438 -0.111494 0.0795377 0.295371 -0.432511 -0.117997 -0.162577 0.240041 0.0491365 0.0736295 -0.00790507 -0.486417 -0.579959 -0.173546 -0.342124 -0.190576 0.233216 -0.000929066 0.108991 0.340832 0.110886 0.0229725 -0.0625218 0.047114 0.135816 -0.0224496 -0.0917233 0.0052126 0.00847495 0.0270727 -0.0208336 -0.196136 0.503167 -1.08628 0.13182
8865 0.407991 -0.599495 -1.37947 -0.549142 0.0741827 -0.603663 -1.47002 1.5553 0.233417 0.322845 0.0349339 -0.200024 -0.00381584 -0.0145848 -0.256002 -0.0887958 -0.0813792 0.0429253 0.281477 -0.362969 -0.0994001 -0.17529 0.14731 -0.0701688 0.100689 -0.0193777 -0.479967 -0.579702 -0.161054 -0.5447 -0.177715 0.218494 0.0586438 0.328295 0.239942 0.0581274 -0.00955648 -0.0575071 0.00781268 -0.109446 0.157328 -0.192997 -0.0896195 -0.105715 0.00495765 -0.0165342 -0.273322 0.596462 -1.14929 0.14696
887 0.380484 -0.498884 -0.587528 -0.133299 -0.0225078 0.151058 -0.471149 0.550659 0.03228 0.0466592 0.0201551 0.00907473 0.157858 -0.0630397 -0.340954 -0.111184 0.121344 -0.151972 -0.0133591 0.0589188 -0.050187 -0.0287608 0.0944474 0.0425123 0.0571077 -0.0104525 -0.300465 -0.39907 -0.0478912 0.0777141 -0.022062 0.0435099 -0.0997142 -0.294785 0.393952 0.158159 -0.0895175 -0.185793 0.0507527 0.577509 0.102631 -0.101373 0.214902 0.293367 -0.0736609 0.116987 0.0913756 -0.0781121 0.0328331 -0.0436044
97645 0.412032 -0.71818 -0.709736 -0.170001 -0.046996 0.190003 -0.593005 0.678216 -0.00163763 0.0203431 -0.00517519 0.115913 0.210193 -0.0882153 -0.413508 -0.134807 0.147795 -0.165268 -0.0389047 0.0139438 -0.0591066 -0.0343632 0.129264 0.0869574 0.0389637 -0.0150327 -0.256634 -0.332671 -0.0616935 -0.049011 -0.0956462 0.179587 -0.144005 -0.4091 0.564394 0.229323 -0.0945564 -0.194906 0.068014 0.623894 -0.00882896 -0.0078769 0.305223 0.43602 -0.117624 0.178592 0.0723439 0.00337436 0.00200819 -0.0275994
98698 0.409091 -0.581897 -0.472317 -0.0725997 -0.0487398 0.230342 -0.482662 0.58001 -0.0228862 0.0423998 0.00981877 0.0304927 0.124852 -0.0656254 -0.255407 -0.0876884 -0.0225823 0.0377929 -0.00406379 0.025815 -0.0253758 -0.0292562 0.0855595 0.0254997 0.0399135 -0.0133648 -0.2122 -0.275385 -0.0291007 0.0388951 -0.00993925 0.0482472 -0.0487654 -0.147861 0.37045 0.145955 -0.0833786 -0.157198 0.0484351 0.546307 0.172588 -0.131114 0.269115 0.367023 -0.0250104 0.0454349 0.00973476 0.10407 -0.0365166 -0.0289632
1109017 0.0492728 0.0153053 -0.815982 -0.166365 0.10934 -0.633688 -0.708712 0.790746 0.101403 0.013845 -0.180017 1.19714 0.519404 0.00448889 0.38378 -0.0582472 0.525919 -0.511648 -0.0799917 0.163458 -0.0684715 -0.0681113 0.159286 0.0997765 0.0931736 -0.0837886 0.160154 0.215035 0.019098 0.292984 0.25613 -0.328272 0.200256 0.582497 -0.450811 -0.171134 -0.173652 -0.377371 0.0376081 0.168422 0.560605 -0.456994 -0.0914254 -0.117779 -0.0118732 -0.0604081 -0.4741 1.13497 0.43281 -0.0261252
40 -0.026841 -0.0323471 -0.147739 -0.0139554 0.021557 -0.0777225 -0.215258 0.259464 0.00585797 0.032536 -0.0275082 0.134468 0.129993 -0.0595889 -0.087471 -0.0582508 0.218662 -0.267814 0.0104558 -0.000803479 -0.00902232 -0.00921596 0.0203357 0.0214935 0.0130503 0.000402172 -0.288169 -0.435198 0.0437308 0.179288 0.116549 -0.244396 0.0568111 0.117697 0.195681 0.0902552 -0.0708982 -0.132947 0.00707252 0.363804 0.333862 -0.243727 0.137448 0.198104 0.0518755 -0.0791577 -0.076494 0.170349 -0.121009 0.00245257
1114442 0.0025396 -0.030017 -0.214703 -0.0159358 0.00530991 -0.0653848 -0.217793 0.247385 0.02849 0.0612829 -0.0207166 0.17377 0.0744554 -0.0494875 -0.0969536 -0.0584913 0.164219 -0.201046 0.0165906 -0.00985982 -0.023466 0.00989187 0.0398501 0.0294237 0.00743606 -0.0169005 -0.311709 -0.460614 0.0304598 0.203711 0.0979569 -0.19974 0.0456396 0.109582 0.203028 0.0944716 -0.0873803 -0.15957 0.00398895 0.359981 0.610481 -0.464406 -0.0240129 -0.0516305 0.0882708 -0.114378 -0.0974931 0.199658 -0.270982 0.0353816
1103315 -0.0778707 0.0514808 -0.198112 0.00692073 0.0300604 -0.137545 -0.192281 0.253137 0.055392 0.0966787 -0.0680759 0.29433 0.299721 -0.129927 -0.142719 -0.100066 0.421867 -0.488885 -0.00165183 0.0573787 -0.0294622 0.000875737 0.034254 0.021473 0.0021528 -0.0282192 -0.18918 -0.302904 0.0136386 0.00620488 0.0979138 -0.259374 0.0789195 0.15323 0.0755348 0.0544831 -0.0404576 -0.0754582 -0.00396921 0.195448 0.548648 -0.383713 -0.0243194 -0.02184 0.0893012 -0.103775 -0.0756992 0.210122 -0.210481 0.0277093
114 0.0330706 -0.0929677 -0.138538 -0.0455274 0.0389146 -0.138123 -0.254666 0.264625 0.103576 0.0926004 6.7253e-05 0.130917 0.142278 -0.0891372 -0.191731 -0.0814814 0.151658 -0.160416 -0.00494064 0.0441476 -0.0271042 0.00584016 0.0184735 -0.0229315 0.0239638 0.0137852 -0.282511 -0.395415 0.0496773 0.0944731 0.0923905 -0.205153 0.186734 0.495464 0.00186652 -0.0044933 -0.0203264 -0.00660111 -0.0176515 0.119102 0.660705 -0.472795 -0.346163 -0.505669 0.129682 -0.185284 -0.164457 0.35132 -0.297292 0.051086
1105394 0.0263439 -0.0759089 -0.172744 -0.0153483 0.0308728 -0.0316941 -0.30584 0.367906 0.045948 0.0342352 -0.0194762 0.213021 0.0699648 -0.0231 -0.0334455 -0.0380708 0.0727987 -0.101739 0.0331652 -0.045535 -0.0120884 -0.0218702 0.0351148 0.0232965 0.0472493 -0.0243138 -0.30584 -0.46286 0.0561666 0.299503 0.120801 -0.221719 0.0824989 0.189287 0.136765 0.0556449 -0.031138 -0.103083 0.0316717 0.320356 0.121288 -0.123044 0.00476113 0.00338833 0.0628566 -0.0905091 -0.131823 0.273964 -0.172354 0.017712
1106112 0.148532 -0.144189 -0.0716575 0.0637347 0.0506248 -0.0397445 -0.186585 0.237445 0.0780236 0.0350442 -0.0319136 0.244996 0.0557249 -0.0222654 0.0486388 -0.0149744 0.00583855 -0.0296988 0.0709708 -0.0471686 -0.0362451 -0.00977826 0.0551165 0.0354201 -0.0142545 -0.0106254 -0.229894 -0.341231 0.0629144 0.334201 0.180215 -0.312356 0.104625 0.294735 0.141672 0.0828888 -0.130625 -0.228211 0.0025856 0.316942 0.336096 -0.266606 -0.0873209 -0.145168 0.0791253 -0.113869 -0.229133 0.551731 -0.302648 0.0282615
1106172 0.0648551 -0.0651531 -0.141317 -0.0142106 0.0128877 -0.0145524 -0.290681 0.314065 0.0471153 0.0550896 -0.0254831 0.128791 0.0927042 -0.0370655 -0.068425 -0.0399005 0.138035 -0.144069 0.0162468 -0.011333 0.00153554 -0.00307079 -0.0256712 -0.0341154 0.0261958 0.000674522 -0.148378 -0.214595 0.02643 0.0591571 0.0602718 -0.112588 0.111762 0.280903 0.0395404 0.0209315 -0.0829315 -0.122145 -0.0325682 0.122577 0.833596 -0.607408 -0.36488 -0.556136 0.174148 -0.221423 -0.191703 0.414305 -0.394557 0.0744046
1106406 0.0324111 0.0101754 -0.141449 -0.0690682 0.0500133 -0.184308 -0.335876 0.37124 0.0514051 0.0189875 -0.0399318 0.282477 0.0963243 -0.0261022 -0.116156 -0.04717 0.179768 -0.205849 0.0262622 -0.00831287 -0.0267919 0.00887177 0.0610841 0.0518689 0.0404589 -0.0232745 -0.333846 -0.500156 0.0253133 0.301056 0.138428 -0.268505 0.0847438 0.205357 0.210583 0.0890846 -0.071774 -0.148349 0.0309304 0.529688 0.217883 -0.226051 0.0597985 0.112308 0.0317299 -0.0643035 -0.10967 0.280166 -0.122532 0.0114925
1107455 0.0111894 -0.00690123 -0.211674 -0.0563564 0.0351056 -0.0910396 -0.343121 0.390511 0.0608398 0.0122711 -0.0350352 0.188924 0.0604557 -0.0352075 -0.115084 -0.0377078 0.152166 -0.161163 -0.023278 0.0104127 -0.0253757 -0.00282413 0.0129181 0.0231124 0.0181598 0.00215788 -0.291658 -0.408049 0.0348323 0.222692 0.0901584 -0.190251 0.0459208 0.15298 0.190371 0.0882222 -0.101508 -0.166153 0.0106526 0.323603 0.600402 -0.465255 -0.277521 -0.393918 0.111134 -0.163546 -0.156335 0.358596 -0.325595 0.032072
1111052 0.025133 -0.14297 -0.117256 -0.0207313 0.0127656 0.0302817 -0.211921 0.240914 0.029533 0.0121192 -0.00125804 0.0728026 0.0977274 -0.0286668 -0.0873768 -0.0373826 0.0978323 -0.112244 0.00867424 0.0124894 -0.00262185 -0.00543543 -0.0094363 0.00419571 0.0230721 -0.00934923 -0.204455 -0.287678 0.0471287 0.0898951 0.0881842 -0.139057 0.219907 0.619639 -0.0345563 0.00870209 -0.114801 -0.159471 -0.0296902 0.00462294 0.714293 -0.523506 -0.452145 -0.652375 0.171245 -0.259844 -0.154604 0.315297 -0.309708 0.0574154
1114125 0.0373945 -0.0438182 -0.150636 -0.0370711 0.015963 -0.043083 -0.221565 0.255335 0.0104112 0.0322916 -0.0437488 0.185588 0.0551203 -0.0183568 -0.0499792 -0.029304 0.0927201 -0.117234 -0.0123188 -0.00860976 -0.00540108 -0.00155094 0.0127563 0.0185615 0.0252193 0.0206277 -0.221047 -0.321834 0.0160658 0.145506 0.0720729 -0.153317 0.108713 0.292912 0.11897 0.0447331 -0.0769899 -0.133672 0.00508204 0.238589 0.445231 -0.336838 -0.194127 -0.262315 0.120765 -0.164113 -0.140738 0.27231 -0.206729 0.0234815
1117942 0.0410503 0.00137962 -0.100981 -0.0375482 0.0323657 -0.0569062 -0.220748 0.250755 0.016884 0.0433454 -0.027766 0.119942 0.00682813 0.00409852 -0.0670668 -0.0243164 0.160724 -0.190565 -0.0354763 0.0205758 0.00889459 -0.00157924 0.0220758 0.0390793 0.0504875 -0.00297238 -0.1001 -0.140217 0.0145641 0.0440033 0.0528655 -0.131985 0.172737 0.487247 -0.106888 -0.0412746 -0.0966261 -0.135667 -0.0153404 0.0694076 0.717997 -0.503386 -0.460731 -0.65645 0.23005 -0.332874 -0.14328 0.286789 -0.438995 0.0651522
1118245 0.093436 -0.157614 -0.0226664 -0.000856657 -0.0476292 0.126406 -0.0141557 0.0534844 0.0265563 0.069864 -0.0230282 0.209296 0.0588813 -0.00510967 -0.122652 -0.0555629 0.340818 -0.373129 -0.0109743 0.0960895 0.00345873 -0.0254826 0.0239423 0.0340306 0.087361 -0.0493414 -0.265103 -0.387158 0.0124557 0.239294 0.105229 -0.206285 0.0726826 0.200542 0.226501 0.100686 -0.0595555 -0.132017 0.0469446 0.149009 0.214898 -0.210359 0.026312 0.051953 0.0283261 -0.0314266 -0.0785693 0.164212 -0.127591 0.0313715
1118332 0.0466219 -0.0182489 -0.0196805 -0.0146389 -0.000987252 0.0187338 -0.12427 0.145203 0.0370979 0.0168843 -0.0129366 0.0456232 0.0131462 -0.0283375 -0.0372593 -0.0158276 0.0605226 -0.0735119 0.0166814 0.0094238 0.0151916 0.00117707 0.016415 0.00123306 -0.00981765 0.0190684 -0.0977187 -0.168056 0.0371883 -0.0525038 0.0154392 -0.0482535 0.175421 0.489773 -0.058365 -0.0257142 -0.0490119 -0.045352 -0.0337579 -0.0711047 0.672165 -0.459027 -0.426659 -0.612995 0.230087 -0.319347 -0.154524 0.320989 -0.413708 0.0632555
1120170 -0.0736851 0.150841 -0.116295 0.0091946 0.0167875 -0.104819 -0.338318 0.385452 -0.0261037 -0.00631654 -0.026552 0.173724 0.0522013 -0.016506 -0.184274 -0.0703309 0.287127 -0.342862 0.0209285 -0.0510764 -0.0400197 -0.00807926 0.0790547 0.105561 0.0267662 -0.0303677 -0.377478 -0.546666 0.0714488 0.250741 0.14964 -0.330616 0.248249 0.66721 0.134574 0.0634251 -0.0224535 -0.0231242 0.00170493 0.309373 0.862502 -0.613187 -0.51369 -0.736727 0.202284 -0.283125 -0.198113 0.369114 -0.448427 0.0592364
1126029 -0.0245177 -0.0212691 -0.0592484 -0.0144691 0.0185452 -0.0442768 -0.227946 0.25662 -0.00171457 0.00676023 -0.0326492 0.125656 0.0231544 -0.0206278 -0.0664778 -0.0220272 0.097695 -0.111516 0.00245899 -0.0136687 -0.0202158 -0.000893178 0.0129058 0.0042984 0.0123886 -0.00917297 -0.20475 -0.304588 0.0246225 0.148261 0.0906501 -0.16986 0.116851 0.301656 0.058191 0.0245502 -0.0605938 -0.0766104 -0.00915603 0.177465 0.521086 -0.395481 -0.164957 -0.220642 0.10267 -0.148418 -0.107532 0.224268 -0.261309 0.0456037
124064 0.102772 -0.102336 -0.126824 -0.0704242 -0.00839611 0.0371593 -0.327442 0.381478 0.0085145 -0.0177955 -0.0263187 0.0248465 0.0346463 -0.0142289 -0.0394857 0.00428971 0.0216522 -0.0161212 -0.0383716 0.0767309 -0.00603863 -0.00585704 -0.0141514 0.00412183 0.0388266 0.00713443 -0.291219 -0.42677 0.0456449 0.0717339 0.111482 -0.20378 0.255216 0.67213 -0.0115365 0.0163134 -0.0791275 -0.0858963 -0.0446706 0.102641 0.816572 -0.572478 -0.443321 -0.639831 0.208328 -0.281257 -0.163058 0.314081 -0.453184 0.0730201
128 0.0377065 -0.00772103 -0.0844716 -0.0216476 0.017863 -0.0173859 -0.204689 0.22165 0.00679188 0.0357434 -0.0343192 0.152105 0.0396448 -0.0239079 -0.0775527 -0.0174024 0.102462 -0.115735 0.0235635 -0.0163352 -0.0226563 -0.0229048 0.0103227 0.00443379 0.0208708 -0.0111974 -0.15216 -0.222559 0.0225968 0.106035 0.0597983 -0.149612 0.0947446 0.278794 0.104924 0.0491718 -0.0532281 -0.0665113 0.0018218 0.122535 0.419864 -0.304689 -0.171989 -0.259403 0.0823834 -0.13196 -0.0989052 0.188376 -0.1601 0.0151531
130 0.130218 -0.0370345 -0.051851 -0.0399193 -0.00422154 0.0059778 -0.393797 0.444674 -0.0487797 0.0196405 -0.0561244 0.212345 0.0459886 -0.0390316 -0.106301 -0.0378839 0.120583 -0.124393 0.0155982 0.00235272 -0.0113068 0.00385123 0.0268437 0.0672243 0.042342 -0.0505522 -0.199518 -0.265425 0.0646895 0.149616 0.0880526 -0.165202 0.127929 0.333321 0.209789 0.130988 -0.0814746 -0.121906 -0.0279775 0.192814 0.814644 -0.586023 -0.411978 -0.588796 0.227265 -0.299661 -0.135506 0.26683 -0.368381 0.0682394
136665 0.00397283 -0.054729 -0.166697 -0.0416992 0.0250126 -0.0529636 -0.207156 0.245454 0.0147257 0.0179201 -0.0329571 0.185816 0.0469738 -0.0168961 -0.089313 -0.0408586 0.127014 -0.144208 0.0139336 -0.00440336 -0.0119816 0.0148611 -0.00960683 0.00222828 0.00535407 -0.00628475 -0.149658 -0.21604 0.0276116 0.108363 0.0699991 -0.138242 0.111268 0.297207 0.103541 0.0474749 -0.0418024 -0.0892873 0.000412703 0.176359 0.44075 -0.31801 -0.188567 -0.274619 0.126586 -0.190423 -0.117676 0.251957 -0.313077 0.0428808
191404 0.0223877 -0.0356058 -0.181088 -0.039575 0.0143398 -0.102471 -0.176992 0.170857 0.0600454 0.0480344 -0.0222639 0.175619 0.0338057 -0.0272253 -0.0762511 -0.0220618 0.082662 -0.106036 -0.0139743 0.0204825 -0.0155256 0.000468196 2.04011e-05 -0.0250482 0.0444884 -0.00502791 -0.063318 -0.0970067 0.0178716 0.00988435 0.0507625 -0.129474 0.149956 0.41261 -0.0774184 -0.0423781 -0.0505692 -0.0508919 -0.0398597 -0.0519042 0.631883 -0.42964 -0.416603 -0.594069 0.192238 -0.262792 -0.207936 0.395867 -0.570246 0.0845776
193742 -0.011285 -0.0254907 -0.317862 -0.0980146 0.00375496 -0.135532 -0.250519 0.294999 0.0354225 0.0127094 -0.0100926 0.039598 0.0945828 -0.0509286 -0.0377486 -0.0257127 0.0867357 -0.111666 0.0273892 -0.101003 0.00854011 -0.0465823 0.00763139 -0.0373459 0.0634401 -0.0041888 -0.321307 -0.444465 0.0255239 0.356143 0.0973546 -0.224438 -0.0391266 -0.153611 0.222236 0.0848864 0.0395354 0.00174797 0.0402715 0.343708 -0.118595 0.03607 0.175137 0.265555 -0.113034 0.146765 -0.0462897 0.182244 -0.133002 -0.0146219
23258 -0.0131713 0.114404 -0.0640514 -0.0526931 0.0187786 -0.0826298 -0.292734 0.33304 0.0649301 0.0423368 -0.0357749 0.248598 0.0940471 -0.0129262 -0.0533649 -0.0324679 0.130597 -0.145652 0.00553735 -0.0117417 0.00327403 0.0128302 0.00194465 0.052354 0.0390889 -0.0262602 -0.123276 -0.213241 0.0486511 0.102576 0.09249 -0.178983 0.192036 0.539924 0.0246939 0.0185434 -0.105594 -0.165214 -0.0126907 0.170306 0.662619 -0.477587 -0.428196 -0.605743 0.239601 -0.352961 -0.235 0.463495 -0.498992 0.0570927
28227 0.0275421 0.021502 -0.045833 0.0161972 0.0125177 0.042393 -0.0411382 0.0710194 0.0153327 0.0356608 -0.00817924 0.00823738 0.0524615 -0.0294281 -0.0533304 -0.0208643 0.0299736 -0.0332415 -0.021577 0.0965206 0.00160315 0.0144191 0.0246715 0.00468045 -0.0456655 0.00013413 -0.0101893 -0.019064 0.0126111 -0.0459534 0.0187818 -0.0401471 0.181281 0.490455 -0.0842602 -0.0403481 -0.0531243 -0.0355367 -0.0369659 -0.16983 0.639346 -0.435411 -0.382229 -0.569986 0.175978 -0.230643 -0.120364 0.250052 -0.259491 0.0513051
28287 0.00472615 -0.0635413 -0.121057 -0.0369082 0.00650596 -0.0664125 -0.256605 0.244506 0.0294663 0.00970989 -0.0322501 0.1986 0.0115634 -0.0083295 -0.106663 -0.0267454 0.107057 -0.136234 0.00863111 0.00239358 -0.0116615 -0.00567242 0.0299197 0.0150699 0.00585257 -0.0081946 -0.195446 -0.265989 0.0085912 0.15387 0.105701 -0.19416 0.0827726 0.242334 0.138862 0.0670982 -0.0923592 -0.138473 -0.0101303 0.205058 0.53349 -0.386443 -0.11424 -0.15948 0.100389 -0.152288 -0.128519 0.245224 -0.306604 0.035532
28350 0.0910364 0.0108196 -0.0818271 -0.094216 0.0311216 -0.0026751 -0.146328 0.156705 -0.0307455 0.00134129 -0.0146216 0.230789 -0.0484132 0.0160458 -0.154022 -0.0356996 0.194615 -0.229359 -0.0738261 -0.0186914 0.00611984 -0.0276622 -0.0129739 -0.00428179 -0.0102282 0.0047308 -0.248758 -0.355746 0.0356147 0.219579 0.192766 -0.335858 0.210017 0.594581 0.0418912 0.0250706 -0.0844732 -0.140012 -0.000906869 0.101101 0.621099 -0.472551 -0.322465 -0.468364 0.25706 -0.374657 -0.163678 0.318791 -0.436859 0.0675069
28387 0.205546 0.149283 -0.0772653 -0.038646 0.00346544 0.188174 -0.187982 0.255066 0.0936 0.123981 -0.0477682 0.457045 0.202366 -0.066956 -0.0783032 -0.0291938 0.202283 -0.270342 0.0268339 -0.0701479 -0.00987411 0.0567747 -0.0448652 0.00217076 0.057326 -0.0203928 -0.539831 -0.800046 0.0746943 0.549182 0.202748 -0.449396 0.0262503 0.0537542 0.278149 0.108148 0.0660894 0.129946 -0.026708 0.0559838 0.368204 -0.272673 -0.0357142 -0.118251 0.232435 -0.316641 -0.0756649 0.118845 -0.265901 0.0499473
28471 0.204289 0.0991024 -0.0673779 -0.0653792 0.0163562 0.102953 -0.274718 0.294174 0.124447 0.110399 -0.058391 0.302017 0.144091 -0.0518794 -0.0645969 -0.0360695 0.134341 -0.171624 0.0245004 -0.0303607 0.0255773 0.0504843 -0.0593636 -0.0247194 0.0246297 -0.0402695 -0.53067 -0.784597 0.054451 0.321604 0.177116 -0.403988 0.0873103 0.203453 0.115904 0.0578625 0.0788228 0.181765 -0.0648609 -0.0902468 0.530323 -0.359496 -0.192519 -0.324316 0.30771 -0.45356 -0.0965831 0.195153 -0.28723 0.0491003
28485 0.0870015 -0.00790907 -0.130129 -0.0674902 0.0252074 -0.0560144 -0.350285 0.354706 0.0402069 0.038942 -0.0201949 0.209841 0.0372151 -0.0122491 -0.0817398 -0.034159 0.132273 -0.158558 -0.0148715 0.029333 -0.015673 0.00166364 -0.00581934 0.00652669 0.00264292 0.0079085 -0.232946 -0.336391 0.0246437 0.1313 0.0799447 -0.170426 0.136582 0.364595 0.0955898 0.0390391 -0.0472539 -0.0858516 -0.0126595 0.219127 0.501596 -0.361661 -0.24369 -0.344268 0.125169 -0.169201 -0.125789 0.277857 -0.289714 0.038218
