2708 50
1033 -0.0027205775443395965 0.0006576873058900146 0.0006332656648840168 0.00286580448178059 0.004780243700656889 0.005234516342775461 0.00509775052898574 -0.0014166217121391498 -0.001559867026141275 0.001171123092251642 -0.0008653944741781176 0.001126327204080046 0.0015178654905757115 -0.0029839987877541916 -0.0032804097870788784 -0.0032804097870788784 -0.004930933433222989 0.006736427666632735 -0.007285176949037351 0.004810550053817303 -0.003424927284220425 -0.003424927284220425 -0.003248597898475648 0.0002416557384430704 0.0011835914622374854 -0.0007418066808392001 -0.008627246542475472 0.0008954236674176444 -0.0039303378424480106 -0.0039303378424480106 4.5553488379025306e-05 -0.002455898601819394 -0.002247194105640179 4.92392359946339e-05 -0.002132981942310928 0.00796277020193632 -0.0035430692260478855 0.014845767200371455 0.003960479890576393 -0.010698506157754983 0.010436877450541126 -0.008982345533505144 -0.031234186662662797 -0.014221036609092602 0.010160550264510916 -0.00016580667394805253 0.00036177491625378257 0.0005775687527949033 0.005608391467893914 -0.009109234974302648
35 -0.015769965664899084 0.0038123178123357763 0.003670756532104168 0.016611780970560285 0.027708924961926985 0.030342139362897827 0.02954936938944744 -0.008211519574976033 -0.009041848299908783 0.006788474378392527 -0.0050163029437542105 0.006528812741522606 0.008798384269588733 -0.017296900257407304 -0.019015061642578778 -0.019015061642578778 -0.028582405636486122 0.039048044496251405 -0.0422288975324618 0.027884597274507348 -0.019852764641576655 -0.019852764641576655 -0.018830662417475996 0.0014007697394628823 0.0068607479171426886 -0.004299920033952404 -0.05000827197170867 0.005190368684801452 -0.022782402565887712 -0.022782402565887712 0.0002640531048812957 -0.014235740755761828 -0.013025974562659387 0.0002854177277974134 -0.01228007159189938 0.045520502924765956 -0.0198609673756204 0.08470996980536344 0.0250355145462502 -0.058465886021026016 0.05646687275268913 -0.04824065109801887 -0.16282539943430702 -0.07857190664171874 0.05282728133076281 -0.0006295021395782291 0.005953001778481485 0.005078512470054911 0.025027482343383572 -0.04584717974270059
103482 -0.002980243380953544 0.0007204603464416373 0.0006937077791009949 0.0031393315201412872 0.005236494610443512 0.005734125357135143 0.005584305914518788 -0.0015518313343803164 -0.0017087487138522175 0.0012829010704828994 -0.00094799214929532 0.0012338296336127203 0.0016627383368939493 -0.0032688068952421217 -0.0035935088764876407 -0.0035935088764876407 -0.005401566941865196 0.007379386780033242 -0.007980511500808743 0.005269693556966856 -0.0037518198627648964 -0.0037518198627648964 -0.0035586606985179795 0.0002647205981917252 0.0012965594854759336 -0.0008126085048073574 -0.00945067508094458 0.0009808874823372636 -0.004305469389849889 -0.004305469389849889 4.990134631649326e-05 -0.0026903021263236784 -0.002461677805503537 5.393888053732349e-05 -0.0018718758607291644 0.006193697213281934 -0.0029564759495178234 -0.0009522250085472128 -0.002893965551676093 -0.005821747466525946 0.004993059129147739 -0.00359974835032947 -0.013598709033028 -0.003963088756953765 0.002028311103216144 -0.00011527614680959002 -0.003463376905915713 -0.00228813939380296 0.005700480766827834 0.0031749022074430366
103515 -0.004035268613671576 0.0009755079205848061 0.0009392847731685216 0.00425067497241862 0.007090247220151997 0.007764042436393734 0.007561185952130988 -0.0021011895596706252 -0.0023136566958679387 0.0017370562609919367 -0.0012835874380281275 0.0016706132213746843 0.002251358350964373 -0.004425985459047496 -0.004865634019997619 -0.004865634019997619 -0.00731375621348749 0.009991736933942208 -0.010805663653534942 0.007135198806243548 -0.005079988108729638 -0.005079988108729638 -0.004818449363971473 0.0003584333843678752 0.001755549842317022 -0.001100277116831418 -0.012796274551221577 0.0013281279295225107 -0.005829633112187542 -0.005829633112187542 6.756674231965932e-05 -0.0036426862990546773 -0.0033331275052917806 7.303358949782389e-05 -0.003229016347405849 0.01223694326854213 -0.005429577639159504 0.02456061647802233 0.007060278799803521 -0.017354772858284104 0.016942702055808195 -0.014661675276645273 -0.05084367712950267 -0.024004807531931988 0.01654531547355204 -0.0002546737925620406 0.0008323251130046257 0.0008561343229036949 0.0139055110412986 -0.01608291915497914
1050679 -0.0024333585308810675 0.0005882534095635631 0.0005664100297989036 0.002563253452593981 0.004275579945473597 0.00468189374871182 0.004559566686059066 -0.0012670649786980946 -0.0013951874825249904 0.0010474843377178279 -0.0007740323486459788 0.0010074176772920944 0.0013576201670513505 -0.0026689696536781344 -0.002934087711185595 -0.002934087711185595 -0.004410360939685185 0.006025244075240413 -0.006516060354464763 0.004302686771800288 -0.0030633480902042378 -0.0030633480902042378 -0.0029056342930218093 0.00021614346332468463 0.0010586363868605652 -0.0006634920658079527 -0.007716443891050075 0.0008008912756031856 -0.0035154010361014383 -0.0035154010361014383 4.074427865108116e-05 -0.0021966224878059086 -0.0020099515115393194 4.4040911537758915e-05 -0.0012725888879499974 0.004602842988629204 -0.0022208033742945263 0.001750211983515128 -0.0024955715812498168 -0.003100586782190554 0.004516298899612127 -0.002323668515951033 -0.012195846209746425 -0.0019119259914183646 0.002311038011504517 -8.984989111199328e-05 -0.003184246272876074 -0.0021660525708858598 0.004774695147864796 0.0027692022577681104
1103960 -0.002720577544339558 0.0006576873058900599 0.0006332656648840058 0.0028658044817805794 0.004780243700656911 0.005234516342775476 0.005097750528985749 -0.0014166217121391001 -0.0015598670261413206 0.001171123092251683 -0.0008653944741781278 0.0011263272040800598 0.0015178654905756846 -0.002983998787754158 -0.003280409787078874 -0.003280409787078874 -0.00493093343322299 0.006736427666632701 -0.007285176949037329 0.004810550053817296 -0.003424927284220415 -0.003424927284220415 -0.003248597898475648 0.0002416557384431162 0.0011835914622375264 -0.0007418066808391926 -0.008627246542475465 0.0008954236674176362 -0.00393033784244799 -0.00393033784244799 4.5553488378999394e-05 -0.0024558986018193723 -0.0022471941056402 4.923923599466912e-05 -0.0017178329498441982 0.006897113630823902 -0.003068819799432553 0.010474000089858108 0.0017728634845133907 -0.0080467810868271 0.00828130288893646 -0.00631500796819806 -0.02479609513689357 -0.008915709010851609 0.007734093308958696 -9.713122089582846e-05 -0.0010778004363751724 -0.0007082145669968213 0.005935422698398547 -0.005059593668476533
1103985 -0.0017206443182441636 0.00041595797495850044 0.0004005123730028759 0.0018124938982290474 0.003023291572949576 0.0033105988185090163 0.003224100522984617 -0.0008959502386414112 -0.0009865465299199996 0.0007406832783869603 -0.0005473235225853215 0.0007123518711004603 0.000959982426397597 -0.0018872465408969038 -0.0020747133171754454 -0.0020747133171754454 -0.0031185961279316743 0.004260490943906559 -0.004607550463262866 0.0030424589936616547 -0.0021661142077182877 -0.0021661142077182877 -0.0020545937122439083 0.0001528365086260124 0.0007485689679599312 -0.00046915973899627506 -0.005456349802006992 0.0005663156519721637 -0.0024857639112175383 -0.0024857639112175383 2.881055572873033e-05 -0.0015532466568344298 -0.001421250343665615 3.1141627197951174e-05 -0.0013657631968734814 0.005104351629171076 -0.0022344028768671175 0.00988801906239097 0.002965287592753223 -0.006861447118990513 0.006629029029272219 -0.005709010952735558 -0.01936653015511144 -0.009366475079087043 0.006339980828601995 -7.404984338688425e-05 0.0008231298082593125 0.0006754508703906816 0.003482367602185174 -0.006205928690075136
1109199 -0.0021073503042585958 0.0005094423965448684 0.0004905254747641952 0.0022198426062845543 0.003702760848691391 0.004054638924203963 0.0039487005803763445 -0.0010973104597981223 -0.0012082678029086814 0.0009071480465299427 -0.0006703316772783473 0.0008724493007564952 0.001175733553356521 -0.0023113955220150123 -0.0025409944948184575 -0.0025409944948184575 -0.0038194846136259722 0.005218014433159889 -0.005643073799559163 0.0037262360489063334 -0.002652937266751427 -0.002652937266751427 -0.0025163531118641246 0.00018718573010110685 0.0009168060043917939 -0.0005746009841991218 -0.006682636436526579 0.0006935921903417008 -0.0030444266017539737 -0.0030444266017539737 3.5285580370731534e-05 -0.0019023308769640956 -0.0017406690693679884 3.81405481975149e-05 -0.0016010681533669363 0.005332499495961861 -0.002086705943553945 0.008059739120877098 0.0022441110323595547 -0.005320072596644978 0.0050195069126371065 -0.0040445590252050885 -0.01401677032189479 -0.006124871267693225 0.0030236554283424705 -7.753577771515634e-05 -0.0011020712617478123 -0.0007287369952416537 0.002768524194175502 -0.00504450545468662
1112911 -0.002433358530881096 0.0005882534095635459 0.0005664100297989755 0.002563253452593977 0.004275579945473595 0.004681893748711817 0.0045595666860590595 -0.0012670649786980998 -0.0013951874825249807 0.001047484337717805 -0.0007740323486460044 0.0010074176772921237 0.0013576201670513308 -0.002668969653678116 -0.002934087711185601 -0.002934087711185601 -0.004410360939685229 0.006025244075240424 -0.006516060354464823 0.00430268677180031 -0.003063348090204243 -0.003063348090204243 -0.002905634293021809 0.0002161434633246487 0.0010586363868605488 -0.0006634920658079308 -0.007716443891050027 0.0008008912756031979 -0.0035154010361014283 -0.0035154010361014283 4.07442786510817e-05 -0.0021966224878059407 -0.002009951511539335 4.404091153771239e-05 -0.0019322486272448864 0.006899973692490213 -0.0029776576664653684 0.012612365174852215 0.0038786127137490777 -0.00854367710113649 0.008161316637978467 -0.006896070395833205 -0.021937584179758687 -0.011414423279474995 0.007923477209617747 -0.00013373599629789022 0.00014565034907803654 0.00037088311580409924 0.0029486788873734774 -0.007221264437874202
1113438 -0.0027205775443395956 0.000657687305890063 0.0006332656648840443 0.0028658044817805885 0.004780243700656895 0.005234516342775471 0.0050977505289857466 -0.001416621712139161 -0.0015598670261412967 0.0011711230922516595 -0.0008653944741781195 0.001126327204080049 0.0015178654905757232 -0.0029839987877541847 -0.0032804097870788905 -0.0032804097870788905 -0.004930933433223004 0.006736427666632722 -0.007285176949037348 0.004810550053817314 -0.0034249272842204453 -0.0034249272842204453 -0.003248597898475666 0.00024165573844307913 0.0011835914622374956 -0.0007418066808391812 -0.008627246542475493 0.0008954236674176449 -0.003930337842447987 -0.003930337842447987 4.555348837901425e-05 -0.0024558986018193975 -0.002247194105640189 4.923923599465211e-05 -0.0020977620910030735 0.007815207814813756 -0.003522504890954441 0.013971976108327108 0.003451496594491366 -0.01046295627201704 0.010399728748782644 -0.008818658479502112 -0.030487705237049127 -0.013856920493296673 0.010061191326221311 -0.0001870274818193244 -5.435057405075066e-07 0.00034977784076479774 0.006986145050788198 -0.008877221374499457
1113831 -0.0021073503042586565 0.0005094423965448678 0.0004905254747641363 0.002219842606284573 0.0037027608486913835 0.004054638924203957 0.0039487005803763514 -0.0010973104597980432 -0.001208267802908645 0.0009071480465299143 -0.000670331677278352 0.0008724493007564913 0.0011757335533565168 -0.0023113955220149993 -0.002540994494818459 -0.002540994494818459 -0.003819484613625994 0.005218014433159873 -0.005643073799559141 0.0037262360489063165 -0.0026529372667514284 -0.0026529372667514284 -0.0025163531118641393 0.00018718573010110666 0.0009168060043918214 -0.0005746009841991547 -0.006682636436526621 0.000693592190341704 -0.0030444266017539867 -0.0030444266017539867 3.528558037066041e-05 -0.0019023308769641671 -0.0017406690693680023 3.8140548197500195e-05 -0.0016835079105600816 0.006287764644951694 -0.0027595680166401593 0.012289479330626782 0.003613131871927231 -0.008562686923743418 0.008283736660400855 -0.0071528083082895615 -0.024321882147508384 -0.011726267558751106 0.007958699355885808 -0.00010986099542335451 0.000730222902069727 0.0006709076811679877 0.004772044449068569 -0.00818079955515792
1114331 -0.002720577544339555 0.0006576873058900697 0.0006332656648840273 0.0028658044817806098 0.004780243700656911 0.005234516342775486 0.0050977505289857596 -0.0014166217121391604 -0.0015598670261413358 0.0011711230922516577 -0.0008653944741781319 0.0011263272040800728 0.0015178654905756742 -0.0029839987877541938 -0.0032804097870788563 -0.0032804097870788563 -0.00493093343322294 0.006736427666632697 -0.007285176949037244 0.00481055005381727 -0.003424927284220406 -0.003424927284220406 -0.003248597898475642 0.00024165573844305442 0.0011835914622375316 -0.0007418066808391387 -0.008627246542475367 0.0008954236674176358 -0.00393033784244798 -0.00393033784244798 4.555348837902596e-05 -0.002455898601819321 -0.002247194105640183 4.9239235994812824e-05 -0.0021768193912918414 0.008185250781314548 -0.003597638994266954 0.016197975185143695 0.004791458276392375 -0.011207438147174316 0.010823505334565093 -0.009424903860647874 -0.03208832192269209 -0.015477217082558113 0.010432540696610093 -0.0001114902327725049 0.0016640760071671681 0.0012924924872299627 0.006366754406333833 -0.010746629705163595
1117476 -0.002107350304258598 0.0005094423965448641 0.0004905254747641647 0.0022198426062845626 0.0037027608486913965 0.004054638924203972 0.003948700580376355 -0.0010973104597981108 -0.0012082678029086604 0.0009071480465299253 -0.0006703316772783438 0.0008724493007564989 0.0011757335533565199 -0.002311395522015009 -0.0025409944948184605 -0.0025409944948184605 -0.003819484613625999 0.005218014433159894 -0.005643073799559164 0.003726236048906332 -0.0026529372667514336 -0.0026529372667514336 -0.0025163531118641436 0.00018718573010110954 0.0009168060043918013 -0.0005746009841991194 -0.006682636436526564 0.0006935921903417132 -0.003044426601753985 -0.003044426601753985 3.5285580370706055e-05 -0.0019023308769641235 -0.001740669069367977 3.8140548197490803e-05 -0.00166519489761378 0.006219663476614772 -0.0027240363440576877 0.012007535024869002 0.003644635469965003 -0.008276050841469604 0.007984471116869153 -0.0068327928173054255 -0.0225056279738503 -0.011321862667428293 0.007926385587426584 -0.00011207217791763233 0.0005340631940037773 0.00053029734054815 0.004965092990583603 -0.007544398578436991
1119505 -0.0017206443182441336 0.0004159579749584924 0.0004005123730028107 0.0018124938982290407 0.003023291572949587 0.003310598818509027 0.003224100522984624 -0.0008959502386414382 -0.0009865465299199972 0.0007406832783869558 -0.0005473235225853117 0.0007123518711005003 0.000959982426397574 -0.0018872465408968976 -0.0020747133171754428 -0.0020747133171754428 -0.003118596127931669 0.004260490943906554 -0.004607550463262852 0.0030424589936616686 -0.0021661142077183033 -0.0021661142077183033 -0.002054593712243909 0.0001528365086260211 0.0007485689679599325 -0.00046915973899635036 -0.005456349802007006 0.0005663156519721718 -0.00248576391121754 -0.00248576391121754 2.881055572867726e-05 -0.0015532466568344671 -0.0014212503436656135 3.114162719797202e-05 -0.0013594071503087077 0.00508028902664043 -0.002224749802675508 0.00975815397358528 0.002886750940925647 -0.006782296422661467 0.006555004453913706 -0.005633173792193163 -0.019081833815328488 -0.009230461611288073 0.006255805245912014 -7.63145710937686e-05 0.0007283664900233075 0.0006231600490294963 0.0030903882521711237 -0.005689171708909426
1119708 -0.00272057754433955 0.0006576873058900758 0.0006332656648840246 0.002865804481780574 0.004780243700656908 0.005234516342775482 0.005097750528985756 -0.0014166217121391862 -0.00155986702614131 0.0011711230922516651 -0.0008653944741781155 0.0011263272040800663 0.0015178654905757 -0.00298399878775418 -0.0032804097870788875 -0.0032804097870788875 -0.004930933433223009 0.0067364276666327235 -0.0072851769490373235 0.004810550053817319 -0.003424927284220448 -0.003424927284220448 -0.0032485978984756456 0.00024165573844307304 0.0011835914622375118 -0.0007418066808392019 -0.008627246542475453 0.0008954236674176398 -0.003930337842447986 -0.003930337842447986 4.555348837899365e-05 -0.002455898601819383 -0.0022471941056402297 4.923923599465956e-05 -0.0021393172154071756 0.008055636570727585 -0.0035614660580660235 0.01552456681104274 0.004417689199774858 -0.010864588828412756 0.010547607498170432 -0.009148831324733223 -0.03139220381160883 -0.01486343011206002 0.010154420665528236 -0.00013274895890869143 0.0009128408565817319 0.0007729134383208841 0.007630888594315034 -0.009208294505749857
1120431 -0.002433358530881146 0.0005882534095635881 0.0005664100297988796 0.002563253452593972 0.004275579945473587 0.004681893748711815 0.004559566686059062 -0.0012670649786980762 -0.001395187482524846 0.0010474843377177398 -0.0007740323486459985 0.0010074176772921337 0.0013576201670513093 -0.002668969653678097 -0.002934087711185599 -0.002934087711185599 -0.00441036093968521 0.006025244075240451 -0.006516060354464801 0.004302686771800298 -0.0030633480902042434 -0.0030633480902042434 -0.0029056342930218067 0.00021614346332463486 0.0010586363868605715 -0.0006634920658079999 -0.0077164438910500115 0.000800891275603204 -0.0035154010361014157 -0.0035154010361014157 4.074427865104267e-05 -0.0021966224878058205 -0.0020099515115393767 4.4040911537648685e-05 -0.0019755600420206312 0.0070532258749867625 -0.003023220969193611 0.013930464326208567 0.004837640514945093 -0.009553523105877228 0.009128678124644761 -0.008030998122907269 -0.02849069594310084 -0.013784999795493942 0.008163254754185834 6.380750946461448e-05 0.013447641026956213 0.012861188407653087 -0.12040672479586172 0.05351367181100221
1123756 -0.0024333585308811806 0.0005882534095636456 0.0005664100297988852 0.002563253452593971 0.004275579945473598 0.00468189374871182 0.0045595666860590595 -0.0012670649786981365 -0.0013951874825250043 0.001047484337717809 -0.0007740323486460035 0.0010074176772921107 0.0013576201670513115 -0.002668969653678075 -0.002934087711185603 -0.002934087711185603 -0.004410360939685243 0.006025244075240412 -0.0065160603544648695 0.004302686771800322 -0.003063348090204229 -0.003063348090204229 -0.002905634293021834 0.00021614346332461673 0.0010586363868604928 -0.000663492065807933 -0.007716443891049953 0.000800891275603186 -0.0035154010361014222 -0.0035154010361014222 4.074427865104397e-05 -0.002196622487805966 -0.0020099515115393793 4.404091153774446e-05 -0.001957183481847971 0.006313495287372063 -0.0022318059195780143 0.0114444354081546 0.0035248108118666145 -0.006735886206604919 0.006455822768768394 -0.004800173489779434 -0.016873560393364483 -0.008473925633965793 0.003569675187513901 -0.00016611582957426303 -0.003321937132710843 -0.0021623776343032406 0.0015915454021016876 -0.010952404515902174
1125386 -0.002433358530881112 0.0005882534095635714 0.0005664100297988827 0.002563253452593995 0.004275579945473584 0.0046818937487118064 0.004559566686059046 -0.0012670649786981028 -0.001395187482525002 0.0010474843377178051 -0.0007740323486459875 0.00100741767729212 0.0013576201670513271 -0.0026689696536781322 -0.00293408771118558 -0.00293408771118558 -0.004410360939685179 0.006025244075240384 -0.006516060354464767 0.004302686771800316 -0.0030633480902042508 -0.0030633480902042508 -0.002905634293021805 0.0002161434633246336 0.0010586363868605702 -0.0006634920658079437 -0.0077164438910499915 0.0008008912756031918 -0.0035154010361014214 -0.0035154010361014214 4.074427865112919e-05 -0.0021966224878058925 -0.002009951511539302 4.404091153772945e-05 -0.0019709601944880623 0.006197131169555017 -0.002376098819453894 0.010793993694575003 0.005355774402219444 -0.0043860420708036855 0.0033374527952708634 -0.0023120976956850776 0.0032528390268350043 -0.006044722193957289 0.004285880386594235 0.00015402474041507008 0.003910905060705091 0.002286182070135645 0.00023560419282279293 -0.0033901885260772167
1127430 -0.0017206443182441475 0.0004159579749584903 0.00040051237300287116 0.001812493898229029 0.0030232915729495793 0.0033105988185090215 0.003224100522984621 -0.0008959502386414253 -0.0009865465299199914 0.0007406832783869603 -0.0005473235225853241 0.0007123518711004631 0.0009599824263976032 -0.0018872465408969101 -0.002074713317175449 -0.002074713317175449 -0.0031185961279316865 0.004260490943906575 -0.004607550463262873 0.0030424589936616495 -0.0021661142077182846 -0.0021661142077182846 -0.002054593712243904 0.00015283650862601755 0.0007485689679599338 -0.0004691597389962847 -0.005456349802006982 0.0005663156519721647 -0.0024857639112175413 -0.0024857639112175413 2.8810555728733475e-05 -0.0015532466568344478 -0.0014212503436656072 3.114162719796062e-05 -0.0013584459644555835 0.005089684559559214 -0.0022375119340211544 0.009814538237957488 0.002851378322678223 -0.00682771816269112 0.006617451849930604 -0.005717922722481274 -0.019494815747327313 -0.009331722386084946 0.006354239969124006 -7.808272330755043e-05 0.0007444680325195758 0.0006303627060041449 0.00361912382880286 -0.0060583153435511865
1127913 -0.0024333585308810883 0.0005882534095635574 0.0005664100297989148 0.002563253452593984 0.004275579945473599 0.004681893748711827 0.0045595666860590725 -0.0012670649786981152 -0.0013951874825249727 0.0010474843377177943 -0.0007740323486459808 0.0010074176772921376 0.0013576201670513059 -0.002668969653678101 -0.0029340877111855915 -0.0029340877111855915 -0.004410360939685188 0.006025244075240426 -0.006516060354464779 0.004302686771800302 -0.0030633480902042534 -0.0030633480902042534 -0.002905634293021804 0.00021614346332464305 0.0010586363868605759 -0.0006634920658079584 -0.007716443891050033 0.0008008912756032031 -0.0035154010361014222 -0.0035154010361014222 4.074427865109276e-05 -0.0021966224878059546 -0.002009951511539332 4.4040911537681496e-05 -0.0019351866317533692 0.007270500249912763 -0.0032007301088294317 0.014274503233862227 0.004200812378378204 -0.009862434550458807 0.00953329258834676 -0.008315652586462977 -0.02837701646502176 -0.013618091198424399 0.009204401898690961 -0.00011173491150951844 0.0011268395454659141 0.0009101510834647894 0.006301563224329028 -0.008997907837193253
1128204 -0.0017206443182441451 0.00041595797495849296 0.00040051237300288157 0.001812493898229032 0.0030232915729495715 0.0033105988185090115 0.0032241005229846167 -0.000895950238641371 -0.000986546529919992 0.0007406832783869643 -0.0005473235225853147 0.0007123518711004666 0.0009599824263975915 -0.0018872465408968893 -0.0020747133171754553 -0.0020747133171754553 -0.003118596127931683 0.004260490943906583 -0.0046075504632628736 0.0030424589936616547 -0.0021661142077182886 -0.0021661142077182886 -0.0020545937122438958 0.00015283650862601346 0.0007485689679599362 -0.0004691597389963011 -0.0054563498020069766 0.0005663156519721655 -0.002485763911217536 -0.002485763911217536 2.8810555728738625e-05 -0.0015532466568344307 -0.0014212503436656274 3.1141627197946274e-05 -0.0013496158249299507 0.00507863771089456 -0.002225518772694259 0.00975743876776172 0.002857078244409638 -0.006825590723515979 0.006620951780352425 -0.005664865403351607 -0.01944299190125687 -0.00922058794911675 0.006321041472629478 -7.271358695541234e-05 0.0007265977169082068 0.0005961278998154834 0.0036213029296483183 -0.006179279146638098
1128227 -0.002433358530881131 0.0005882534095635658 0.0005664100297989012 0.0025632534525939885 0.004275579945473585 0.004681893748711811 0.004559566686059053 -0.0012670649786981475 -0.0013951874825249594 0.001047484337717804 -0.0007740323486460031 0.001007417677292123 0.001357620167051314 -0.0026689696536781084 -0.002934087711185589 -0.002934087711185589 -0.004410360939685214 0.006025244075240399 -0.006516060354464802 0.004302686771800315 -0.003063348090204246 -0.003063348090204246 -0.0029056342930218193 0.00021614346332466465 0.0010586363868605544 -0.0006634920658079642 -0.0077164438910500175 0.0008008912756031907 -0.0035154010361014417 -0.0035154010361014417 4.074427865103465e-05 -0.0021966224878059467 -0.00200995151153934 4.404091153763567e-05 -0.0019523106543563266 0.007350220188163744 -0.0032270859024620784 0.014628891334259379 0.00434181315150114 -0.010229683160205326 0.00990033406212021 -0.008574026132368538 -0.02927072188843804 -0.014128097737952702 0.009633629510479622 -0.00012154486476411646 0.0011298219365290226 0.0009589865486779412 0.005678681496187887 -0.00997395764310303
1128314 -0.002107350304258632 0.0005094423965448581 0.0004905254747641422 0.0022198426062845504 0.003702760848691393 0.004054638924203967 0.0039487005803763514 -0.0010973104597980902 -0.0012082678029086858 0.0009071480465299314 -0.0006703316772783424 0.0008724493007565136 0.0011757335533564874 -0.00231139552201498 -0.002540994494818454 -0.002540994494818454 -0.0038194846136259523 0.005218014433159889 -0.005643073799559127 0.0037262360489063126 -0.002652937266751431 -0.002652937266751431 -0.002516353111864128 0.00018718573010107262 0.0009168060043918329 -0.0005746009841990957 -0.006682636436526569 0.0006935921903417087 -0.0030444266017539937 -0.0030444266017539937 3.5285580370697815e-05 -0.0019023308769641177 -0.0017406690693680023 3.814054819743917e-05 -0.001679737247673496 0.006331049983882002 -0.00279306092230557 0.012513181482029987 0.003646782127274014 -0.008785603998648204 0.00853840776928666 -0.007373632137640724 -0.025317237198148865 -0.012090938516573073 0.00828315678264303 -0.00011628955928646137 0.00066276662806371 0.0006076178536673946 0.00574766773189364 -0.007896167709040764
1128453 -0.002433358530881074 0.0005882534095635176 0.0005664100297988921 0.002563253452593995 0.004275579945473587 0.004681893748711819 0.004559566686059057 -0.0012670649786981423 -0.0013951874825249102 0.0010474843377177682 -0.0007740323486459895 0.0010074176772921035 0.001357620167051289 -0.0026689696536781075 -0.0029340877111854865 -0.0029340877111854865 -0.004410360939685182 0.006025244075240418 -0.006516060354464696 0.004302686771800272 -0.003063348090204223 -0.003063348090204223 -0.0029056342930217803 0.00021614346332466698 0.0010586363868606472 -0.0006634920658079603 -0.0077164438910500375 0.0008008912756031591 -0.0035154010361014257 -0.0035154010361014257 4.0744278651030095e-05 -0.0021966224878059866 -0.0020099515115393346 4.4040911537951984e-05 -0.001929564007322767 0.007228104695208762 -0.0031596572706001167 0.013909042794317398 0.004158589570635005 -0.009600055495748635 0.009279316550126367 -0.007982446141228526 -0.027694568214563654 -0.012903051712616295 0.008454296810521579 -6.270767021038405e-05 0.001635438596402549 0.001150461378593183 0.0052826108783550684 -0.008963907296286218
1128945 -0.001216679265440545 0.00029412670478178103 0.0002832050148994519 0.0012816267262969932 0.0021377899727367936 0.0023409468743559045 0.002279783343029525 -0.0006335324893490549 -0.0006975937412624701 0.0005237421688588907 -0.000387016174322998 0.0005037088386460687 0.0006788100835256512 -0.0013344848268390516 -0.0014670438555927936 -0.0014670438555927936 -0.002205180469842596 0.003012622037620209 -0.0032580301772323923 0.00215134338590015 -0.001531674045102121 -0.001531674045102121 -0.0014528171465109023 0.00010807173166232396 0.0005293181934302847 -0.00033174603290398363 -0.00385822194552502 0.0004004456378015999 -0.00175770051805071 -0.00175770051805071 2.0372139325540092e-05 -0.001098311243902962 -0.0010049757557696595 2.202045576884303e-05 -0.0009519823804899736 0.0035382893469906394 -0.0015456399465110422 0.0066519690268100635 0.0019665519049774168 -0.004601303379249586 0.004444964416777893 -0.0038044606529036395 -0.01285553036602582 -0.006208198971564516 0.00418441645045344 -5.0222153837474526e-05 0.00047625886639876325 0.0004066480550939863 0.0020077821205132496 -0.0036834001917192493
1128959 -0.0017206443182441347 0.0004159579749585065 0.00040051237300289734 0.0018124938982290164 0.0030232915729495892 0.0033105988185090285 0.003224100522984627 -0.0008959502386413978 -0.0009865465299200068 0.0007406832783869541 -0.0005473235225853219 0.000712351871100474 0.0009599824263975804 -0.0018872465408968971 -0.0020747133171754506 -0.0020747133171754506 -0.0031185961279316596 0.004260490943906561 -0.004607550463262847 0.0030424589936616487 -0.0021661142077182773 -0.0021661142077182773 -0.0020545937122438867 0.0001528365086260232 0.0007485689679599174 -0.0004691597389962487 -0.005456349802006973 0.0005663156519721605 -0.002485763911217531 -0.002485763911217531 2.881055572874345e-05 -0.0015532466568344355 -0.0014212503436656157 3.11416271979657e-05 -0.0013563229014760736 0.0048252069308088235 -0.002035549814528259 0.00831081189104259 0.0026475384318136275 -0.005653212912908123 0.0053611733847414075 -0.0045094595923646915 -0.015086799115187163 -0.00719042978138269 0.0042142725844551586 -4.751814790536795e-05 0.0002232007514363094 0.00015460911400527145 0.0027629052483432374 -0.005287860111436633
1128985 -0.002433358530881143 0.0005882534095635937 0.0005664100297988848 0.0025632534525939677 0.004275579945473616 0.004681893748711845 0.004559566686059086 -0.0012670649786981163 -0.0013951874825249685 0.0010474843377177897 -0.0007740323486459468 0.0010074176772921425 0.0013576201670512963 -0.002668969653678109 -0.0029340877111855785 -0.0029340877111855785 -0.004410360939685179 0.006025244075240416 -0.006516060354464772 0.0043026867718003155 -0.003063348090204258 -0.003063348090204258 -0.002905634293021811 0.0002161434633246204 0.0010586363868605687 -0.0006634920658079422 -0.00771644389105005 0.0008008912756032035 -0.003515401036101423 -0.003515401036101423 4.074427865105601e-05 -0.0021966224878059836 -0.0020099515115392934 4.404091153767108e-05 -0.0019330025319600319 0.0070995225883368025 -0.0030780233649845266 0.013417908678978796 0.004068235165598917 -0.009161950903575938 0.00879036064624898 -0.007529847120240308 -0.025166920260481628 -0.012338450195177179 0.00810464058579901 -0.00010398133068734382 0.0008552389286737387 0.0007579842175160805 0.003726416785871431 -0.00816806416250826
1129018 -0.0017206443182441742 0.0004159579749585049 0.00040051237300286455 0.0018124938982290438 0.0030232915729495762 0.0033105988185090206 0.0032241005229846215 -0.0008959502386414445 -0.000986546529919984 0.0007406832783869431 -0.0005473235225853188 0.0007123518711004732 0.000959982426397592 -0.001887246540896891 -0.0020747133171754497 -0.0020747133171754497 -0.0031185961279316765 0.00426049094390658 -0.00460755046326288 0.0030424589936616482 -0.0021661142077182907 -0.0021661142077182907 -0.0020545937122439135 0.00015283650862598063 0.0007485689679599215 -0.0004691597389962723 -0.005456349802006984 0.0005663156519721709 -0.002485763911217524 -0.002485763911217524 2.8810555728737215e-05 -0.0015532466568344426 -0.0014212503436656105 3.114162719793472e-05 -0.0013344923565630656 0.004948404072644842 -0.0022023063316376247 0.009208274872388036 0.0024833127816067924 -0.00651948543785615 0.006409297677401378 -0.005440677053092145 -0.01891250984255249 -0.008663253721265592 0.005997916960865732 -0.00010340497099091384 0.00013890237182136937 0.00026464000999460775 0.0041451023249171656 -0.005880238810753925
1129027 -0.0017206443182441506 0.00041595797495849 0.00040051237300286856 0.0018124938982290349 0.003023291572949577 0.0033105988185090198 0.00322410052298462 -0.0008959502386414232 -0.000986546529919983 0.0007406832783869581 -0.0005473235225853213 0.0007123518711004615 0.0009599824263976037 -0.0018872465408969108 -0.002074713317175449 -0.002074713317175449 -0.0031185961279316865 0.004260490943906575 -0.004607550463262874 0.003042458993661652 -0.0021661142077182872 -0.0021661142077182872 -0.0020545937122439057 0.00015283650862601573 0.0007485689679599326 -0.00046915973899628455 -0.005456349802006976 0.0005663156519721649 -0.002485763911217541 -0.002485763911217541 2.881055572873494e-05 -0.001553246656834438 -0.0014212503436656072 3.114162719795625e-05 -0.0013584459644555725 0.005089684559559206 -0.0022375119340211583 0.009814538237957493 0.002851378322678223 -0.0068277181626911175 0.006617451849930604 -0.0057179227224812695 -0.019494815747327296 -0.009331722386084937 0.0063542399691240165 -7.808272330754956e-05 0.0007444680325195785 0.0006303627060041413 0.003619123828802862 -0.006058315343551191
1129573 -0.0021073503042586123 0.0005094423965448873 0.0004905254747641334 0.0022198426062845413 0.0037027608486913982 0.004054638924203972 0.003948700580376354 -0.0010973104597981757 -0.0012082678029087003 0.0009071480465299268 -0.0006703316772783636 0.0008724493007565171 0.0011757335533564943 -0.0023113955220149906 -0.0025409944948184687 -0.0025409944948184687 -0.003819484613625986 0.005218014433159876 -0.005643073799559127 0.003726236048906325 -0.002652937266751419 -0.002652937266751419 -0.0025163531118641063 0.00018718573010111873 0.0009168060043918201 -0.0005746009841990918 -0.006682636436526577 0.000693592190341694 -0.0030444266017539785 -0.0030444266017539785 3.528558037071115e-05 -0.0019023308769641342 -0.0017406690693680174 3.8140548197484203e-05 -0.0016958222175536336 0.005982766524739226 -0.0024849609999592253 0.010501044706367408 0.003903927601745593 -0.006893027793050011 0.0064827582692945935 -0.005468280754201877 -0.01769086048072471 -0.008930511403448317 0.0049826579062071785 -8.60950568630241e-06 0.0012448522848947413 0.0007244007016773891 0.003717740720484095 -0.007407611190856644
1129683 -0.002720577544339549 0.0006576873058900346 0.0006332656648840345 0.00286580448178059 0.004780243700656911 0.005234516342775486 0.005097750528985753 -0.0014166217121392144 -0.0015598670261413286 0.0011711230922516786 -0.0008653944741781564 0.0011263272040800533 0.001517865490575702 -0.0029839987877541842 -0.003280409787078875 -0.003280409787078875 -0.004930933433222991 0.006736427666632709 -0.007285176949037318 0.004810550053817292 -0.003424927284220417 -0.003424927284220417 -0.003248597898475664 0.00024165573844304775 0.0011835914622374975 -0.0007418066808391712 -0.008627246542475446 0.0008954236674176355 -0.00393033784244801 -0.00393033784244801 4.555348837903192e-05 -0.0024558986018193628 -0.0022471941056401864 4.9239235994668205e-05 -0.001972653098671581 0.007389103137149144 -0.0032636383351092274 0.013177738249093296 0.0037084281013805755 -0.007620632358966208 0.0070309659614101894 -0.006651938961858636 -0.021836770459215765 -0.010533176041359225 0.006492825388476737 8.159772343795385e-06 0.0020149575715555576 0.0011444606591006527 0.007870545766373947 -0.0032446216796390014
1129778 -0.002433358530881118 0.000588253409563547 0.0005664100297989336 0.0025632534525939802 0.00427557994547358 0.004681893748711804 0.0045595666860590404 -0.0012670649786981176 -0.0013951874825249733 0.0010474843377177908 -0.0007740323486459977 0.0010074176772921386 0.0013576201670513102 -0.002668969653678105 -0.002934087711185591 -0.002934087711185591 -0.004410360939685198 0.006025244075240435 -0.006516060354464812 0.004302686771800307 -0.003063348090204249 -0.003063348090204249 -0.0029056342930218267 0.00021614346332465145 0.0010586363868605568 -0.0006634920658079738 -0.007716443891050073 0.0008008912756032087 -0.00351540103610142 -0.00351540103610142 4.074427865108756e-05 -0.002196622487805936 -0.0020099515115392973 4.4040911537666303e-05 -0.001914870264863554 0.0073186043419594055 -0.003249519732648197 0.014556932134865261 0.0041086461645708046 -0.010283484007470605 0.010066230151931645 -0.008641331449965785 -0.030139343228096825 -0.014113233852453028 0.009834100048919816 -0.0001539498846106849 0.00010688422702477245 0.00019207306455810419 0.009043654082235226 -0.007687309308544396
1130847 -0.002107350304258615 0.0005094423965448516 0.0004905254747641205 0.0022198426062845665 0.003702760848691393 0.004054638924203969 0.003948700580376346 -0.0010973104597982108 -0.0012082678029086806 0.0009071480465299295 -0.0006703316772783554 0.0008724493007564982 0.0011757335533565032 -0.002311395522014992 -0.0025409944948184496 -0.0025409944948184496 -0.00381948461362597 0.005218014433159859 -0.005643073799559124 0.0037262360489063234 -0.0026529372667514267 -0.0026529372667514267 -0.002516353111864128 0.00018718573010110284 0.0009168060043918212 -0.0005746009841991248 -0.006682636436526565 0.000693592190341698 -0.0030444266017539863 -0.0030444266017539863 3.528558037069901e-05 -0.0019023308769641138 -0.0017406690693679836 3.814054819743699e-05 -0.0016779029632325937 0.006217013456940425 -0.0026918320335531584 0.012022598853246408 0.0036169371829200916 -0.00827582194995321 0.007990055651996964 -0.006848234977258959 -0.023286131767544266 -0.011280944844192292 0.007465904138420223 -9.44004241043669e-05 0.0007541812855785165 0.0006505820944954847 0.004009909647600405 -0.007778901200068347
1130856 -0.001720644318244168 0.000415957974958514 0.0004005123730028771 0.001812493898229038 0.0030232915729495784 0.003310598818509023 0.003224100522984621 -0.0008959502386414536 -0.0009865465299200011 0.0007406832783869564 -0.0005473235225853215 0.0007123518711004778 0.0009599824263975767 -0.0018872465408968945 -0.0020747133171754367 -0.0020747133171754367 -0.0031185961279316604 0.004260490943906563 -0.0046075504632628675 0.0030424589936616556 -0.0021661142077182864 -0.0021661142077182864 -0.002054593712243914 0.00015283650862600533 0.0007485689679599265 -0.000469159738996288 -0.005456349802006995 0.0005663156519721674 -0.0024857639112175387 -0.0024857639112175387 2.8810555728730927e-05 -0.0015532466568344361 -0.0014212503436656166 3.1141627197938854e-05 -0.001366709231675177 0.0050571588554017615 -0.0021883094924907355 0.009728954092344769 0.002926444900012181 -0.006689348225213591 0.006457625999443422 -0.005529502676070529 -0.018791107879688424 -0.009099746888780519 0.006014593627676648 -7.576434691917564e-05 0.0006044069293864009 0.0005211437187173964 0.0032089067301541542 -0.006220174244807944
1131116 -0.002433358530880997 0.000588253409563466 0.0005664100297989525 0.0025632534525939464 0.004275579945473601 0.00468189374871182 0.004559566686059065 -0.001267064978698037 -0.0013951874825249653 0.0010474843377178112 -0.0007740323486460191 0.0010074176772921443 0.00135762016705131 -0.002668969653678186 -0.0029340877111855767 -0.0029340877111855767 -0.004410360939685197 0.006025244075240457 -0.006516060354464647 0.004302686771800269 -0.003063348090204243 -0.003063348090204243 -0.0029056342930218397 0.00021614346332466438 0.0010586363868607686 -0.0006634920658079029 -0.007716443891050069 0.0008008912756032069 -0.0035154010361014404 -0.0035154010361014404 4.074427865105514e-05 -0.002196622487805899 -0.0020099515115393676 4.404091153804438e-05 -0.0019664570414707466 0.007445956802089793 -0.003282669546725957 0.015124181014879667 0.004479638542690246 -0.010583190111572998 0.010230502424045326 -0.00894117025482906 -0.030511245423472357 -0.0147987166688405 0.010135538280495833 -0.0001225984459273537 0.0014310815727836483 0.0011755668905582821 0.006016900790059582 -0.01051733024172954
1131360 -0.0024333585308810705 0.0005882534095635777 0.0005664100297989191 0.0025632534525939976 0.004275579945473592 0.004681893748711807 0.004559566686059052 -0.001267064978698031 -0.0013951874825249557 0.0010474843377178118 -0.0007740323486460049 0.0010074176772921042 0.0013576201670513232 -0.002668969653678109 -0.00293408771118558 -0.00293408771118558 -0.004410360939685176 0.006025244075240375 -0.006516060354464768 0.004302686771800296 -0.003063348090204246 -0.003063348090204246 -0.0029056342930217924 0.0002161434633247024 0.001058636386860538 -0.0006634920658079736 -0.007716443891050035 0.0008008912756031938 -0.003515401036101426 -0.003515401036101426 4.074427865109493e-05 -0.002196622487805874 -0.0020099515115393246 4.4040911537648875e-05 -0.00197153664617888 0.00742167135239846 -0.003259440692115789 0.014990077974321881 0.004502526036064258 -0.010465706088454416 0.010109083698845441 -0.00880538316875243 -0.030024220275183665 -0.014556101519409774 0.009903927386760325 -0.0001244514296365081 0.0012481523696764136 0.0010397413789719392 0.006235552232807128 -0.01095856350292488
1131557 -0.0017206443182441293 0.00041595797495845425 0.0004005123730028685 0.0018124938982290188 0.0030232915729495793 0.0033105988185090237 0.003224100522984622 -0.0008959502386414669 -0.0009865465299199684 0.0007406832783869342 -0.0005473235225853222 0.000712351871100479 0.000959982426397591 -0.0018872465408969127 -0.0020747133171754423 -0.0020747133171754423 -0.0031185961279316804 0.00426049094390657 -0.004607550463262874 0.0030424589936616534 -0.0021661142077182677 -0.0021661142077182677 -0.0020545937122439257 0.00015283650862600232 0.0007485689679599462 -0.000469159738996281 -0.005456349802006991 0.0005663156519721665 -0.0024857639112175326 -0.0024857639112175326 2.8810555728730548e-05 -0.0015532466568344333 -0.0014212503436656417 3.1141627197916405e-05 -0.0013698145872929062 0.005151079925775101 -0.002268283550797041 0.010074694815037477 0.0029278501769354768 -0.007089525724280653 0.006869585133918057 -0.0059358627807554925 -0.02027182907702186 -0.009709651870222777 0.006698018178399797 -8.98048959403284e-05 0.0006954606610811465 0.0006422062757795726 0.0032899653209348964 -0.006222630716972575
1131752 -0.0017206443182441423 0.0004159579749585092 0.00040051237300289664 0.001812493898229041 0.003023291572949574 0.0033105988185090163 0.0032241005229846167 -0.0008959502386414203 -0.0009865465299199998 0.0007406832783869569 -0.0005473235225853197 0.0007123518711004596 0.0009599824263976085 -0.0018872465408969136 -0.0020747133171754475 -0.0020747133171754475 -0.003118596127931682 0.004260490943906573 -0.004607550463262906 0.003042458993661658 -0.002166114207718281 -0.002166114207718281 -0.0020545937122439122 0.00015283650862600964 0.0007485689679598998 -0.00046915973899627604 -0.005456349802006992 0.0005663156519721679 -0.0024857639112175495 -0.0024857639112175495 2.881055572872876e-05 -0.0015532466568344335 -0.001421250343665601 3.114162719796382e-05 -0.001352809350244183 0.005041661044646385 -0.002205051769865279 0.00957796968509159 0.0028324792038399325 -0.0066405482182091925 0.006416401610648027 -0.005502457578305791 -0.0186150519961463 -0.008996766353634915 0.0060798129829742874 -7.353053098182892e-05 0.0006993803418049259 0.0005977138454468238 0.0029571576458914737 -0.005433723406848561
1133196 -0.0017206443182441581 0.00041595797495853204 0.0004005123730028969 0.0018124938982290262 0.0030232915729495775 0.003310598818509019 0.003224100522984619 -0.0008959502386414166 -0.000986546529919981 0.0007406832783869436 -0.0005473235225853209 0.0007123518711004462 0.0009599824263976344 -0.0018872465408969503 -0.002074713317175449 -0.002074713317175449 -0.0031185961279316774 0.004260490943906565 -0.004607550463262885 0.003042458993661673 -0.0021661142077183 -0.0021661142077183 -0.0020545937122438945 0.00015283650862595767 0.0007485689679599436 -0.00046915973899628346 -0.005456349802007012 0.0005663156519721708 -0.0024857639112175318 -0.0024857639112175318 2.8810555728742365e-05 -0.0015532466568344454 -0.0014212503436656482 3.114162719793025e-05 -0.0013686959321094361 0.005133340601839481 -0.0022685124017079476 0.010022327874461192 0.0028506043547058425 -0.007062358777690224 0.006859987720979226 -0.005992570758989641 -0.020602333012958284 -0.009766996434470243 0.006763898371648382 -9.495128458221296e-05 0.0006187452566097021 0.000575023886725075 0.0045781826680515204 -0.007267180689419101
1133338 -0.0017206443182441577 0.00041595797495850103 0.00040051237300287295 0.0018124938982290494 0.0030232915729495762 0.0033105988185090176 0.0032241005229846193 -0.0008959502386414111 -0.0009865465299199816 0.0007406832783869541 -0.0005473235225853215 0.0007123518711004595 0.0009599824263976005 -0.0018872465408969054 -0.002074713317175449 -0.002074713317175449 -0.0031185961279316817 0.004260490943906564 -0.004607550463262869 0.0030424589936616534 -0.002166114207718286 -0.002166114207718286 -0.002054593712243905 0.0001528365086260142 0.0007485689679599295 -0.0004691597389962859 -0.005456349802006989 0.0005663156519721653 -0.0024857639112175387 -0.0024857639112175387 2.8810555728730927e-05 -0.0015532466568344387 -0.0014212503436656098 3.114162719794759e-05 -0.0013657631968734493 0.0051043516291710556 -0.0022344028768671114 0.009888019062390951 0.002965287592753209 -0.006861447118990505 0.006629029029272204 -0.005709010952735557 -0.01936653015511143 -0.009366475079087036 0.006339980828601985 -7.404984338689206e-05 0.0008231298082593129 0.0006754508703906701 0.0034823676021851903 -0.006205928690075147
1136814 -0.002107350304258615 0.0005094423965448649 0.0004905254747641538 0.0022198426062845665 0.003702760848691397 0.0040546389242039705 0.003948700580376354 -0.0010973104597981306 -0.0012082678029086788 0.0009071480465299248 -0.0006703316772783564 0.0008724493007564954 0.0011757335533565108 -0.002311395522014997 -0.0025409944948184583 -0.0025409944948184583 -0.0038194846136260043 0.005218014433159873 -0.005643073799559138 0.003726236048906321 -0.0026529372667514184 -0.0026529372667514184 -0.0025163531118641254 0.0001871857301011091 0.0009168060043918194 -0.0005746009841991002 -0.00668263643652659 0.0006935921903416893 -0.0030444266017539815 -0.0030444266017539815 3.528558037069066e-05 -0.001902330876964137 -0.0017406690693679947 3.814054819746525e-05 -0.0016611739860274768 0.006254856220538674 -0.0027472743738802476 0.012142682324632887 0.003552601706016527 -0.008492506195529716 0.008239289149597956 -0.0070824854207754695 -0.024268158461271915 -0.011566864974810938 0.007948081134514595 -9.556726218446097e-05 0.0009192917931816553 0.0007689417179408794 0.004656206963677921 -0.00785755584596048
1137466 -0.0012166792654405463 0.0002941267047817818 0.0002832050148994532 0.0012816267262969927 0.0021377899727367967 0.0023409468743559076 0.002279783343029528 -0.0006335324893490553 -0.0006975937412624959 0.0005237421688588984 -0.00038701617432299626 0.0005037088386460701 0.0006788100835256503 -0.001334484826839055 -0.001467043855592792 -0.001467043855592792 -0.002205180469842596 0.0030126220376202086 -0.003258030177232388 0.0021513433859001512 -0.0015316740451021204 -0.0015316740451021204 -0.001452817146510904 0.00010807173166232139 0.0005293181934302846 -0.0003317460329039697 -0.003858221945525016 0.00040044563780159694 -0.001757700518050709 -0.001757700518050709 2.0372139325539008e-05 -0.0010983112439029567 -0.0010049757557696645 2.2020455768858963e-05 -0.0009519823804900022 0.003538289346990653 -0.0015456399465110541 0.006651969026810077 0.001966551904977428 -0.0046013033792495946 0.0044449644167778935 -0.0038044606529036478 -0.012855530366025833 -0.006208198971564524 0.004184416450453455 -5.022215383746856e-05 0.00047625886639876433 0.00040664805509400495 0.002007782120513227 -0.0036834001917192406
1152421 -0.0024333585308810588 0.0005882534095635384 0.0005664100297988979 0.0025632534525939893 0.004275579945473593 0.004681893748711816 0.004559566686059058 -0.0012670649786981178 -0.001395187482524962 0.001047484337717798 -0.0007740323486459917 0.001007417677292133 0.001357620167051318 -0.002668969653678122 -0.002934087711185589 -0.002934087711185589 -0.0044103609396851946 0.00602524407524041 -0.00651606035446477 0.004302686771800304 -0.0030633480902042534 -0.0030633480902042534 -0.002905634293021813 0.00021614346332466048 0.0010586363868605648 -0.0006634920658079584 -0.007716443891050009 0.0008008912756032004 -0.0035154010361014305 -0.0035154010361014305 4.0744278651070644e-05 -0.0021966224878059246 -0.002009951511539332 4.404091153767995e-05 -0.001933058458302963 0.007271042992586206 -0.0032017058131272127 0.014263074713661979 0.004165838428631453 -0.009861977700561773 0.009536719015312684 -0.008330174080396581 -0.028441435237356184 -0.013624969126462633 0.009242252071720046 -0.00010679700653905623 0.0012702166746665065 0.0010158245582295167 0.00594963281649053 -0.009312094345207448
1152508 -0.001216679265440545 0.0002941267047817808 0.00028320501489945344 0.0012816267262969942 0.002137789972736796 0.0023409468743559063 0.0022797833430295263 -0.0006335324893490561 -0.0006975937412624901 0.0005237421688588979 -0.00038701617432299756 0.0005037088386460687 0.000678810083525653 -0.0013344848268390553 -0.0014670438555927947 -0.0014670438555927947 -0.0022051804698426008 0.003012622037620211 -0.003258030177232392 0.002151343385900151 -0.00153167404510212 -0.00153167404510212 -0.0014528171465109027 0.00010807173166232205 0.0005293181934302844 -0.00033174603290397133 -0.00385822194552502 0.00040044563780159716 -0.0017577005180507096 -0.0017577005180507096 2.0372139325538466e-05 -0.0010983112439029601 -0.0010049757557696658 2.202045576885777e-05 -0.0009519823804899928 0.0035382893469906476 -0.001545639946511053 0.00665196902681008 0.0019665519049774224 -0.0046013033792495885 0.004444964416777891 -0.003804460652903644 -0.012855530366025839 -0.006208198971564519 0.004184416450453452 -5.0222153837468454e-05 0.0004762588663987641 0.0004066480550939991 0.002007782120513235 -0.003683400191719244
1153065 -0.0017206443182441575 0.00041595797495850315 0.0004005123730028766 0.0018124938982290477 0.0030232915729495775 0.0033105988185090185 0.0032241005229846197 -0.000895950238641412 -0.0009865465299199998 0.0007406832783869593 -0.0005473235225853198 0.000712351871100463 0.0009599824263975993 -0.001887246540896908 -0.002074713317175449 -0.002074713317175449 -0.003118596127931679 0.004260490943906568 -0.004607550463262869 0.0030424589936616547 -0.0021661142077182872 -0.0021661142077182872 -0.002054593712243907 0.00015283650862601652 0.0007485689679599282 -0.000469159738996279 -0.005456349802006997 0.0005663156519721618 -0.002485763911217538 -0.002485763911217538 2.881055572872773e-05 -0.0015532466568344398 -0.0014212503436656137 3.114162719794714e-05 -0.0013657631968734753 0.005104351629171076 -0.0022344028768671227 0.009888019062390974 0.0029652875927532246 -0.006861447118990512 0.0066290290292722156 -0.005709010952735566 -0.019366530155111444 -0.009366475079087042 0.006339980828601978 -7.404984338687796e-05 0.0008231298082593142 0.0006754508703906844 0.003482367602185172 -0.006205928690075128
1153280 -0.002433358530881065 0.0005882534095635357 0.0005664100297988947 0.002563253452593977 0.004275579945473599 0.004681893748711822 0.004559566686059064 -0.0012670649786981252 -0.0013951874825249685 0.001047484337717802 -0.0007740323486459896 0.001007417677292132 0.0013576201670513182 -0.0026689696536781244 -0.0029340877111855845 -0.0029340877111855845 -0.004410360939685186 0.006025244075240395 -0.00651606035446476 0.004302686771800307 -0.0030633480902042573 -0.0030633480902042573 -0.0029056342930218098 0.00021614346332465682 0.0010586363868605674 -0.0006634920658079566 -0.007716443891050015 0.000800891275603201 -0.0035154010361014326 -0.0035154010361014326 4.074427865106739e-05 -0.0021966224878059294 -0.0020099515115393225 4.404091153768762e-05 -0.0019330584583029777 0.007271042992586211 -0.003201705813127222 0.014263074713661977 0.004165838428631461 -0.009861977700561788 0.00953671901531269 -0.008330174080396562 -0.028441435237356188 -0.013624969126462622 0.009242252071720037 -0.0001067970065390623 0.0012702166746664978 0.0010158245582295086 0.005949632816490514 -0.009312094345207435
1153577 -0.002720577544339558 0.0006576873058900876 0.0006332656648840151 0.0028658044817805933 0.004780243700656903 0.00523451634277547 0.005097750528985744 -0.0014166217121391565 -0.0015598670261413076 0.0011711230922516825 -0.0008653944741781376 0.0011263272040800722 0.001517865490575677 -0.00298399878775417 -0.0032804097870788697 -0.0032804097870788697 -0.004930933433222989 0.006736427666632691 -0.0072851769490373045 0.004810550053817296 -0.003424927284220414 -0.003424927284220414 -0.003248597898475665 0.0002416557384430795 0.0011835914622375142 -0.0007418066808391859 -0.008627246542475424 0.0008954236674176423 -0.003930337842447998 -0.003930337842447998 4.555348837902704e-05 -0.002455898601819329 -0.0022471941056401833 4.9239235994605565e-05 -0.0021243340666943864 0.008068717722599246 -0.003551910911934917 0.015691242399341564 0.004445604945076626 -0.011068274771762192 0.010787155426880725 -0.009233225174565518 -0.03211872732873448 -0.014966965883444188 0.010422200072552575 -0.00012612928548569557 0.001050625331753779 0.0008816226632419864 0.006764408483823561 -0.010796420169614967
1153853 -0.002433358530881138 0.0005882534095635978 0.0005664100297988987 0.0025632534525939824 0.004275579945473589 0.004681893748711814 0.004559566686059057 -0.0012670649786980998 -0.0013951874825249874 0.0010474843377178016 -0.0007740323486459628 0.0010074176772921595 0.001357620167051252 -0.0026689696536780446 -0.002934087711185577 -0.002934087711185577 -0.00441036093968514 0.00602524407524044 -0.006516060354464772 0.004302686771800284 -0.003063348090204243 -0.003063348090204243 -0.0029056342930218076 0.000216143463324564 0.001058636386860585 -0.0006634920658079193 -0.007716443891050039 0.000800891275603189 -0.003515401036101414 -0.003515401036101414 4.074427865108799e-05 -0.002196622487805963 -0.002009951511539298 4.4040911537612785e-05 -0.001984862809007302 0.0074420366689806755 -0.0032789620777299465 0.01510950153172685 0.0045563899183248486 -0.010583759706313348 0.010257303143963056 -0.008977453924323048 -0.030945034425058544 -0.014823688270409448 0.009910438192326872 -0.00013495036121573237 0.0011675390037012114 0.000978940955115779 0.007591073601885239 -0.011919140404428569
1153943 -0.002720577544339548 0.0006576873058900415 0.000633265664884021 0.0028658044817805794 0.00478024370065691 0.0052345163427754806 0.005097750528985753 -0.001416621712139167 -0.0015598670261413176 0.0011711230922516796 -0.0008653944741781321 0.0011263272040800405 0.0015178654905757165 -0.002983998787754193 -0.003280409787078878 -0.003280409787078878 -0.004930933433222983 0.006736427666632699 -0.007285176949037327 0.004810550053817302 -0.003424927284220428 -0.003424927284220428 -0.003248597898475646 0.00024165573844304986 0.0011835914622375032 -0.0007418066808391812 -0.00862724654247541 0.0008954236674176343 -0.003930337842448003 -0.003930337842448003 4.5553488378999936e-05 -0.002455898601819384 -0.0022471941056402002 4.923923599466351e-05 -0.002001860844803114 0.007576621320257595 -0.003391635107348523 0.01342836747157515 0.003153893508777284 -0.009339982127745247 0.009438018206543173 -0.008028544953503167 -0.02864215443153126 -0.012437998879721052 0.008583847127144219 -0.00010590488934033015 0.0007932594156481022 0.0006728559678553087 0.006766291111794497 -0.008467039005437316
1154176 -0.0017206443182441525 0.00041595797495849344 0.0004005123730028491 0.0018124938982290325 0.003023291572949585 0.0033105988185090276 0.003224100522984633 -0.0008959502386413822 -0.0009865465299199881 0.0007406832783869531 -0.0005473235225853138 0.0007123518711004742 0.0009599824263975814 -0.001887246540896889 -0.0020747133171754428 -0.0020747133171754428 -0.003118596127931678 0.004260490943906561 -0.004607550463262866 0.0030424589936616587 -0.0021661142077182925 -0.0021661142077182925 -0.0020545937122439075 0.0001528365086260427 0.0007485689679599363 -0.00046915973899629187 -0.005456349802006995 0.0005663156519721687 -0.0024857639112175335 -0.0024857639112175335 2.881055572874849e-05 -0.0015532466568344268 -0.0014212503436655762 3.114162719793594e-05 -0.0012856440358479972 0.004892467287152774 -0.002151487231805895 0.008924470250878674 0.0023930321000948168 -0.006329673834217773 0.006209541878591957 -0.005200841581425987 -0.018342836921398348 -0.008230801361323979 0.005861657277711037 -6.824351198318633e-05 0.0003832155755268328 0.0003407635450156709 0.0035372936283014746 -0.005222325707147905
1154459 -0.002433358530881058 0.0005882534095635374 0.0005664100297988929 0.00256325345259398 0.004275579945473593 0.004681893748711816 0.004559566686059058 -0.0012670649786981204 -0.0013951874825249623 0.001047484337717802 -0.0007740323486459912 0.0010074176772921302 0.0013576201670513208 -0.00266896965367812 -0.0029340877111855893 -0.0029340877111855893 -0.004410360939685193 0.006025244075240404 -0.00651606035446477 0.004302686771800304 -0.003063348090204255 -0.003063348090204255 -0.002905634293021807 0.00021614346332466354 0.001058636386860567 -0.0006634920658079625 -0.007716443891050023 0.0008008912756031998 -0.0035154010361014296 -0.0035154010361014296 4.074427865106999e-05 -0.002196622487805925 -0.0020099515115393285 4.4040911537675065e-05 -0.0019330584583029575 0.007271042992586205 -0.0032017058131272097 0.014263074713661976 0.004165838428631445 -0.00986197770056177 0.009536719015312682 -0.00833017408039658 -0.02844143523735621 -0.013624969126462634 0.009242252071720043 -0.00010679700653905601 0.0012702166746664991 0.0010158245582295104 0.005949632816490522 -0.009312094345207446
116552 -0.0024333585308811156 0.0005882534095635518 0.0005664100297989054 0.0025632534525939703 0.004275579945473599 0.004681893748711831 0.004559566686059073 -0.001267064978698177 -0.0013951874825249857 0.00104748433771778 -0.0007740323486459665 0.0010074176772921447 0.001357620167051293 -0.0026689696536780928 -0.0029340877111855785 -0.0029340877111855785 -0.0044103609396851495 0.006025244075240411 -0.006516060354464762 0.004302686771800281 -0.003063348090204235 -0.003063348090204235 -0.002905634293021808 0.00021614346332459738 0.001058636386860603 -0.0006634920658079074 -0.00771644389105009 0.0008008912756031997 -0.0035154010361014266 -0.0035154010361014266 4.074427865107563e-05 -0.002196622487805946 -0.0020099515115393255 4.404091153757951e-05 -0.0019042302682934543 0.00711045330465893 -0.0031963998008154265 0.01307131341369077 0.00334534684227491 -0.009686358621150512 0.009624827422148994 -0.008246774512425337 -0.028556881531533938 -0.013131684428683229 0.008963576131943622 -0.00016722716224082084 0.00011611558603208181 0.0003195494880456029 0.00808726868346004 -0.008943234358541371
12576 -0.00570673160127281 0.0013795765314934855 0.001328349265145386 0.0060113621952342785 0.01002712377931718 0.010980014112388357 0.010693131721128662 -0.0029715307724029355 -0.003272004677971803 0.0024565685228998685 -0.0018152667633510979 0.0023626038751479103 0.003183901513695746 -0.0062592886630511045 -0.0068810456206245835 -0.0068810456206245835 -0.010343213229004503 0.014130449883645148 -0.015281516089271061 0.01009069492201798 -0.007184188080059492 -0.007184188080059492 -0.006814316440136349 0.000506901353380442 0.0024827223964266447 -0.0015560268209916179 -0.018096665018187155 0.001878256530497139 -0.00824434621091488 -0.00824434621091488 9.555380335382027e-05 -0.005151536367593838 -0.004713754123102586 0.00010328509277676972 -0.004605682925732862 0.015836481187554766 -0.006437890574322941 0.02641088526057141 0.01042674998083552 -0.017131167572923125 0.015944623454842936 -0.01322058680858422 -0.04178660710502851 -0.021437317150898354 0.010971190628188625 -1.9989583257376856e-05 0.0019794455177142354 0.0009030944149259992 0.010245595545102506 -0.020277514289448784
128540 -0.002433358530881086 0.0005882534095635648 0.0005664100297989101 0.0025632534525939707 0.004275579945473598 0.00468189374871182 0.004559566686059064 -0.0012670649786980606 -0.0013951874825249829 0.0010474843377177977 -0.0007740323486459949 0.0010074176772921443 0.0013576201670513004 -0.0026689696536781136 -0.0029340877111855854 -0.0029340877111855854 -0.004410360939685184 0.006025244075240398 -0.006516060354464739 0.00430268677180029 -0.003063348090204237 -0.003063348090204237 -0.0029056342930218176 0.00021614346332462755 0.0010586363868605726 -0.0006634920658079847 -0.007716443891050037 0.0008008912756032073 -0.0035154010361014305 -0.0035154010361014305 4.0744278651067066e-05 -0.002196622487805951 -0.00200995151153936 4.4040911537709916e-05 -0.001879766202080085 0.006689535431546845 -0.0028394505411116194 0.011055358969869797 0.0032775681006009505 -0.007697821842053534 0.007311681688968481 -0.006092124174442959 -0.02071263253556318 -0.009523829567663891 0.005598247050126253 -8.391544673534162e-05 -0.00015383745836714435 -3.6207529395234993e-05 0.0030359419361173008 -0.006211989369640214
132806 -0.0027205775443395544 0.0006576873058900493 0.0006332656648839859 0.002865804481780583 0.004780243700656906 0.005234516342775472 0.005097750528985744 -0.0014166217121391277 -0.0015598670261413401 0.0011711230922516842 -0.0008653944741781333 0.0011263272040800654 0.0015178654905756905 -0.0029839987877541656 -0.003280409787078894 -0.003280409787078894 -0.004930933433223014 0.006736427666632753 -0.007285176949037317 0.004810550053817296 -0.003424927284220427 -0.003424927284220427 -0.003248597898475652 0.0002416557384430894 0.0011835914622375244 -0.0007418066808391733 -0.00862724654247543 0.0008954236674176179 -0.003930337842447953 -0.003930337842447953 4.555348837901327e-05 -0.0024558986018193736 -0.0022471941056402102 4.923923599468771e-05 -0.002061888534937586 0.007295015950217601 -0.0031216740033639203 0.011522254455681764 0.0031550958543661504 -0.008248951289400723 0.00790524935143512 -0.0065271219601817495 -0.02249016796162569 -0.009977570691675946 0.0061377360680014426 -0.0001137440893162796 -0.0007043524828653305 -0.0003859169925549489 0.004874918894196132 -0.00670597310375502
135130 -0.0029802433809535973 0.0007204603464416304 0.0006937077791009346 0.0031393315201412543 0.005236494610443524 0.005734125357135149 0.0055843059145187866 -0.0015518313343803804 -0.0017087487138522156 0.0012829010704828788 -0.0009479921492953657 0.001233829633612805 0.001662738336893836 -0.0032688068952420103 -0.0035935088764876676 -0.0035935088764876676 -0.005401566941865216 0.007379386780033242 -0.007980511500808779 0.005269693556966874 -0.0037518198627648756 -0.0037518198627648756 -0.0035586606985179136 0.0002647205981917275 0.0012965594854759761 -0.0008126085048072531 -0.00945067508094447 0.0009808874823372705 -0.004305469389849893 -0.004305469389849893 4.990134631644523e-05 -0.002690302126323797 -0.0024616778055035955 5.393888053725412e-05 -0.0024178768897076914 0.008442657334670896 -0.003452326768163157 0.014671660713724059 0.005661642127238695 -0.00955529380976633 0.008925116545575167 -0.007476501220676111 -0.023813884580565395 -0.012252422277628357 0.006554677369939535 -2.342225933356292e-06 0.0015876047319867363 0.0008446639350350452 0.005420945632014899 -0.011045478743754797
141342 -0.003441288636488244 0.0008319159499169788 0.0008010247460057792 0.003624987796458055 0.006046583145899152 0.006621197637018036 0.006448201045969231 -0.0017919004772829524 -0.0019730930598400036 0.0014813665567739115 -0.0010946470451706324 0.0014247037422009245 0.0019199648527952154 -0.003774493081793815 -0.0041494266343509185 -0.0041494266343509185 -0.006237192255863388 0.008520981887813174 -0.00921510092652576 0.006084917987323313 -0.00433222841543659 -0.00433222841543659 -0.004109187424487802 0.00030567301725198577 0.0014971379359198854 -0.0009383194779925942 -0.010912699604014035 0.001132631303944344 -0.0049715278224350574 -0.0049715278224350574 5.7621111457473347e-05 -0.0031064933136688583 -0.002842500687331222 6.22832543959065e-05 -0.002586940050373324 0.009762876249559379 -0.0043952388537505886 0.017288084538340073 0.004246853633864049 -0.012721679673738016 0.01258792269109389 -0.010622268402879081 -0.037311459397454234 -0.016663098696707214 0.011762793749995972 -0.00022746998754604375 -0.0012112903064267191 -0.0007024601260038219 0.013968634735508375 -0.006026100018177193
141347 -0.002107350304258572 0.0005094423965448644 0.0004905254747641653 0.0022198426062845565 0.0037027608486914013 0.004054638924203976 0.003948700580376356 -0.0010973104597981767 -0.001208267802908674 0.0009071480465299257 -0.0006703316772783444 0.0008724493007565002 0.0011757335533565197 -0.0023113955220150084 -0.0025409944948184605 -0.0025409944948184605 -0.003819484613625985 0.005218014433159878 -0.005643073799559133 0.0037262360489063243 -0.0026529372667514293 -0.0026529372667514293 -0.002516353111864115 0.0001871857301011089 0.0009168060043918222 -0.0005746009841991176 -0.006682636436526595 0.0006935921903417025 -0.0030444266017539672 -0.0030444266017539672 3.528558037069174e-05 -0.001902330876964108 -0.0017406690693680222 3.8140548197457024e-05 -0.0016680424514835942 0.006280009640264715 -0.002767080054998867 0.012243170111441572 0.0035449234507522764 -0.008551705831533439 0.008291671255587982 -0.0071845304970766365 -0.024587432537501504 -0.011739179437849103 0.008019607599739432 -0.00010097047443363266 0.0008709076759047245 0.0007329967795997074 0.005228891480214417 -0.007704254703280768
148170 -0.0021073503042585953 0.000509442396544862 0.0004905254747641925 0.00221984260628455 0.003702760848691406 0.004054638924203977 0.003948700580376363 -0.0010973104597981037 -0.0012082678029086895 0.0009071480465299423 -0.0006703316772783506 0.0008724493007565017 0.0011757335533565177 -0.002311395522015008 -0.002540994494818472 -0.002540994494818472 -0.0038194846136260087 0.005218014433159917 -0.005643073799559174 0.0037262360489063377 -0.002652937266751432 -0.002652937266751432 -0.0025163531118641254 0.00018718573010111737 0.0009168060043917894 -0.0005746009841991105 -0.006682636436526575 0.0006935921903416924 -0.003044426601753969 -0.003044426601753969 3.528558037071028e-05 -0.0019023308769641084 -0.0017406690693679869 3.81405481974979e-05 -0.0016506160931135014 0.005888378595579823 -0.0024809899558826316 0.010472148263403477 0.0030589194836367433 -0.007153577242836051 0.0068549734991063226 -0.005794330932938023 -0.019638960751176625 -0.009299171322661146 0.005875514815565804 -9.491465914459172e-05 -3.2019348834974035e-05 9.289461728998688e-05 0.0036506420271811475 -0.006620175445458543
15670 -0.0017206443182441644 0.0004159579749585118 0.00040051237300286525 0.001812493898229032 0.003023291572949562 0.003310598818509004 0.0032241005229846093 -0.0008959502386414092 -0.000986546529919989 0.0007406832783869626 -0.0005473235225853304 0.0007123518711004547 0.0009599824263975967 -0.0018872465408969086 -0.002074713317175448 -0.002074713317175448 -0.003118596127931709 0.004260490943906581 -0.0046075504632628935 0.0030424589936616695 -0.0021661142077182816 -0.0021661142077182816 -0.0020545937122438906 0.00015283650862602056 0.0007485689679599262 -0.0004691597389962114 -0.005456349802006968 0.0005663156519721544 -0.002485763911217532 -0.002485763911217532 2.8810555728758086e-05 -0.001553246656834425 -0.001421250343665612 3.114162719794282e-05 -0.0013594071503085982 0.0050802890266404745 -0.002224749802675556 0.009758153973585289 0.0028867509409257427 -0.0067822964226615535 0.006555004453913692 -0.00563317379219321 -0.019081833815328405 -0.009230461611288281 0.006255805245912104 -7.631457109383734e-05 0.0007283664900230097 0.0006231600490295654 0.003090388252171307 -0.005689171708909623
1688 -0.005016497123910257 0.0012127154711301584 0.0011676841901350496 0.005284282365137068 0.008814333862980119 0.009651971226928936 0.009399787526834508 -0.0026121213708465906 -0.002876252678995011 0.0021594442827953045 -0.0015957085655561622 0.0020768447462949317 0.0027988056741106147 -0.005502221896841503 -0.00604877677402248 -0.00604877677402248 -0.009092192000710233 0.012421358871171637 -0.013433202552178992 0.008870216017040258 -0.006315253871973112 -0.006315253871973112 -0.005990118549772913 0.00044559116478721324 0.0021824348210741943 -0.0013678239345427474 -0.015907856608475775 0.0016510796619738169 -0.007247184894125973 -0.007247184894125973 8.399648225900164e-05 -0.004528453268415357 -0.004143621192223276 9.079266505918228e-05 -0.00401925502717121 0.015061669551463564 -0.006598443955524462 0.029700573468089922 0.00901863394511419 -0.020623058197525235 0.019922013559810207 -0.01722053198211935 -0.058553604938458154 -0.028334827226233327 0.019203165242988676 -0.00021730479328944803 0.002734885312377685 0.0021793679700257648 0.011566746113886422 -0.020165846290302884
175291 -0.002980243380953615 0.0007204603464415935 0.0006937077791009882 0.003139331520141271 0.005236494610443521 0.005734125357135136 0.00558430591451877 -0.0015518313343803416 -0.0017087487138522654 0.001282901070482915 -0.000947992149295348 0.0012338296336127145 0.0016627383368939335 -0.003268806895242082 -0.003593508876487627 -0.003593508876487627 -0.005401566941865212 0.007379386780033275 -0.007980511500808859 0.005269693556966831 -0.0037518198627648396 -0.0037518198627648396 -0.003558660698518015 0.00026472059819166924 0.0012965594854759247 -0.0008126085048072627 -0.009450675080944515 0.000980887482337286 -0.004305469389849912 -0.004305469389849912 4.9901346316497054e-05 -0.0026903021263237265 -0.002461677805503577 5.393888053720278e-05 -0.0021980194778402676 0.005785805644355327 -0.0022467036230594 0.006133855678267504 0.0019959531671391545 0.0013693496311860652 -0.0023379523989071004 0.001035830399226305 -0.0028870754204923517 0.004115888949587753 -0.012651155385813512 0.0006962406754599722 0.011723852995989128 0.006441122797017773 0.001533562161163516 -0.0009890364459213068
178727 -0.0017206443182441668 0.00041595797495849436 0.0004005123730028824 0.0018124938982290372 0.0030232915729495797 0.0033105988185090215 0.003224100522984623 -0.000895950238641405 -0.000986546529919996 0.0007406832783869509 -0.0005473235225853212 0.0007123518711004771 0.0009599824263975825 -0.0018872465408968954 -0.0020747133171754428 -0.0020747133171754428 -0.00311859612793167 0.004260490943906571 -0.004607550463262874 0.003042458993661642 -0.0021661142077182716 -0.0021661142077182716 -0.002054593712243916 0.00015283650862602414 0.0007485689679599308 -0.0004691597389963009 -0.005456349802006997 0.0005663156519721685 -0.002485763911217535 -0.002485763911217535 2.881055572869992e-05 -0.0015532466568344383 -0.0014212503436656586 3.114162719797726e-05 -0.0013397042474875714 0.005044595840753764 -0.0022122735097043857 0.009597444972179398 0.0027676665477864527 -0.006721289986492665 0.0065274013789587545 -0.005567230224780081 -0.01912182128372901 -0.009034573357804821 0.0062243826880509535 -7.335365192416729e-05 0.0006466790403894123 0.0005465211581029044 0.0034038743023260543 -0.0057759748538603155
18582 -0.0021073503042586083 0.0005094423965448559 0.0004905254747641692 0.0022198426062845704 0.0037027608486913852 0.004054638924203959 0.0039487005803763445 -0.0010973104597981217 -0.0012082678029086886 0.0009071480465299338 -0.0006703316772783539 0.0008724493007564885 0.0011757335533565292 -0.00231139552201502 -0.0025409944948184614 -0.0025409944948184614 -0.003819484613625989 0.005218014433159864 -0.005643073799559136 0.003726236048906331 -0.002652937266751428 -0.002652937266751428 -0.00251635311186412 0.0001871857301010948 0.0009168060043918238 -0.0005746009841991232 -0.00668263643652658 0.0006935921903416965 -0.003044426601753989 -0.003044426601753989 3.528558037071191e-05 -0.0019023308769641114 -0.0017406690693679949 3.8140548197483966e-05 -0.0016877300028658611 0.0060715360416832165 -0.0025939283232194106 0.011174123849521265 0.0038743742338994878 -0.007425880596836448 0.007060929164299732 -0.0060468505891478775 -0.019768686685268717 -0.00997381588293254 0.006231894366973071 -4.4798701984584936e-05 0.0012644498751712174 0.0008686971794775681 0.00410160056012793 -0.007418724648031899
190697 -0.0027205775443395553 0.0006576873058900505 0.0006332656648840176 0.002865804481780589 0.004780243700656896 0.005234516342775463 0.005097750528985739 -0.0014166217121391253 -0.0015598670261412631 0.001171123092251629 -0.0008653944741781323 0.001126327204080061 0.001517865490575691 -0.0029839987877541716 -0.003280409787078873 -0.003280409787078873 -0.004930933433222985 0.006736427666632699 -0.007285176949037332 0.004810550053817303 -0.0034249272842204223 -0.0034249272842204223 -0.0032485978984756626 0.0002416557384430987 0.001183591462237486 -0.0007418066808392338 -0.008627246542475417 0.0008954236674176513 -0.003930337842447993 -0.003930337842447993 4.555348837897858e-05 -0.002455898601819417 -0.0022471941056402085 4.923923599466487e-05 -0.0022107424764646836 0.008195168827671092 -0.003580657657579449 0.016571623217793825 0.005217923735773449 -0.01139613794867609 0.010924373736544372 -0.009546067664695351 -0.031944306961234174 -0.016132634188015846 0.010954384293885797 -8.621913727839566e-05 0.0055511919574429535 0.00525430564162158 -0.03679347005366816 0.010356948671482628
190706 -0.002720577544339611 0.0006576873058900413 0.0006332656648840235 0.0028658044817805716 0.004780243700656899 0.005234516342775468 0.0050977505289857405 -0.0014166217121391687 -0.001559867026141284 0.0011711230922516595 -0.0008653944741781163 0.0011263272040800507 0.0015178654905757172 -0.002983998787754205 -0.0032804097870788836 -0.0032804097870788836 -0.004930933433222984 0.00673642766663272 -0.007285176949037295 0.004810550053817305 -0.0034249272842204388 -0.0034249272842204388 -0.0032485978984756517 0.0002416557384430791 0.001183591462237502 -0.0007418066808391889 -0.008627246542475413 0.0008954236674176287 -0.003930337842448001 -0.003930337842448001 4.5553488379011645e-05 -0.0024558986018194087 -0.0022471941056401747 4.9239235994629506e-05 -0.002130364968431755 0.007999588386850847 -0.003564132338379133 0.015061208999773725 0.004067388790603334 -0.010861679125388478 0.010607967710956274 -0.009103228492435996 -0.03156099776497802 -0.01449982815107583 0.01046476765928507 -0.0001624482713043927 0.0006137666278143334 0.0007792442807983486 0.0045205924347565 -0.008500418461783062
1956 -0.004214700608517265 0.001018884793089741 0.0009810509495283193 0.004439685212569132 0.007405521697382753 0.008109277848407892 0.007897401160752653 -0.0021946209195962602 -0.00241653560581743 0.0018142960930598944 -0.0013406633545566776 0.0017448986015129943 0.0023514671067130263 -0.004622791044029991 -0.005081988989636913 -0.005081988989636913 -0.007638969227251962 0.010436028866319749 -0.011286147599118265 0.007452472097812634 -0.005305874533502834 -0.005305874533502834 -0.005032706223728274 0.00037437146020219707 0.001833612008783677 -0.0011492019683982191 -0.013365272873053112 0.001387184380683384 -0.006088853203507962 -0.006088853203507962 7.057116074145179e-05 -0.00380466175392811 -0.0034813381387359867 7.628109639512185e-05 -0.0037937728268870544 0.012389220520347386 -0.004637421089487158 0.030019235237755605 0.019031858458359325 -0.01196885790614639 0.007371805002314358 -0.00408576583594774 0.05983476590773228 -0.02485032417760137 0.03799522572661983 -0.0004988467599110234 -0.0006125688679100356 0.0011244015829677092 -0.003936723430525323 -0.0016810974661961512
197054 -0.002980243380953577 0.0007204603464415761 0.0006937077791009974 0.0031393315201412586 0.005236494610443521 0.005734125357135144 0.005584305914518776 -0.0015518313343804257 -0.001708748713852193 0.0012829010704828849 -0.000947992149295355 0.001233829633612738 0.0016627383368939366 -0.0032688068952420888 -0.003593508876487672 -0.003593508876487672 -0.005401566941865273 0.00737938678003329 -0.007980511500808824 0.005269693556966866 -0.0037518198627648773 -0.0037518198627648773 -0.0035586606985179817 0.00026472059819169927 0.001296559485476012 -0.0008126085048073342 -0.009450675080944456 0.0009808874823372673 -0.00430546938984988 -0.00430546938984988 4.9901346316444254e-05 -0.0026903021263237495 -0.0024616778055035647 5.393888053705241e-05 -0.0023928377597269056 0.008995386091906345 -0.003966369670791457 0.017664573724280007 0.005157098031858942 -0.012549970923947171 0.012169720233638189 -0.010522349136398584 -0.03606759510367005 -0.017134424682002096 0.011903481020147856 -0.0001765774798477911 0.0009392610589636503 0.0009903890160640606 0.005604994847167646 -0.01140016423298437
198443 -0.0027205775443396585 0.0006576873058900885 0.0006332656648840036 0.002865804481780594 0.004780243700656896 0.0052345163427754676 0.005097750528985747 -0.001416621712139113 -0.0015598670261411797 0.0011711230922515912 -0.0008653944741781351 0.001126327204080046 0.0015178654905757217 -0.002983998787754207 -0.003280409787078876 -0.003280409787078876 -0.004930933433222983 0.006736427666632696 -0.0072851769490373045 0.004810550053817305 -0.003424927284220434 -0.003424927284220434 -0.003248597898475654 0.00024165573844308372 0.0011835914622375053 -0.0007418066808392624 -0.00862724654247542 0.000895423667417655 -0.003930337842447989 -0.003930337842447989 4.555348837899397e-05 -0.0024558986018193107 -0.0022471941056402297 4.923923599465184e-05 -0.002276767787245288 0.008460229236300375 -0.0036900291176871457 0.018430784734377294 0.006137342811764616 -0.012761767359638071 0.012188873034114244 -0.010879104087367763 -0.037002696194668595 -0.019050954916974082 0.012729123513254028 -1.733917115730611e-05 0.014093597993067593 0.013629432879349632 -0.12225231453608765 0.0516799138180501
198653 -0.0032190307616844064 0.0007781861147955315 0.0007492900394702925 0.003390865591395696 0.005656060623149118 0.006193563261959699 0.006031739768763587 -0.0016761694142972297 -0.0018456595555357185 0.0013856915299182647 -0.0010239485506182478 0.0013326883202426408 0.0017959626684518838 -0.0035307149802052654 -0.003881433204323869 -0.003881433204323869 -0.005834359119219978 0.007970648705775725 -0.00861993761290051 0.0056919195837954305 -0.004052428612952544 -0.004052428612952544 -0.0038437928701183337 0.00028593092573458415 0.0014004443042385335 -0.000877717501496162 -0.010207895770751036 0.0010594795712236854 -0.004650438450091588 -0.004650438450091588 5.38996143297733e-05 -0.0029058584135131975 -0.002658915923415733 5.826064972082574e-05 -0.0026976044070397423 0.009156905531354544 -0.0036695331234435293 0.016965670874486055 0.011510807371962355 -0.009236581515054307 0.007388323229960362 -0.005292673456394512 0.01210297463243743 -0.015605480314522038 0.018825246185458437 -0.00028944206463480494 -0.001233886603001717 -0.00017254977716849176 0.002706493563400615 -0.005432096145034242
206371 -0.002107350304258584 0.0005094423965448431 0.0004905254747641477 0.0022198426062845582 0.0037027608486913995 0.004054638924203971 0.003948700580376354 -0.0010973104597981 -0.0012082678029086977 0.0009071480465299431 -0.0006703316772783527 0.0008724493007565108 0.0011757335533564913 -0.0023113955220149885 -0.0025409944948184575 -0.0025409944948184575 -0.003819484613625983 0.005218014433159876 -0.005643073799559146 0.0037262360489063308 -0.0026529372667514228 -0.0026529372667514228 -0.002516353111864113 0.00018718573010109577 0.0009168060043918172 -0.0005746009841991191 -0.006682636436526579 0.0006935921903416874 -0.0030444266017539824 -0.0030444266017539824 3.528558037068231e-05 -0.0019023308769641333 -0.0017406690693679613 3.814054819748424e-05 -0.0016728891498684706 0.0062338731890603264 -0.0027147332578160827 0.01196358113121083 0.003653505259962176 -0.00828277785221325 0.007990235673014719 -0.0068572718895529485 -0.023242930502455864 -0.0112295836736665 0.007495635091690699 -7.958004003906222e-05 0.0010419757915177633 0.0008126850919053428 0.004185275770826652 -0.007570708659232414
210871 -0.00486671706176216 0.0011765068191271308 0.0011328200595978218 0.005126506905187978 0.008551159890947175 0.009363787497423622 0.009119133372118107 -0.0025341299573961467 -0.002790374965049947 0.002094968675435591 -0.001548064697292017 0.0020148353545842643 0.002715240334102662 -0.005337939307356255 -0.005868175422371193 -0.005868175422371193 -0.008820721879370419 0.012050488150480855 -0.013032120708929625 0.008605373543600624 -0.006126696180408502 -0.006126696180408502 -0.005811268586043655 0.0004322869266493164 0.0021172727737210984 -0.0013269841316158762 -0.01543288778210003 0.0016017825512064088 -0.007030802072202834 -0.007030802072202834 8.148855730219138e-05 -0.004393244975611898 -0.0040199030230786414 8.808182307547555e-05 -0.0037718419180505737 0.0140724202233931 -0.006119548825878492 0.026405380552303404 0.008520581697775368 -0.01778624360861852 0.017003340265769436 -0.014341986789881512 -0.0439323920501061 -0.024287956217339594 0.01792138124626294 -0.00026819036876038965 0.00018253682191515834 0.00046891298693921686 0.01189699716771244 -0.014516933191912341
229635 -0.002107350304258599 0.000509442396544868 0.0004905254747641499 0.002219842606284549 0.0037027608486913987 0.004054638924203976 0.00394870058037636 -0.0010973104597981503 -0.0012082678029086947 0.0009071480465299259 -0.0006703316772783501 0.0008724493007565008 0.0011757335533565084 -0.0023113955220149976 -0.002540994494818468 -0.002540994494818468 -0.003819484613625983 0.005218014433159881 -0.005643073799559136 0.003726236048906325 -0.002652937266751419 -0.002652937266751419 -0.0025163531118641055 0.00018718573010109731 0.0009168060043918285 -0.0005746009841991002 -0.006682636436526559 0.000693592190341692 -0.0030444266017539815 -0.0030444266017539815 3.528558037071278e-05 -0.0019023308769641168 -0.0017406690693680033 3.814054819744916e-05 -0.0016888833733653841 0.00612033319362355 -0.002618583718361934 0.011254019530126362 0.0036840390685804725 -0.007724956776767803 0.00739367404902669 -0.00629101281236037 -0.020999920713317664 -0.01023389631132494 0.006507843405992643 -7.31525041746814e-05 0.0006636106205609308 0.0005039215054837254 0.004362599423313784 -0.007813436222998153
231249 -0.002107350304258601 0.0005094423965448571 0.0004905254747641723 0.0022198426062845496 0.003702760848691387 0.004054638924203959 0.003948700580376339 -0.001097310459798162 -0.0012082678029086788 0.0009071480465299329 -0.0006703316772783555 0.0008724493007564974 0.0011757335533565054 -0.002311395522014994 -0.002540994494818453 -0.002540994494818453 -0.003819484613625982 0.0052180144331598595 -0.005643073799559119 0.003726236048906323 -0.0026529372667514267 -0.0026529372667514267 -0.00251635311186412 0.00018718573010110677 0.0009168060043918152 -0.0005746009841991238 -0.0066826364365266035 0.0006935921903416975 -0.0030444266017539867 -0.0030444266017539867 3.5285580370698574e-05 -0.0019023308769641257 -0.0017406690693680098 3.81405481974572e-05 -0.001673711243845223 0.006276261371718806 -0.002757494182092309 0.012253809827336171 0.003624368146804133 -0.008442410890629847 0.008145634416754356 -0.007101878085045075 -0.02413896755862304 -0.011635673446349602 0.00784164066910597 -9.036358932087468e-05 0.0010664434044046745 0.0008507319928745225 0.004922489750375947 -0.007615919960807747
248425 -0.0029802433809536523 0.0007204603464416224 0.00069370777910095 0.003139331520141275 0.005236494610443506 0.005734125357135125 0.005584305914518772 -0.001551831334380239 -0.0017087487138521325 0.001282901070482882 -0.0009479921492953483 0.0012338296336127594 0.0016627383368939036 -0.0032688068952420658 -0.003593508876487637 -0.003593508876487637 -0.005401566941865228 0.007379386780033253 -0.007980511500808807 0.0052696935569668535 -0.0037518198627648864 -0.0037518198627648864 -0.003558660698518007 0.00026472059819169987 0.001296559485476 -0.0008126085048073632 -0.009450675080944524 0.000980887482337316 -0.004305469389849904 -0.004305469389849904 4.990134631645271e-05 -0.0026903021263238007 -0.00246167780550358 5.393888053725487e-05 -0.002395349498894053 0.008916975998625247 -0.003916914518713143 0.017528744523667306 0.005122589337423237 -0.012211788119837745 0.011821508905523912 -0.01023105684553356 -0.03486445714986044 -0.01674616807885697 0.01134981946826864 -0.00017111492451965803 0.000791781689132851 0.0007981255085860178 0.007723822953446827 -0.012618508786357311
249421 -0.0027205775443395253 0.0006576873058899535 0.00063326566488393 0.002865804481780625 0.004780243700656909 0.005234516342775469 0.005097750528985741 -0.001416621712138976 -0.0015598670261413484 0.0011711230922517005 -0.0008653944741781217 0.0011263272040800308 0.0015178654905757011 -0.0029839987877541938 -0.0032804097870788706 -0.0032804097870788706 -0.0049309334332228475 0.006736427666632552 -0.007285176949037249 0.004810550053817311 -0.0034249272842204383 -0.0034249272842204383 -0.0032485978984757033 0.00024165573844293307 0.0011835914622373928 -0.0007418066808390659 -0.008627246542475191 0.0008954236674176719 -0.0039303378424479845 -0.0039303378424479845 4.555348837897619e-05 -0.00245589860181932 -0.0022471941056404184 4.92392359947539e-05 -0.001719331043391638 0.006451530027789957 -0.003031162417257366 0.006679615455217831 -0.001362021065680727 -0.006018103666582717 0.007945434637594295 -0.004933357589046558 -0.020791578933083473 -0.006481949615111592 0.0058321159443450185 -0.00019227132627431276 -0.006138319534796029 -0.004252001110715801 0.009570549289288017 0.003493922601936522
254923 -0.0027205775443395826 0.0006576873058900841 0.0006332656648840217 0.002865804481780588 0.004780243700656901 0.005234516342775475 0.005097750528985752 -0.0014166217121391609 -0.0015598670261413323 0.0011711230922516608 -0.0008653944741781217 0.0011263272040800624 0.001517865490575681 -0.0029839987877541604 -0.0032804097870788723 -0.0032804097870788723 -0.004930933433222955 0.006736427666632714 -0.0072851769490373 0.004810550053817292 -0.0034249272842204253 -0.0034249272842204253 -0.003248597898475654 0.0002416557384430443 0.0011835914622375088 -0.0007418066808391679 -0.008627246542475465 0.0008954236674176293 -0.003930337842447977 -0.003930337842447977 4.5553488379010995e-05 -0.002455898601819376 -0.0022471941056401755 4.9239235994669343e-05 -0.0021560587132883483 0.007093484414058942 -0.0029144768318239175 0.010328027619917097 0.0054109773255495335 -0.005882078325912761 0.0053112222237660985 -0.004772439120028655 -0.01711615005302019 -0.007271979291500971 0.0009898689755571313 0.0002533657949083393 0.0056683039799136515 0.003175591130692156 0.0034418433633962545 -0.007675121020885828
259701 -0.0017206443182441306 0.00041595797495849865 0.0004005123730028761 0.0018124938982290516 0.0030232915729495762 0.0033105988185090206 0.0032241005229846236 -0.0008959502386413969 -0.0009865465299199968 0.0007406832783869421 -0.0005473235225853181 0.0007123518711004661 0.0009599824263975963 -0.0018872465408969177 -0.0020747133171754363 -0.0020747133171754363 -0.003118596127931654 0.0042604909439065515 -0.004607550463262819 0.0030424589936616404 -0.002166114207718282 -0.002166114207718282 -0.0020545937122439027 0.00015283650862599017 0.0007485689679599527 -0.00046915973899627745 -0.005456349802006969 0.0005663156519721718 -0.002485763911217521 -0.002485763911217521 2.8810555728741823e-05 -0.0015532466568344233 -0.001421250343665625 3.114162719799376e-05 -0.0013648329291115445 0.005109740243076481 -0.0022405050552430326 0.009917172619429234 0.002933225827460642 -0.006868871062081815 0.006635248565913611 -0.005736732343393025 -0.019474347794549405 -0.009402261082350085 0.006345877378740715 -7.197015237363196e-05 0.0008824418846066753 0.0007117379130138923 0.0035132124576399554 -0.0061434158232548
259702 -0.0027205775443395214 0.0006576873058900363 0.0006332656648840357 0.0028658044817805855 0.004780243700656906 0.005234516342775477 0.00509775052898575 -0.0014166217121391394 -0.00155986702614131 0.0011711230922516551 -0.0008653944741781447 0.001126327204080068 0.001517865490575692 -0.002983998787754218 -0.003280409787078869 -0.003280409787078869 -0.004930933433222986 0.006736427666632729 -0.007285176949037235 0.004810550053817283 -0.003424927284220426 -0.003424927284220426 -0.0032485978984756548 0.00024165573844305656 0.0011835914622375689 -0.00074180668083917 -0.008627246542475415 0.0008954236674176448 -0.0039303378424479915 -0.0039303378424479915 4.5553488379003406e-05 -0.002455898601819334 -0.002247194105640213 4.9239235994806285e-05 -0.002172432689702173 0.00816841951765062 -0.003591803460489305 0.01613627762638089 0.00477262161114849 -0.011153018198707397 0.010763087911387408 -0.009399985720635867 -0.03197464211530643 -0.015442261781664631 0.010441517987345638 -0.00011707567526910767 0.0015572919743043162 0.0012339082566452466 0.0063382897995334685 -0.010519618234431809
263279 -0.0027205775443395843 0.0006576873058900856 0.0006332656648840014 0.002865804481780583 0.004780243700656892 0.005234516342775456 0.00509775052898573 -0.0014166217121391223 -0.001559867026141331 0.0011711230922516814 -0.0008653944741781208 0.0011263272040800464 0.0015178654905757046 -0.0029839987877541916 -0.0032804097870788615 -0.0032804097870788615 -0.004930933433222929 0.006736427666632661 -0.007285176949037257 0.004810550053817284 -0.003424927284220422 -0.003424927284220422 -0.0032485978984756443 0.00024165573844305677 0.0011835914622375166 -0.0007418066808391885 -0.008627246542475452 0.0008954236674176375 -0.0039303378424479975 -0.0039303378424479975 4.555348837901869e-05 -0.0024558986018193667 -0.002247194105640177 4.923923599471888e-05 -0.002150693457129102 0.006646799274013799 -0.002566246724715098 0.009894525391178254 0.004607234367874755 -0.0040709784945941584 0.003312544708649146 -0.00265659089327479 -0.007576178584396953 -0.00425198507484286 -0.0013614184633570935 0.0003490702863276419 0.006671246952069787 0.0037530592835617045 -0.002272281153866859 -0.003363082730842254
263498 -0.0024333585308810904 0.0005882534095635474 0.0005664100297989214 0.0025632534525939932 0.004275579945473582 0.0046818937487118064 0.004559566686059045 -0.0012670649786981432 -0.001395187482524981 0.0010474843377178012 -0.0007740323486459848 0.0010074176772921124 0.001357620167051341 -0.0026689696536781288 -0.002934087711185595 -0.002934087711185595 -0.004410360939685176 0.0060252440752404275 -0.006516060354464773 0.0043026867718002895 -0.003063348090204248 -0.003063348090204248 -0.0029056342930218054 0.00021614346332464806 0.0010586363868605778 -0.0006634920658079651 -0.00771644389105007 0.0008008912756032001 -0.003515401036101438 -0.003515401036101438 4.074427865110046e-05 -0.0021966224878059303 -0.0020099515115393107 4.404091153765698e-05 -0.001905574257536266 0.007076399796981931 -0.0031402265801650235 0.013094607771506289 0.003629418675271104 -0.009426559849035142 0.009200463241477852 -0.007812410843809269 -0.026884127273434866 -0.012443785932132457 0.008950455567845978 -0.00013902593630511518 0.00032457550485848706 0.00045982777388499884 0.005756637359674268 -0.008136167985534052
265203 -0.002107350304258636 0.0005094423965448674 0.0004905254747641233 0.0022198426062845465 0.003702760848691407 0.004054638924203982 0.00394870058037637 -0.001097310459798083 -0.001208267802908692 0.0009071480465299357 -0.0006703316772783545 0.0008724493007565173 0.0011757335533564854 -0.0023113955220149876 -0.002540994494818459 -0.002540994494818459 -0.003819484613625975 0.005218014433159891 -0.005643073799559112 0.0037262360489063147 -0.0026529372667514154 -0.0026529372667514154 -0.0025163531118641185 0.00018718573010109357 0.0009168060043918025 -0.0005746009841990937 -0.006682636436526542 0.0006935921903416906 -0.0030444266017539776 -0.0030444266017539776 3.52855803707234e-05 -0.001902330876964098 -0.0017406690693680042 3.814054819750701e-05 -0.0016429850994929699 0.005606551329131355 -0.002326354692014777 0.009197458734012919 0.0029415325326239724 -0.005862610319153301 0.00546657953434426 -0.004480782806944033 -0.013354788822922705 -0.007335014924801309 0.004571589425140386 -9.052764749768075e-05 -0.0007295961286061138 -0.0004233316045007725 0.003282651710729824 -0.005396254437390876
273152 -0.002433358530881053 0.0005882534095635404 0.0005664100297989071 0.002563253452593991 0.004275579945473591 0.004681893748711815 0.004559566686059059 -0.0012670649786980844 -0.0013951874825249612 0.001047484337717786 -0.0007740323486459888 0.0010074176772921356 0.0013576201670513267 -0.002668969653678129 -0.0029340877111855923 -0.0029340877111855923 -0.004410360939685195 0.006025244075240415 -0.00651606035446479 0.004302686771800315 -0.003063348090204257 -0.003063348090204257 -0.0029056342930218145 0.00021614346332465105 0.0010586363868605629 -0.0006634920658079662 -0.007716443891050004 0.0008008912756032055 -0.0035154010361014222 -0.0035154010361014222 4.074427865110371e-05 -0.0021966224878059238 -0.002009951511539303 4.404091153771791e-05 -0.0019116123881838755 0.007147488322520064 -0.003126280124364098 0.013683907730224319 0.004164512796899801 -0.009314667038317353 0.008946630231246104 -0.007723458274176602 -0.025359551422883698 -0.0127679879962543 0.008844716649699297 -0.00011134618932835573 0.0007938455949840999 0.000682736947292438 0.00574171873571434 -0.00805264127751523
27510 -0.0029802433809535435 0.0007204603464416523 0.0006937077791009763 0.003139331520141275 0.005236494610443497 0.005734125357135123 0.005584305914518772 -0.0015518313343803251 -0.0017087487138522234 0.0012829010704829148 -0.0009479921492953316 0.0012338296336127182 0.0016627383368939528 -0.0032688068952421143 -0.0035935088764876538 -0.0035935088764876538 -0.005401566941865226 0.0073793867800332515 -0.007980511500808776 0.005269693556966868 -0.0037518198627648977 -0.0037518198627648977 -0.003558660698517976 0.00026472059819170415 0.0012965594854759477 -0.0008126085048073254 -0.009450675080944526 0.0009808874823372719 -0.004305469389849911 -0.004305469389849911 4.990134631648903e-05 -0.002690302126323672 -0.00246167780550355 5.393888053731855e-05 -0.0018113709147238402 0.005838085293346808 -0.0028904084563147244 -0.0021605313634071124 -0.004055167642452171 -0.005262524480875327 0.005124296135750534 -0.003353817887631856 -0.013504987840459712 -0.003697604004929969 0.002129960311203962 -0.00017584754545239343 -0.004722040814710853 -0.0030039649724350652 0.005963799212297323 0.004222416090706184
28290 -0.003441288636488314 0.0008319159499170666 0.0008010247460057549 0.0036249877964580077 0.006046583145899158 0.006621197637018046 0.006448201045969251 -0.0017919004772828345 -0.0019730930598400153 0.0014813665567738872 -0.00109464704517065 0.0014247037422009602 0.0019199648527951578 -0.0037744930817937873 -0.00414942663435092 -0.00414942663435092 -0.006237192255863316 0.008520981887813108 -0.009215100926525674 0.0060849179873232635 -0.004332228415436522 -0.004332228415436522 -0.004109187424487752 0.000305673017252021 0.0014971379359198533 -0.000938319477992514 -0.010912699604013972 0.0011326313039443246 -0.004971527822435089 -0.004971527822435089 5.7621111457473455e-05 -0.0031064933136689026 -0.0028425006873313155 6.228325439595154e-05 -0.002743721505511639 0.009444241178442546 -0.003863931552985126 0.015208924583905018 0.00559490597773159 -0.010112068643765338 0.009406274209669215 -0.007771326239157861 -0.025356502104231595 -0.012255798481967992 0.00598598433544155 -2.362369641861874e-05 0.0006311480829109047 0.00018917477248737725 0.0055253409256205595 -0.011136552168401833
286500 -0.0021073503042586027 0.0005094423965448592 0.0004905254747641176 0.0022198426062845383 0.0037027608486913926 0.004054638924203961 0.0039487005803763384 -0.0010973104597981017 -0.0012082678029087107 0.0009071480465299604 -0.0006703316772783588 0.0008724493007564961 0.0011757335533565132 -0.002311395522015026 -0.0025409944948184405 -0.0025409944948184405 -0.0038194846136259575 0.005218014433159851 -0.005643073799559112 0.0037262360489063178 -0.0026529372667514098 -0.0026529372667514098 -0.0025163531118641293 0.00018718573010110254 0.0009168060043917942 -0.000574600984199084 -0.006682636436526511 0.0006935921903416923 -0.003044426601753992 -0.003044426601753992 3.52855803706809e-05 -0.0019023308769640821 -0.0017406690693679916 3.81405481974849e-05 0.00016079741354695564 0.004975282611395876 -0.0022106457945406228 0.006593016756366256 0.00018928014724839992 -0.005091150754452299 0.00575067590581222 -0.003668940446363891 -0.017089767516355044 -0.0045086627751746485 0.0048599516504764795 -0.00015510466158237462 -0.00650021782686765 -0.004851441934419658 0.010216747721346845 0.014806188801878499
287787 -0.0042147006085172705 0.0010188847930897333 0.0009810509495282876 0.004439685212569114 0.007405521697382794 0.008109277848407944 0.007897401160752701 -0.002194620919596404 -0.0024165356058173746 0.0018142960930598627 -0.0013406633545567069 0.0017448986015130008 0.0023514671067129925 -0.004622791044029967 -0.005081988989636884 -0.005081988989636884 -0.0076389692272519 0.010436028866319698 -0.011286147599118234 0.007452472097812612 -0.0053058745335028195 -0.0053058745335028195 -0.005032706223728255 0.0003743714602022049 0.001833612008783619 -0.0011492019683982222 -0.013365272873053074 0.0013871843806833946 -0.0060888532035079605 -0.0060888532035079605 7.057116074142512e-05 -0.0038046617539282 -0.003481338138735982 7.628109639487373e-05 -0.0033814620934196392 0.012424856000412654 -0.005319939143265612 0.02418785895939858 0.007390267188397175 -0.016500319626319544 0.015914848603241064 -0.013607829692083304 -0.046440196682615745 -0.02253010207941053 0.01458123147600176 -0.0001906950729656688 0.0012644354172984124 0.0011026606280918182 0.008429622281845666 -0.017009718164200164
28851 -0.0024333585308811303 0.0005882534095635873 0.0005664100297989319 0.0025632534525939703 0.004275579945473582 0.0046818937487118 0.004559566686059037 -0.0012670649786980577 -0.0013951874825249403 0.001047484337717792 -0.0007740323486460008 0.0010074176772921588 0.0013576201670513258 -0.0026689696536781374 -0.0029340877111855967 -0.0029340877111855967 -0.00441036093968519 0.006025244075240455 -0.006516060354464799 0.004302686771800306 -0.003063348090204264 -0.003063348090204264 -0.002905634293021848 0.0002161434633246155 0.0010586363868605548 -0.0006634920658079525 -0.007716443891050034 0.000800891275603226 -0.003515401036101413 -0.003515401036101413 4.0744278651118565e-05 -0.0021966224878059407 -0.0020099515115393546 4.404091153771886e-05 -0.0019465251265190697 0.007338952729388117 -0.0032503597325694846 0.014683723237837634 0.004293900432981261 -0.010305412744241063 0.010025098280834853 -0.008641736687684492 -0.02929347504968859 -0.014252164626396096 0.010036222780636981 -0.00015119597455570875 0.0007523966727319333 0.000761728685328232 0.006630562224273676 -0.010224427321280656
289779 -0.002433358530881064 0.000588253409563512 0.0005664100297988942 0.0025632534525939815 0.004275579945473604 0.004681893748711824 0.0045595666860590535 -0.0012670649786981798 -0.0013951874825249048 0.001047484337717777 -0.0007740323486459685 0.001007417677292128 0.0013576201670512853 -0.0026689696536781153 -0.002934087711185513 -0.002934087711185513 -0.004410360939685193 0.0060252440752404145 -0.006516060354464705 0.004302686771800319 -0.0030633480902042716 -0.0030633480902042716 -0.0029056342930218024 0.00021614346332467606 0.001058636386860639 -0.0006634920658079846 -0.007716443891049996 0.0008008912756031646 -0.003515401036101417 -0.003515401036101417 4.074427865102413e-05 -0.002196622487806021 -0.0020099515115393155 4.404091153793208e-05 -0.0019287402906148841 0.007223271537050917 -0.003157197246851074 0.013886473485065862 0.0041517193319865085 -0.009582427211846272 0.009262077914985187 -0.007966174393023977 -0.02763506099804371 -0.012874358959731807 0.00843341115585516 -6.250691714090207e-05 0.0016297286743506766 0.001146340276671524 0.0052626364426740305 -0.00892861171688034
289780 -0.0032190307616844003 0.0007781861147954284 0.0007492900394703017 0.003390865591395721 0.005656060623149111 0.006193563261959684 0.006031739768763551 -0.001676169414297334 -0.0018456595555355784 0.0013856915299182361 -0.001023948550618282 0.0013326883202426053 0.001795962668451849 -0.003530714980205238 -0.0038814332043237976 -0.0038814332043237976 -0.005834359119220089 0.007970648705775745 -0.00861993761290052 0.005691919583795472 -0.004052428612952565 -0.004052428612952565 -0.0038437928701183285 0.00028593092573466476 0.0014004443042385712 -0.0008777175014962089 -0.010207895770751011 0.0010594795712236238 -0.00465043845009158 -0.00465043845009158 5.389961432967377e-05 -0.002905858413513318 -0.002658915923415705 5.826064972099807e-05 -0.00255972111500085 0.009603646418693181 -0.004201049853719389 0.018591809714846207 0.005559676456992643 -0.012849019245981183 0.012421368895851638 -0.010697174777281807 -0.0371380199709843 -0.017310672556200585 0.01135910474596663 -8.46184401920884e-05 0.0022105989292294085 0.001555876627561151 0.007152336404943598 -0.012147420976253771
